svm_type c_svc
kernel_type rbf
gamma 0.00012207
nr_class 2
total_sv 198
rho -5.37305
label 1 -1
nr_sv 81 117
SV
17.20488836884414 1:-0.482759 2:-1 3:-1 4:-1 5:-0.7 6:-1 7:-1 8:-1 9:-1 10:-0.333333 11:-1 12:-1 13:-1 14:-1 15:-1 16:-1 18:-1 19:-1 20:-1 21:-1 22:-1 23:-1 24:-1 25:-1 26:-1 27:-1 28:-1 29:-1 30:-1 31:-1 32:-1 33:-1 34:-1 35:-1 36:-1 37:-1 38:-1 39:-1 40:-1 41:-1 43:-0.5 44:-1 45:-1 46:-0.5 47:-1 48:-1 49:-1 50:-1 51:-1 52:-1 53:-1 54:-1 55:-1 56:-1 57:-1 58:-0.2 59:-1 61:0.333333 62:-1 64:-1 65:-1 66:-1 67:-1 68:-0.5 69:-1 70:-1 71:-1 72:-1 73:-1 74:-1 75:-1 76:-1 77:-1 78:-1 79:-1 80:-1 81:-1 83:-1 84:-1 85:-1 86:-1 87:-1 89:-1 90:-1 91:-1 92:-1 93:-1 94:-1 95:-1 96:-0.333333 97:-1 98:-1 99:-1 100:-1 102:-1 103:-1 104:-1 105:-1 106:-1 107:-1 108:-1 109:-1 110:-1 111:-1 112:-1 113:1 114:-1 115:-0.5 116:-1 117:-1 118:-1 119:-1 122:-1 123:-1 124:-1 125:-1 126:-1 127:-1 128:-1 129:-1 130:-1 131:-1 133:-1 134:-1 135:-1 136:-1 137:-1 138:-1 140:-1 141:-1 142:-1 143:-1 144:-1 145:-1 146:-1 147:-1 148:-1 149:1 150:-1 151:-1 152:-1 153:-1 154:-0.6 155:-1 156:-1 157:-1 159:-1 160:-1 161:-1 162:-0.333333 164:-1 165:-1 166:-1 167:-1 168:-1 169:-1 170:-1 171:-1 172:-1 173:-1 174:-1 175:-1 176:-1 178:-1 179:-1 180:-1 181:-1 182:-1 183:-1 184:-0.6 185:-1 186:-1 187:-1 188:-1 189:-1 190:-1 191:-1 192:-1 193:-1 194:-1 195:-0.333333 198:-1 199:-1 200:-1 201:-1 203:-1 204:-1 205:-1 206:-1 207:-1 208:-1 209:-1 210:-1 211:-1 212:-1 213:-1 214:-1 216:-1 217:-1 219:-1 220:-1 221:-0.333333 222:-1 223:-0.333333 224:-1 225:-1 226:-1 227:-1 228:-1 229:-1 230:-1 231:-1 232:-1 233:-1 235:-1 236:-1 237:-0.666667 238:-1 239:-1 240:-1 241:-1 242:-1 243:-1 244:-1 245:-1 246:-1 247:-1 248:-1 249:-1 250:-1 251:-1 252:-1 254:1 255:-1 256:-1 257:-1 258:-0.2 259:-1 260:-1 261:-1 262:-1 263:-1 264:-1 265:-1 266:-1 267:-1 268:-1 269:-1 270:-1 271:-1 273:-1 274:-1 275:-1 276:-1 277:-1 278:-1 279:-1 280:-1 281:-1 282:-1 283:-1 284:-1 285:-1 286:-1 287:-1 288:-1 289:-1 290:-1 292:-1 293:-1 294:-1 295:-1 296:-1 297:-1 298:-1 299:-1 300:-1 301:-1 302:-1 303:-1 304:-1 305:-1 306:-1 307:-1 308:-1 309:1 311:-1 312:-1 313:-1 314:-1 315:-1 316:-1 317:-1 318:-1 319:-1 320:-1 321:-1 322:-1 323:-1 324:-1 325:-1 326:-1 328:-1 330:-1 331:-1 332:-1 333:-1 334:-1 335:-1 336:-1 337:-1 338:-1 339:-1 340:-1 341:-1 342:-1 343:-0.333333 344:-1 345:-1 346:-1 347:-1 349:-1 351:-1 352:-1 353:-1 354:-1 355:-1 356:-1 357:-1 358:-0.714286 359:-1 360:-1 361:-1 362:-1 363:-1 364:-1 365:-1 366:-1 368:-1 369:-1 370:-1 371:-1 372:-1 373:-1 374:-1 375:-1 376:-1 377:-1 378:-1 379:-1 380:-1 381:-1 382:-1 383:-1 384:-1 385:-1 387:-1 388:-1 389:1 390:-1 391:-1 392:-1 393:-0.333333 394:-1 395:-1 396:-0.333333 397:-1 398:-1 399:-1 400:-1 401:-1 402:-1 403:-1 406:-1 407:-1 408:-1 409:-1 410:-1 411:-1 412:-1 413:-1 414:-1 415:-1 416:-1 418:-1 419:-1 420:-1 421:-1 422:-1 423:-1 424:-1 425:-0.714286 426:1 427:-1 428:-1 429:-1 430:-0.6 431:-1 433:-1 434:-1 435:-1 436:-1 438:-1 439:-1 440:-1 441:-1 442:-1 443:-1 444:-1 445:-1 446:-1 447:-1 448:-1 449:-0.666667 450:-1 451:-1 452:-1 453:-1 454:-1 455:-1 456:-1 457:-1 458:-0.5 459:-1 461:-1 462:-0.333333 463:-1 464:-1 465:-1 466:-1 468:-1 469:-0.333333 470:-0.2 471:-1 472:-1 473:-1 474:-1 475:-1 476:-1 478:-1 479:-1 480:-1 481:-1 482:-1 483:-1 484:-1 485:-1 486:-1 487:-1 488:-1 489:-1 490:-1 491:-1 492:-1 494:-1 495:-1 496:1 497:-1 498:-1 499:-1 500:-1 501:-1 502:-1 504:-1 506:-1 507:-1 509:-1 510:-1 511:-1 512:-1 513:-1 514:-1 515:-1 516:-1 517:-1 519:-1 520:-1 521:-1 522:-1 523:-1 524:-1 525:-1 526:-1 527:-1 528:-1 529:-1 530:-1 531:-1 532:-1 533:-1 534:-1 535:-1 536:-0.333333 537:-1 538:-1 539:-1 540:-1 541:-1 542:-1 543:-1 544:-1 545:-1 546:-1 547:-1 548:-1 549:-1 550:-1 551:-1 552:-1 553:-1 554:-1 555:-0.333333 556:-0.5 557:-1 558:-1 559:-1 560:-0.6 561:-1 562:-1 563:-1 564:-1 565:-1 566:-1 567:-1 568:-1 569:-1 570:-1 571:-1 572:-1 573:-1 574:-1 575:-1 576:-1 577:-1 578:-1 579:-1 580:-1 581:-1 582:-1 583:-1 584:-1 585:-1 586:-1 587:-1 588:-1 589:-1 590:-1 591:-1 592:-1 593:-1 594:-1 595:-1 596:-0.5 597:-1 598:-0.333333 599:-0.571429 600:-0.555556 601:-1 602:-1 603:-1 604:-1 605:-1 606:-0.333333 607:-0.2 608:-1 609:-1 610:-1 611:-1 612:-1 613:-1 614:-1 615:-1 617:-1 618:-0.8 619:-1 620:-1 621:-1 622:-1 623:-1 624:-1 625:-1 626:-1 627:-1 628:-1 629:-0.866667 630:-1 631:-1 632:-0.5 633:-1 634:-0.75 636:-1 637:-0.636364 638:-1 639:-1 640:-1 641:-0.5 642:-1 643:-1 644:-1 645:-1 646:-1 647:-0.75 648:-0.6 649:-0.636364 650:-1 651:-1 652:-1 653:-0.333333 655:-1 656:-1 657:-1 658:-0.6 659:-1 660:-1 661:-1 662:-1 663:-1 664:-1 665:-1 666:-0.666667 667:-1 668:-0.454545 669:-1 670:-0.666667 671:-0.75 672:-1 674:-1 675:-1 676:-1 677:-1 678:-0.666667 679:-1 680:-1 681:-1 682:-1 683:1 684:-1 685:-1 686:-0.428571 687:-1 688:-1 689:-1 690:-0.6 691:-1 693:-1 694:-0.6 695:-1 696:-1 697:-1 698:-1 699:-1 700:-1 701:-1 702:-1 703:-1 704:-0.8 705:-1 706:-1 707:-1 708:-1 709:-1 710:-0.333333 712:-1 713:-1 714:-1 715:-0.428571 716:-1 717:-1 718:-1 719:-1 720:-1 721:-1 722:-1 723:-1 724:-1 725:-1 726:-1 727:-1 728:-1 729:-1 731:-1 732:-1 733:-1 734:-1 735:-1 736:-1 737:-1 738:-1 739:-1 740:-1 741:-0.142857 742:-1 743:-1 744:-1 745:-1 746:-1 747:-1 748:-0.777778 750:-0.666667 751:-1 752:-1 753:-1 754:-0.625 755:-0.5 756:-1 757:-1 758:-1 759:-1 760:-1 761:-1 762:-1 763:-1 764:-1 765:-1 766:-1 767:-0.666667 769:-1 770:-1 771:-0.666667 772:-0.5 773:-0.8 774:-1 775:-0.875 777:-0.777778 778:-1 779:-1 780:-1 781:-1 782:-1 783:-1 784:-1 785:-1 786:-1 788:-1 789:-0.6 790:-0.25 791:-1 792:-1 793:-0.333333 794:-1 795:-0.769231 796:-1 797:-1 798:-1 799:-1 800:-1 801:-1 802:-1 803:-1 804:-1 805:-1 807:-0.666667 808:-1 809:-0.142857 810:-1 811:-0.666667 812:-1 813:-0.6 814:-1 815:-1 816:-1 817:-1 818:-1 819:-1 820:-1 822:-0.882353 823:-1 824:-1 826:-1 827:-1 828:-1 829:-1 830:-1 831:-1 832:-1 833:-1 834:-1 835:-0.333333 836:-1 837:-1 838:-1 839:-1 840:-1 841:-1 842:-1 843:-1 845:-1 846:-1 847:-1 848:-1 849:-1 850:-1 851:-0.666667 852:-1 853:-1 854:-1 855:-1 856:-1 857:-1 858:-1 859:-0.777778 860:-1 861:-1 862:-1 864:-1 865:-1 866:-1 867:-1 868:-1 869:-1 870:-1 871:-1 872:-1 873:-0.75 874:-1 875:-1 876:-1 877:-1 878:-1 879:-1 880:-1 881:-1 883:-1 884:-1 885:-1 886:-1 887:-1 888:-1 889:-0.636364 890:-1 891:-1 892:-1 893:-1 894:-1 895:-1 896:-0.777778 897:-0.2 898:-1 899:-0.8 900:-1 902:-1 903:-0.714286 904:-1 905:-1 906:-1 907:-1 908:-1 909:-1 910:-1 911:-0.837838 912:-1 913:-1 914:-1 915:-1 916:-1 917:-1 918:-1 919:-1 921:-0.882353 922:-1 923:-1 924:-0.333333 925:-1 926:-1 927:-1 928:-1 929:-1 930:-1 931:-1 932:-1 933:-1 934:-1 935:-1 936:-1 937:-0.75 938:-1 940:-1 941:-1 942:-1 943:-1 944:-1 945:-0.2 946:-0.6 947:-1 948:-1 949:-0.888889 950:-1 951:-0.333333 952:-1 953:-1 954:-1 955:-1 956:-1 957:-1 959:-1 960:-1 961:-1 962:-1 963:-1 964:-1 965:-1 966:-1 967:-1 968:-1 969:-1 970:-1 971:-1 972:-0.769231 973:-1 974:-1 975:-1 976:-0.428571 977:-1 978:-0.837838 979:-1 980:-1 981:-1 982:-1 983:-0.913043 984:-1 985:-1 986:-1 987:-1 989:-1 990:-1 991:-1 992:-0.6 993:-1 994:-0.882353 995:-1 996:-1 997:-0.625 998:-0.6 999:-1 1000:-1 1001:-1 1002:-0.25 1003:-1 1004:-1 1005:-1 1006:-1 1007:-1 1008:-1 1009:-1 1010:-1 1011:-0.5 1012:-1 1014:-1 1015:-0.636364 1016:-1 1017:-1 1018:-1 1019:-1 1020:-1 1021:-1 1022:-0.888889 1023:-0.666667 1024:-1 1025:-1 1026:-1 1027:-1 1028:-1 1029:-1 1031:-1 1032:-1 1033:-1 1034:-1 1035:-1 1036:-1 1037:-1 1038:-1 1039:-1 1040:-1 1041:-1 1042:-1 1043:-0.75 1044:-1 1045:-1 1046:-1 1047:-1 1048:-1 1049:-0.666667 1050:-1 1051:-1 1052:-1 1053:-1 1054:-1 1055:-1 1056:-1 1057:-1 1058:-1 1059:-1 1060:-0.8 1061:-1 1062:-1 1063:-1 1064:-1 1065:-1 1066:-1 1067:-1 1068:-0.8 1069:-1 1070:-1 1071:-1 1072:-1 1073:-1 1074:-1 1075:-1 1076:-1 1077:-1 1078:-1 1079:-1 1080:-0.8 1081:-1 1082:-1 1083:-1 1084:-1 1085:-1 1086:-1 1087:-1 1088:-1 1089:-0.777778 1090:-1 1091:-1 1092:-1 1093:-1 1094:-1 1095:-1 1096:-1 1097:-1 1098:-1 1099:-1 1100:-1 1101:-1 1102:-0.666667 1103:-1 1104:-1 1105:-1 1106:-1 1107:-1 1108:-1 1109:-1 1110:-0.5 1111:-0.443299 1112:-1 1113:-1 
206.4978362094048 2:-0.999009 3:-1 4:-0.998731 5:0.6 6:-1 7:-1 8:-1 9:-1 10:-0.333333 11:-1 12:-1 13:-1 14:-1 15:-1 16:-1 18:-1 19:-1 20:-1 21:-1 22:-1 23:-1 24:-1 25:-1 26:-1 27:-1 28:-1 29:-1 30:-1 31:-1 32:-1 33:-1 34:-1 35:-1 36:-1 37:-1 38:-1 39:-1 40:-1 41:-1 42:-1 43:-1 44:-1 45:-1 46:-1 47:-1 48:-1 49:-1 50:-1 51:-1 52:-1 53:-1 54:-1 55:-1 56:-1 57:-1 58:-0.6 59:-0.5 61:-1 62:-1 64:-1 65:-1 66:-1 67:-1 68:-1 69:-1 70:-1 71:-1 72:-1 73:-1 74:-1 75:-1 76:-1 77:-1 78:-1 79:-1 80:-1 81:-1 83:-1 84:-1 85:-1 86:-1 87:-1 88:-1 89:-1 90:-1 91:-1 92:-1 93:-1 94:-0.5 95:-1 96:-1 97:-1 98:-0.333333 99:-1 102:-1 103:-1 104:-1 105:-1 106:-1 107:-1 108:-1 109:-1 110:-1 111:-1 112:-1 113:-1 114:-1 115:-1 116:-1 117:-1 118:-1 119:-1 121:-1 122:-1 123:-1 124:-1 125:-1 126:-1 127:-1 128:-1 129:-1 130:-1 131:-1 133:-1 134:-1 135:-1 136:-1 137:-1 138:-1 140:-1 141:-1 142:-1 143:-1 144:-1 145:-1 146:-1 147:-1 148:-1 149:-1 150:-1 151:-1 152:-1 153:-1 154:-1 155:-1 156:-1 157:-1 159:-1 160:-1 161:-1 162:-0.333333 163:-1 165:-1 166:-1 167:-1 168:-1 169:-1 170:-1 171:-1 172:-1 173:-1 174:-1 175:-1 176:-0.6 178:-1 179:-0.333333 180:-1 181:-1 182:-1 183:-1 184:-1 186:-1 187:-1 188:-1 189:-1 190:-1 191:-1 192:-1 193:-1 194:-1 195:-1 197:-1 198:-1 199:-1 200:-1 201:-1 202:-1 203:-1 204:-1 205:-1 206:-1 207:-1 208:-1 209:-1 210:-1 211:-1 212:-1 213:-1 214:-1 216:-1 217:-1 218:-1 219:-1 220:-1 221:-1 223:-1 224:-1 225:-1 226:-1 227:-1 228:-1 229:-0.333333 230:-1 231:-1 232:-1 233:-1 235:-1 236:-1 237:-1 238:-1 239:-1 240:-1 241:-1 242:-1 243:-1 245:-1 246:-1 247:-1 248:-1 249:-1 250:-1 251:-1 252:-1 254:-1 255:-1 256:-1 257:-1 258:-1 259:-1 260:-1 261:-1 262:-1 263:-1 265:-1 266:-1 267:-1 268:-1 269:-1 270:-1 271:-1 273:-1 274:-1 275:-1 276:-1 277:-1 278:-1 279:-1 280:-1 281:-1 282:-1 283:-1 284:-1 285:-1 286:-1 287:-0.5 288:-1 289:-1 290:-1 292:-1 293:-1 294:-1 295:-1 296:-1 297:-1 298:-1 299:1 300:-1 301:-1 302:-1 303:-1 304:-1 305:-1 306:-0.333333 307:-1 308:-1 309:-1 311:-1 312:-1 313:-1 314:-1 315:-1 316:-1 317:-1 318:-1 319:-1 320:-1 321:-1 322:-1 323:-1 324:-1 325:-1 326:-1 328:-1 330:-1 331:-1 332:-1 333:-1 334:-1 335:-1 336:-1 337:-1 338:-1 339:-1 340:-1 341:-1 342:-1 343:-1 344:-1 345:-1 346:-1 347:-1 349:-1 350:-1 351:-1 352:-1 353:-1 354:-1 355:-1 356:-1 357:-1 358:-1 359:-1 360:-1 361:-1 362:-1 363:-1 364:-1 365:-1 366:-1 368:-1 369:-1 370:-1 371:-1 372:-1 373:-1 374:-1 375:-1 376:-1 377:-1 378:-1 379:-1 380:-1 381:-1 382:-1 383:-1 384:-1 385:-1 387:-1 388:-1 389:-1 390:-1 391:-1 392:-1 393:-1 394:-1 395:-1 396:-1 397:-1 398:-1 399:-1 400:-1 401:-1 403:-1 406:-1 407:-1 408:-1 409:-1 410:-1 411:-1 412:-1 413:-1 414:-1 415:-1 416:-1 417:-1 418:-1 419:-1 420:-1 421:-1 422:-1 423:-1 424:-1 425:-1 426:-1 427:-1 428:-1 429:-1 430:-1 431:-1 433:-1 434:-1 435:-1 436:-0.333333 438:-1 439:-1 440:-1 441:-1 442:-1 443:-1 444:-1 445:-1 446:-1 447:1 448:-1 449:-1 450:-1 451:-1 452:-1 453:-1 454:-1 455:-1 456:-1 457:-1 458:-1 459:-1 461:-1 462:-1 463:-1 464:-1 465:1 466:-1 468:-1 469:-1 470:-1 471:-1 472:-1 473:-1 474:-1 475:-1 476:-1 478:-1 479:-1 480:-1 481:-1 482:-1 483:-1 484:-1 485:-1 486:-1 487:-1 488:-1 489:-1 490:-1 491:-1 492:-1 494:-1 495:-1 496:-1 497:-1 498:-0.333333 499:-1 500:-1 501:-1 502:-1 504:-1 506:-1 507:-1 509:-1 510:-1 511:-1 512:-1 513:-1 514:-1 515:-1 516:-1 517:-1 519:-1 520:-1 521:-1 522:-1 523:-1 524:-1 525:-1 526:-1 527:-1 528:-1 530:-1 531:-1 532:-1 533:-1 534:-1 535:-1 536:-1 537:-1 538:-1 539:-1 540:-1 541:-1 543:-1 544:-1 545:-0.6 546:-1 547:-1 548:-1 549:-1 550:-1 551:-1 552:-1 553:-1 554:-1 555:-1 556:-1 557:-1 558:-1 559:-1 560:-1 561:-1 562:-1 563:-1 564:-1 565:-0.9 566:-1 567:-1 568:-1 569:-1 570:-1 571:-1 572:-1 573:-1 574:-0.666667 575:-1 576:-1 577:-1 578:-0.833333 579:-1 580:-1 581:-1 582:-1 583:-1 584:-1 585:-1 586:-1 587:-1 588:-1 589:-1 590:-1 591:-1 592:-0.866667 593:-1 594:-1 595:-1 596:-1 597:-1 598:-1 599:-0.714286 600:-1 601:-1 602:-1 603:-1 604:-1 605:-1 606:-1 607:-1 608:-1 609:-0.52 610:-1 611:-0.833333 612:-1 613:-1 614:-1 615:-1 617:-1 618:-1 619:-1 620:-1 621:-1 622:-1 623:-1 624:-1 625:-1 627:-1 628:-1 629:-1 630:-1 631:-1 632:-1 633:-1 634:-1 636:-1 637:-1 638:-1 639:-1 640:-1 641:-1 642:-1 643:-1 644:-1 645:-0.428571 646:-1 647:-1 648:-1 649:-1 650:-1 651:-0.75 652:-1 653:-1 655:-1 656:-1 657:-1 658:-1 659:-1 660:-1 661:-1 662:-1 663:-1 664:-1 665:-1 666:-1 667:-1 668:-1 669:-1 670:-1 671:-1 672:-1 674:-1 675:-1 676:-1 677:-1 678:-1 679:-1 680:-1 681:-1 682:-1 683:-1 684:-1 685:-1 686:-1 687:-1 688:-0.777778 689:-1 690:-1 691:-1 693:-1 694:-1 695:-1 696:-1 697:-1 698:-1 699:-1 700:-1 702:-1 703:-1 704:-0.8 705:-1 706:-1 707:-1 708:-1 709:-1 710:-1 712:-1 713:-1 714:-1 715:-1 716:-0.75 717:-1 718:-1 719:-0.846154 720:-1 721:-1 722:-1 723:-1 724:-1 725:-0.714286 726:-0.111111 727:-1 728:-1 729:-1 731:-1 732:-1 733:-1 734:-1 735:-1 736:-1 737:-1 738:-1 739:-1 740:-1 741:-1 742:-0.5 743:-0.333333 744:-1 745:-1 746:-1 747:-1 748:-0.777778 750:-1 751:-1 752:-1 753:-1 754:-1 755:-1 756:-1 757:-1 758:-1 759:-1 760:-1 761:-1 762:-1 763:-1 764:-1 765:-1 766:-1 767:-1 769:-1 770:-1 771:-1 772:-1 773:-1 774:-0.666667 775:-1 776:-1 777:-1 778:-1 779:-1 780:-0.833333 781:-1 782:-1 783:-1 784:-0.857143 785:-1 786:-1 788:-1 789:-1 790:-0.5 791:-1 792:-1 793:0.333333 794:-1 795:-1 796:-1 797:0.333333 798:-1 799:-1 800:-1 801:-1 802:-1 803:-1 804:-1 805:-1 807:-1 808:-1 809:-1 810:-1 811:-1 812:-1 813:-1 814:-1 815:-1 816:-1 817:-1 818:-1 819:-1 820:-1 821:-1 822:-1 823:-1 824:-1 826:-1 827:-1 828:-1 829:-1 830:-1 831:-1 832:-0.8 833:-1 834:-1 835:-1 836:-1 837:-0.894737 838:-1 839:-0.5 840:-1 841:-1 842:-1 843:-0.714286 845:-0.6 846:-1 847:-1 848:-1 849:-1 850:-1 851:-0.333333 852:-1 853:-1 854:-1 855:-1 856:-1 857:-1 858:-1 859:-1 860:-1 861:-1 862:-1 864:-1 865:-1 866:-1 867:-1 868:-1 869:-0.6 870:-1 871:-1 872:-1 873:-1 875:-1 876:-1 877:-1 878:-1 879:-1 880:-0.6 881:-1 883:-0.6 884:-1 885:-0.5 886:-1 887:-1 888:-1 889:-1 890:-1 891:-1 892:-1 893:-1 894:-1 895:-1 896:-1 897:-1 898:-1 899:-1 900:-1 902:-1 903:-0.857143 904:-1 905:-1 906:-1 907:-1 908:-1 909:-1 910:-1 911:-1 912:-1 913:-1 914:-1 915:-1 916:-1 917:-0.4 918:-1 919:-1 921:-1 922:-1 923:-1 924:-1 925:-1 926:-1 927:-1 928:-1 929:-1 930:-1 931:-1 932:-1 933:-1 934:-0.666667 935:-1 936:-1 937:-0.75 938:-0.666667 940:-1 941:-1 942:-1 943:-1 944:-1 945:-1 946:-1 947:-1 948:-1 949:-1 950:-1 951:-1 952:-1 953:-1 954:-1 955:-1 956:-0.846154 957:-1 959:-1 960:-1 961:-1 962:-1 963:-1 964:-1 965:-1 966:-1 967:-1 968:-1 969:-1 970:-0.75 971:-1 972:-1 973:-1 974:-1 975:-1 976:-1 977:-1 978:-1 979:-1 980:-1 981:-1 982:-1 983:-1 984:-1 985:-1 986:-1 987:-1 988:-1 989:-0.75 990:-1 991:-1 992:-1 993:-1 994:-1 995:-1 996:-1 997:-1 998:-1 999:-1 1000:-1 1001:-1 1002:-0.5 1003:-1 1004:-1 1005:-1 1006:-1 1007:1 1008:-1 1009:-1 1010:-1 1011:-1 1012:-1 1014:-1 1015:-1 1016:-1 1017:-1 1018:-1 1019:-1 1020:-1 1021:-1 1022:-1 1023:-1 1024:-1 1025:-1 1026:-1 1027:-1 1028:-1 1029:-1 1031:-1 1032:-1 1033:-1 1034:-1 1035:-1 1036:-1 1037:-1 1038:-1 1039:-1 1040:-1 1041:-1 1042:-1 1043:-0.75 1044:-1 1045:-1 1046:-1 1047:-1 1048:-1 1049:-1 1050:-1 1051:-1 1052:-1 1053:-1 1054:-1 1055:-1 1056:-1 1057:-1 1058:-1 1059:-1 1060:-0.8 1061:-1 1063:-1 1064:-1 1065:-1 1066:-1 1067:-0.2 1068:-1 1069:-1 1070:-1 1071:-1 1072:-1 1073:-1 1074:-1 1075:-0.714286 1076:-1 1077:-1 1078:-1 1079:-1 1080:-1 1081:-1 1082:0.333333 1083:-0.857143 1084:-1 1085:-1 1086:-1 1087:-1 1088:-1 1089:-0.777778 1090:-1 1091:-1 1092:-1 1093:-1 1094:-1 1095:-1 1096:-1 1097:-1 1098:-1 1099:-1 1100:-1 1101:-1 1102:-1 1103:-1 1104:-1 1105:-1 1106:-1 1107:-1 1108:-0.666667 1109:-1 1110:-0.9 1111:-0.958763 1112:-1 1113:-1 
183.6783038140259 1:-0.0344828 2:-0.999505 3:-1 4:-0.997253 5:1 6:-1 7:-1 8:-1 9:-1 10:-1 11:-1 12:-1 13:-1 14:-1 15:-1 16:-1 18:-1 19:-1 20:-1 21:-1 22:-1 23:-1 24:-1 25:-1 26:-1 27:-1 28:-1 29:-1 30:-1 31:-1 32:-1 33:-1 34:-1 35:-1 36:-1 37:-1 38:-1 39:-1 40:-1 41:-1 42:-1 43:-1 44:-1 45:-1 46:-1 47:-1 48:-1 49:-1 50:-1 51:-1 52:-1 53:-1 54:-1 55:-1 56:-1 57:-1 58:-1 59:-1 61:-1 62:-1 64:-1 65:-1 66:-1 67:-1 68:-1 69:-1 70:-1 71:-1 72:-1 73:-1 74:-1 75:-1 76:-1 77:-1 78:-1 79:-1 80:-1 81:-1 83:-1 84:-1 85:-1 86:-1 87:-1 88:-1 89:-1 90:-1 91:-1 92:-1 93:-1 94:-1 95:-1 96:-1 97:-1 98:-1 99:-1 100:-1 102:-1 103:-1 104:-1 105:-1 106:-1 107:-1 108:-1 109:-1 110:-1 111:-1 112:-1 113:-1 114:-1 115:-1 116:-1 117:-1 118:-1 119:-1 121:-1 122:-1 123:-1 124:-1 125:-1 126:-1 127:-1 128:-1 129:-1 130:-1 131:-1 133:-1 134:-1 135:-1 136:-1 137:-1 138:-1 140:-1 141:-1 142:-1 143:-1 144:-1 145:-1 146:-1 147:-1 148:-1 149:-1 150:-1 151:-1 152:-1 153:-1 154:-1 155:-1 156:-1 157:-1 159:-1 160:-1 161:-1 162:-1 163:-1 164:-1 165:-1 166:-1 167:-1 168:-1 169:-1 170:-1 171:-1 172:-1 173:-1 174:-1 175:-1 176:-1 178:-1 179:-1 180:-1 181:-1 182:-1 183:-1 184:-1 185:-1 186:-1 187:-1 188:-1 189:-1 190:-1 191:-1 192:-1 193:-1 194:-1 195:-1 197:-1 198:-1 199:-1 200:-1 201:-1 202:-1 203:-1 204:-1 205:-1 206:-1 207:-1 208:-1 209:-1 210:-1 211:-1 212:-1 213:-1 214:-1 216:-1 217:-1 218:-1 219:-1 220:-1 221:-1 222:-1 223:-1 224:-1 225:-1 226:-1 227:-1 228:-1 229:-1 230:-1 231:-1 232:-1 233:-1 235:-1 236:-1 237:-1 238:-1 239:-1 240:-1 241:-1 242:-1 243:-1 244:-1 245:-1 246:-1 247:-1 248:-1 249:-1 250:-1 251:-1 252:-1 254:-1 255:-1 256:-1 257:-1 258:-1 259:-1 260:-1 261:-1 262:-1 263:-1 264:-1 265:-1 266:-1 267:-1 268:-1 269:-1 270:-1 271:-1 273:-1 274:-1 275:-1 276:-1 277:-1 278:-1 279:-1 280:-1 281:-1 282:-1 283:-1 284:-1 285:-1 286:-1 287:-1 288:-1 289:-1 290:-1 292:-1 293:-1 294:-1 295:-1 296:-1 297:-1 298:-1 299:-1 300:-1 301:-1 302:-1 303:-1 304:-1 305:-1 306:-1 307:-1 308:-1 309:-1 311:-1 312:-1 313:-1 314:-1 315:-1 316:-1 317:-1 318:-1 319:-1 320:-1 321:-1 322:-1 323:-1 324:-1 325:-1 326:-1 328:-1 330:-1 331:-1 332:-1 333:-1 334:-1 335:-1 336:-1 337:-1 338:-1 339:-1 340:-1 341:-1 342:-1 343:-1 344:-1 345:-1 346:-1 347:-1 349:-1 350:-1 351:-1 352:-1 353:-1 354:-1 355:-1 356:-1 357:-1 358:-1 359:-1 360:-1 361:-1 362:-1 363:-1 364:-1 365:-1 366:-1 368:-1 369:-1 370:-1 371:-1 372:-1 373:-1 374:-1 375:-1 376:-1 377:-1 378:-1 379:-1 380:-1 381:-1 382:-1 383:-1 384:-1 385:-1 387:-1 388:-1 389:-1 390:-1 391:-1 392:-1 393:-1 394:-1 395:-1 396:-1 397:-1 398:-1 399:-1 400:-1 401:-1 402:-1 403:-1 404:-1 406:-1 407:-1 408:-1 409:-1 410:-1 411:-1 412:-1 413:-1 414:-1 415:-1 416:-1 417:-1 418:-1 419:-1 420:-1 421:-1 422:-1 423:-1 424:-1 425:-1 426:-1 427:-1 428:-1 429:-1 430:-1 431:-1 433:-1 434:-1 435:-1 436:-1 438:-1 439:-1 440:-1 441:-1 442:-1 443:-1 444:-1 445:-1 446:-1 447:-1 448:-1 449:-1 450:-1 451:-1 452:-1 453:-1 454:-1 455:-1 456:-1 457:-1 458:-1 459:-1 461:-1 462:-1 463:-1 464:-1 465:-1 466:-1 468:-1 469:-1 470:-1 471:-1 472:-1 473:-1 474:-1 475:-1 476:-1 478:-1 479:-1 480:-1 481:-1 482:-1 483:-1 484:-1 485:-1 486:-1 487:-1 488:-1 489:-1 490:-1 491:-1 492:-1 494:-1 495:-1 496:-1 497:-1 498:-1 499:-1 500:-1 501:-1 502:-1 504:-1 506:-1 507:-1 509:-1 510:-1 511:-1 512:-1 513:-1 514:-1 515:-1 516:-1 517:-1 519:-1 520:-1 521:-1 522:-1 523:-1 524:-1 525:-1 526:-1 527:-1 528:-1 529:-1 530:-1 531:-1 532:-1 533:-1 534:-1 535:-1 536:-1 537:-1 538:-1 539:-1 540:-1 541:-1 542:-1 543:-1 544:-1 545:-1 546:-1 547:-1 548:-1 549:-1 550:-1 551:-1 552:-1 553:-1 554:-1 555:-1 556:-1 557:-1 558:-1 559:-1 560:-1 561:-0.777778 562:-1 563:-1 564:-1 565:-1 566:-0.6 567:-0.6 568:-1 569:-1 570:-1 571:-1 572:-1 573:-1 574:-1 575:-1 576:-1 577:-1 578:-1 579:-1 580:-1 581:-1 582:-0.571429 583:-1 584:-1 585:-1 586:-0.714286 587:-1 588:-1 589:-1 590:-1 591:-1 592:-1 593:-1 594:-1 596:-0.833333 597:-1 598:-1 599:-1 600:-1 601:-1 602:-1 603:-1 604:-1 605:-1 606:-1 607:-1 608:-1 609:-0.84 610:-1 611:-1 612:-1 613:-1 614:-1 615:-1 617:-1 618:-1 619:-1 620:-1 621:-1 622:-1 623:-1 624:-1 625:-1 626:-1 627:-1 628:-1 629:-1 630:-0.666667 631:-1 632:-1 633:-1 634:-1 636:-1 637:-1 638:-1 639:-1 640:-1 641:-1 642:-1 643:-1 644:-1 645:-0.428571 646:-1 647:-1 648:-1 649:-1 650:-1 651:-1 652:-1 653:-1 655:-1 656:-1 657:-1 658:-1 659:-1 660:-1 661:-1 662:-1 663:-1 664:-1 665:-1 666:-1 667:-1 668:-1 669:-1 670:-1 671:-1 672:-1 674:-1 675:-1 676:-1 677:-0.6 678:-1 679:-1 680:-1 681:-1 682:-1 683:-1 684:0.666667 685:-1 686:-1 687:-1 688:-1 689:-1 690:-1 691:-1 693:-1 694:-1 695:-1 696:-1 697:-1 698:-1 699:-1 700:-1 701:-1 702:-1 703:-1 704:-1 705:-1 706:-1 707:-1 708:-1 709:-1 710:-0.333333 712:-1 713:-1 714:-1 715:-1 716:-1 717:-1 718:-1 719:-1 720:-1 721:-1 722:-1 723:-1 724:-0.333333 725:-0.714286 726:-1 727:-1 728:-1 729:-1 731:-1 732:-1 733:-1 734:-1 735:-1 736:-1 737:-1 738:-1 739:-1 740:-1 741:-0.714286 742:-1 743:-1 744:-1 745:-1 746:-1 747:-1 748:-1 750:-1 751:-0.333333 752:-1 753:-1 754:-0.875 755:-1 756:-1 757:-1 758:-1 759:-1 760:-1 761:-1 762:-1 763:-1 764:-1 765:-1 766:-0.6 767:-1 769:-0.75 770:-1 771:-1 772:-1 773:-1 774:-1 775:-0.875 776:-1 777:-1 778:-1 779:-1 780:-1 781:-1 782:-0.4 783:-0.25 784:-1 785:-1 786:-1 788:-1 789:-1 790:-0.5 791:-1 792:-1 793:0.333333 794:-1 795:-1 796:-1 797:-1 798:-1 799:-1 800:-1 801:-0.5 802:-1 804:-1 805:-1 807:-1 808:-1 809:-1 810:-1 811:-1 812:-1 813:-1 814:-1 815:-1 816:-0.6 817:-1 818:-1 819:-1 820:-1 821:-1 822:-1 823:-1 824:-1 826:-1 827:-1 828:-1 829:-1 830:-1 831:0.333333 832:-1 833:-1 834:-1 835:-1 836:-1 837:-1 838:-1 839:-1 840:-1 841:-1 842:-1 843:-1 845:-1 846:-1 847:-1 848:-0.666667 849:-1 850:-1 851:-0.333333 852:-1 853:-1 854:-1 855:-1 856:-1 857:-1 858:-1 859:-1 860:-1 861:-1 862:-1 864:-1 865:-1 866:-1 867:-1 868:-1 869:-1 870:-1 871:-1 872:-1 873:-1 875:-1 876:-1 877:-1 878:-1 879:-1 880:-1 881:-1 883:-1 884:-1 885:-1 886:-0.636364 887:-1 888:-1 889:-1 890:-1 891:-1 892:-1 893:-1 894:-1 895:-1 896:-0.777778 897:-1 898:-1 899:-0.8 900:-1 902:-1 903:-1 904:-1 905:-1 906:-1 907:-0.555556 908:-1 909:-1 910:-1 911:-1 912:-1 913:-0.2 914:-0.666667 915:-1 916:-1 917:-1 918:-1 919:-0.714286 921:-0.764706 922:-1 923:-1 924:-1 925:-1 926:-1 927:-1 928:-1 929:-1 930:-1 931:-1 932:-1 933:-1 934:-1 935:-1 936:-1 937:-1 938:-1 940:-0.333333 941:-1 942:-1 943:-1 944:-1 945:-1 946:-1 947:-1 948:-1 949:-0.888889 950:-1 951:-1 952:-1 953:-0.6 954:-1 955:-1 956:-1 957:-1 959:-1 960:-1 961:-1 962:-1 963:-1 964:-1 965:-1 966:-1 967:-1 968:-1 969:-1 970:-1 971:-1 972:-1 973:-0.6 974:-1 975:-1 976:-1 977:-1 978:-1 979:-1 980:-1 981:-1 982:-1 983:-1 984:-1 985:-1 986:-1 987:-1 988:-1 989:-1 990:-1 991:-1 992:-1 993:-1 994:-0.764706 995:-1 996:-1 997:-0.875 998:-1 999:-1 1000:-1 1001:-1 1002:-0.5 1003:-1 1004:-1 1005:-1 1006:-1 1007:1 1008:-1 1009:-1 1010:0.333333 1011:-0.833333 1012:-1 1014:-1 1015:-1 1016:-0.636364 1017:-1 1018:-1 1019:-1 1020:-1 1021:-0.714286 1022:-0.888889 1023:-1 1024:-1 1025:-1 1026:-1 1027:-0.6 1028:-1 1029:-1 1031:-1 1032:-1 1033:-1 1034:-1 1035:-1 1036:-1 1037:-1 1038:-0.5 1039:-0.714286 1040:-1 1041:-1 1042:-1 1043:-1 1044:-1 1045:-1 1046:1 1047:-1 1048:-0.333333 1049:-1 1050:-1 1051:-0.4 1052:-1 1053:-1 1054:-1 1055:-1 1056:-1 1057:-1 1058:-1 1059:-1 1060:-1 1061:-1 1062:-1 1063:-1 1064:-1 1065:-1 1066:-1 1067:-1 1068:-1 1069:-1 1070:-1 1071:-1 1072:-1 1073:-1 1074:-1 1075:-1 1076:-1 1077:-1 1078:-1 1079:-1 1080:-0.8 1081:-1 1082:-1 1083:-1 1084:-1 1085:-1 1086:-1 1087:0.666667 1088:-1 1089:-1 1090:-1 1091:-1 1092:-1 1093:-1 1094:-1 1095:-1 1096:-1 1097:-1 1098:-1 1099:-1 1100:-0.333333 1101:-1 1102:-1 1103:-1 1104:-1 1105:-1 1106:-1 1107:-1 1108:-1 1109:-1 1110:-0.2 1111:-0.835052 1112:-1 1113:-1 
82.23202329951606 1:-0.103448 2:-0.997028 3:-0.935484 4:-0.980126 5:1 6:-1 7:-1 8:-1 9:-1 10:-1 11:-1 12:-1 13:-1 14:-1 15:-1 16:-1 18:-1 19:-1 20:-1 21:-1 22:-1 23:-1 24:-1 25:-1 26:-1 27:-1 28:-1 29:-1 30:-1 31:-1 32:-1 33:-1 34:-1 35:-1 36:-1 37:-1 38:-1 39:-1 40:-1 41:-1 42:-1 43:-1 44:-1 45:-1 46:-0.5 47:-1 48:-1 49:-1 50:-1 51:-1 52:-1 53:-1 54:-1 55:-1 56:-1 57:-1 58:-1 59:-1 61:-1 62:-1 64:-1 65:-1 66:-1 67:-1 68:-0.5 69:-1 70:-1 71:-1 72:-1 73:-1 74:-1 75:-1 76:-1 77:-1 78:-1 79:-1 80:-1 81:-1 83:-1 84:-1 85:-1 86:-1 87:-1 88:-1 89:-1 90:-1 91:-1 92:-1 93:-1 94:-1 95:-1 96:-1 97:-1 98:-1 99:-1 100:-1 102:-1 103:-1 104:-1 105:-1 106:-1 107:-1 108:-0.6 109:-1 110:-1 111:-1 112:-1 113:-1 114:-1 115:-1 116:-1 117:-1 118:-1 119:-1 121:-1 122:-1 123:-1 124:-1 125:-1 126:-1 127:-0.333333 128:-1 129:-1 130:-1 131:-1 133:-1 134:-1 135:-1 136:-1 137:-1 138:-1 140:-1 141:-1 142:-1 143:-1 144:-1 145:-1 146:-1 147:-1 148:-1 149:-1 150:-1 151:-1 152:-1 153:-1 154:-1 155:-1 156:-1 157:-1 159:-1 160:-1 161:-1 162:-1 163:-1 164:-1 165:-1 166:-1 167:-1 168:-1 169:-1 170:-0.666667 171:-1 172:-1 173:-1 174:-1 175:-0.333333 176:-1 178:-1 179:-1 180:-1 181:-1 182:-1 183:-1 184:-0.6 185:-1 186:-1 187:-1 188:-1 189:-0.5 190:-1 191:-1 192:-1 193:-0.333333 194:-1 195:-1 197:-1 198:-1 199:-1 200:-1 201:-1 202:-1 203:-1 204:-1 205:-1 206:-1 207:-1 208:-1 209:-1 210:-1 211:-1 212:-1 213:-1 214:-1 216:-1 217:-1 218:-1 219:-1 220:-1 221:-1 222:-1 223:-1 224:-1 225:-1 226:-1 227:-1 228:-1 229:-1 230:-1 231:-1 232:-1 233:-1 235:-1 236:-1 237:-1 238:-1 239:-1 240:-1 241:-1 242:-1 243:-1 244:-1 245:-1 246:-1 247:-1 248:-1 249:-1 250:-1 251:-1 252:-1 254:-1 255:-1 256:-1 257:-1 258:-1 259:-1 260:-0.333333 261:-1 262:-1 263:-1 264:-1 265:-1 266:-1 267:1 268:-1 269:-1 270:-1 271:-1 273:-1 275:-1 277:-1 278:-1 279:-1 280:-1 281:-1 282:-1 283:-1 284:-1 285:-1 286:-1 287:-1 288:-1 289:-1 290:-1 292:-1 293:-1 294:-1 295:-1 296:-1 297:-1 298:-1 299:-1 300:-1 301:-1 302:-1 303:-1 304:-1 305:-1 306:-1 307:-1 308:-1 309:-1 311:-1 312:-1 313:-1 314:-1 315:-1 316:-1 317:-1 319:-1 320:-1 321:-1 322:-1 323:-1 324:-1 325:-1 326:-1 328:-1 330:-1 331:-1 332:-1 333:-1 334:-1 335:-1 336:-1 337:-1 338:-1 339:-1 340:-1 341:-1 342:-1 343:-1 344:-1 345:-1 346:-1 347:-1 349:-1 351:-1 352:-1 353:-1 354:-1 355:-1 356:-1 357:-1 358:-1 359:-1 360:-1 361:-1 362:-1 363:-1 364:-1 365:-1 366:-1 368:-1 369:-1 370:-1 371:-1 372:-1 373:-0.333333 374:-1 375:-1 376:-1 377:-1 378:-1 379:-1 380:-1 381:-1 382:-1 383:-1 384:-1 385:-1 387:-1 388:-1 389:-1 390:-1 391:-1 392:-1 393:-0.333333 394:-1 395:-1 396:-1 397:-1 398:-0.333333 399:-1 400:-1 401:-1 402:-1 403:-1 404:-1 406:-1 407:-1 408:-1 409:-1 410:-1 411:-1 412:-1 413:-1 414:-1 415:-1 416:-1 417:-1 418:-1 419:-1 420:-1 421:-1 422:-1 423:-1 424:-1 425:-1 426:-1 427:-1 428:-1 429:-0.333333 430:-0.6 431:-1 433:-1 434:-1 435:-1 436:-1 438:-1 439:-0.333333 440:-1 441:-1 442:-1 443:-1 444:-1 445:-1 446:-0.333333 447:-1 448:-1 449:-1 450:-1 451:-1 452:-0.6 453:-1 454:-1 455:-1 456:-1 457:-1 458:-1 459:-1 461:-1 462:-1 463:-1 464:-1 465:-1 466:-1 468:-1 469:-1 470:-1 471:-1 472:-1 473:-1 474:-1 475:-1 476:-1 478:-1 479:-1 480:-1 481:-1 482:-1 483:-1 484:-1 485:-1 486:-1 487:-1 488:-1 489:-1 490:-1 491:-1 492:-1 494:-1 495:-1 496:-1 497:-1 498:-1 499:-1 500:-1 501:-1 502:-1 504:-1 506:-1 507:-1 509:-1 510:-1 511:-1 512:-1 513:-1 514:-1 515:-1 516:-1 517:-1 519:-1 520:-1 522:-1 523:-1 524:-1 525:-1 526:-1 527:-1 528:-1 529:-1 530:-1 531:-0.333333 532:-1 533:-1 534:-1 535:-1 536:-1 537:-1 538:-1 539:-1 540:-1 541:-1 542:-1 543:-1 544:-1 545:-1 546:-1 547:-1 548:-1 549:-1 550:-1 551:-1 552:-1 553:-1 554:-1 555:-1 556:-1 557:0.333333 558:-0.272727 559:-1 560:-1 561:-1 562:-1 563:-0.666667 564:-1 565:-1 566:-1 567:-1 568:-1 569:-1 570:-1 571:-1 572:-1 573:-1 574:-1 575:-1 576:-0.958333 577:-1 578:-1 579:-1 580:-0.764706 581:-1 582:-1 583:-1 584:-1 585:-1 586:-1 587:-1 588:-1 589:-1 590:-1 591:-1 592:-1 593:-1 594:-1 595:-1 596:-1 597:-1 598:-1 599:-1 600:-1 601:-1 602:-1 603:-1 604:-1 605:-1 606:-1 607:-1 608:-1 609:-1 610:-1 611:-0.833333 612:-1 613:-1 614:-1 615:-1 617:-1 618:-1 619:-1 620:-1 621:-1 622:-1 623:-1 624:-1 625:-1 626:-1 627:-1 628:-1 629:-1 630:-1 631:-1 632:-1 633:-1 634:-1 636:-1 637:-1 638:-1 639:-1 640:-1 641:-1 642:-1 643:-1 644:-1 645:-1 646:-1 647:-1 648:-0.6 649:-1 650:-1 651:-1 652:-1 653:-1 655:-1 656:-1 657:-0.75 658:-1 659:-1 660:-1 661:-1 662:-1 663:-1 664:-1 665:-1 666:-1 667:-1 668:-1 669:-1 670:-1 671:-1 672:-1 674:-1 675:-1 676:-1 677:-1 678:-1 679:-1 680:-0.6 681:-1 682:-1 683:-1 684:-1 685:-1 686:-1 687:-1 688:-1 689:-1 690:-1 691:-1 693:-1 694:-1 695:-1 696:-1 697:-1 698:-0.5 699:-1 700:-1 701:-1 702:-1 703:-1 704:-1 705:-1 706:-1 707:-1 708:-0.5 709:-1 710:-1 712:-1 713:-1 714:-1 715:-1 716:-0.75 717:-1 718:-1 719:-1 720:-1 721:-1 722:-1 723:-0.882353 724:-1 725:-1 726:-1 727:-1 729:-0.925926 731:-1 732:-1 733:-1 734:-1 735:-1 736:-0.5 737:-0.714286 738:-1 739:-1 740:-1 741:-1 742:-1 743:-1 744:-1 745:-1 746:-0.666667 747:-1 748:-1 750:-1 751:-1 752:-1 753:-1 754:-1 755:-1 756:-1 757:-1 758:-1 759:-1 760:-1 761:-1 762:-1 763:-1 764:-1 765:-1 766:-0.6 767:-1 769:-1 770:-1 771:-1 772:-1 773:-1 774:-1 775:-1 776:-0.5 777:-0.777778 778:-1 779:-1 780:-1 781:-1 782:-1 783:-1 784:-1 785:-1 786:-1 788:-1 789:-1 790:-1 791:-1 792:-1 793:-1 794:-1 795:-1 796:-1 797:-1 798:-1 799:-1 800:-1 801:-1 802:-1 803:-1 804:-1 805:-1 807:-1 808:-1 809:-1 810:-1 811:-0.833333 812:-1 813:-1 814:-1 815:-1 816:-1 817:-1 818:-1 819:-1 820:-1 821:-1 822:-1 823:-1 824:-1 826:-1 827:-1 828:-1 829:-1 830:-1 831:-1 832:-1 833:-1 834:-1 835:-1 836:-1 837:-1 838:-1 839:-1 840:-1 841:-1 842:-1 843:-0.428571 845:-1 846:-1 847:-1 848:-1 849:-1 850:-1 851:-1 852:-1 853:-1 854:-1 855:-1 856:-1 857:-1 858:-1 859:-1 860:-1 861:-1 862:-1 864:-1 865:-1 866:-1 867:-1 868:-1 869:-1 870:-1 871:-1 872:-1 873:-1 874:-1 875:-1 876:-1 877:-1 878:-1 879:-1 880:-1 881:-1 883:-1 884:-1 885:-1 886:-1 887:-1 888:-1 889:-1 890:-1 891:-1 892:-1 893:-1 894:-1 895:-1 896:-1 897:-1 898:-1 899:-1 900:-1 902:-1 903:-1 904:-1 905:-1 906:-1 907:-1 908:-1 909:-1 910:-1 911:-1 912:-1 913:-1 914:-1 915:-1 916:-1 917:-1 918:-1 919:-1 921:-1 922:-0.5 923:-1 924:-1 925:-1 926:-1 927:-1 928:-1 929:-1 930:-1 931:-1 932:-1 933:-1 934:-1 935:-1 936:-1 937:-1 938:-1 940:-1 941:-1 942:-0.666667 943:-1 944:-1 945:-1 946:-1 947:-1 948:-1 949:-1 950:-1 951:-1 952:-1 953:-0.6 954:-1 955:-1 956:-1 957:-1 959:-1 960:-1 961:-1 962:-1 963:-1 964:-1 965:-1 966:-1 967:-1 968:-1 969:-1 970:-0.75 971:-1 972:-1 973:-0.6 974:-1 975:-1 976:-1 977:-1 978:-1 979:-0.666667 980:-1 981:-1 982:-0.666667 983:-1 984:-1 985:-1 986:-1 987:-1 988:-1 989:-1 990:-1 991:-1 992:-1 993:-1 994:-1 995:-1 996:-1 997:-1 998:-1 999:-1 1000:-1 1001:-1 1002:-1 1003:-1 1004:-1 1005:-1 1006:-1 1007:-1 1008:-1 1009:-1 1010:-1 1011:-1 1012:-1 1014:-1 1015:-1 1016:-1 1017:-1 1018:-1 1019:-1 1020:-1 1021:-1 1022:-1 1023:-0.833333 1024:-1 1025:-1 1026:-1 1027:-1 1028:-1 1029:-1 1031:-1 1033:-1 1034:-1 1035:-1 1036:-1 1037:-1 1038:-1 1039:-1 1040:-1 1041:-1 1042:-1 1043:-1 1044:-1 1045:-1 1046:-1 1047:-1 1048:-1 1049:-1 1050:-1 1051:-1 1052:-1 1053:-1 1054:-1 1055:-1 1056:-1 1057:-1 1058:-1 1059:-1 1060:-1 1061:-1 1062:-1 1063:-1 1064:-1 1065:-1 1066:-1 1067:-1 1068:-1 1069:-1 1070:-1 1071:-1 1072:-1 1073:-1 1074:-1 1075:-1 1076:-1 1077:-1 1078:-1 1079:-1 1080:-1 1081:-1 1082:-1 1083:-1 1084:-1 1085:-1 1086:-1 1087:-1 1088:-1 1089:-1 1090:-1 1091:-1 1092:-1 1093:-1 1094:-1 1095:-1 1096:-1 1097:-1 1098:-0.925926 1099:-1 1100:-1 1101:-1 1102:-1 1103:-1 1104:-0.958333 1105:-1 1106:-1 1107:-1 1108:-1 1109:-1 1110:-0.2 1111:-0.628866 1112:-1 1113:-0.935484 
77.10804535786947 1:-0.0689655 2:-0.994552 3:-1 4:-0.967356 5:1 6:-1 7:-1 8:-1 9:-1 10:-1 11:-1 12:-1 13:-1 14:-1 15:-1 16:-1 18:-1 19:-1 20:-1 21:-1 22:-1 23:-0.6 24:-1 25:-1 26:-1 27:-1 28:-1 29:-1 30:-1 31:-1 32:-1 33:-1 34:-1 35:-1 36:-1 37:-1 38:-1 39:-1 40:-1 41:-1 42:-1 43:-1 44:-1 45:-1 46:-1 47:-1 48:-1 49:-1 50:-1 51:-1 52:-1 53:-1 54:-1 55:-1 56:-1 57:-1 58:-1 59:-1 61:-1 62:-1 64:-1 65:-1 66:-1 67:-1 68:-1 69:-1 70:-1 71:-1 72:-1 73:-1 74:-1 75:-1 76:-1 77:-1 78:-1 79:-1 80:-1 81:-1 83:-1 84:-1 85:-1 86:-1 87:-1 88:-1 89:-1 90:-1 91:-1 92:-1 93:-1 94:-1 95:-0.5 96:-0.333333 97:-1 98:-1 99:-1 100:-1 102:-1 103:-1 104:-1 105:-1 106:-1 107:-1 108:-1 109:-1 110:-1 111:-1 112:-1 114:-1 115:-1 116:-1 117:-1 118:-1 119:-1 121:-1 122:-1 123:-1 124:-1 125:-1 126:-1 127:-1 128:-1 129:-1 130:-1 131:-1 133:-1 134:-1 135:-1 136:-1 137:-1 138:-1 140:-1 141:-1 142:-1 143:-1 144:-1 145:-1 146:-1 147:-1 148:-1 149:-1 150:-1 151:-1 152:-1 153:-1 154:-1 155:-1 156:-1 157:-1 159:-1 160:-1 161:-1 162:-1 163:-1 164:-1 165:-1 166:-1 167:-1 168:-1 169:-1 170:-1 171:-1 172:-1 173:-1 174:-1 175:-1 176:-1 178:-1 179:-1 180:-1 181:-1 182:-1 183:-1 184:-1 185:-1 186:-1 187:-1 188:-0.5 189:-1 190:-1 191:-1 192:-1 193:-1 194:-1 195:-1 197:-1 198:1 199:-1 200:-1 201:-1 202:-1 203:-1 204:-1 205:-1 206:-1 207:-1 208:-1 209:-1 210:-1 211:-1 212:-1 213:-1 214:-1 216:-1 217:-1 218:-1 219:-1 220:-1 221:-1 222:-1 223:-1 224:-1 225:-1 226:-1 227:-1 228:-1 229:-0.333333 230:-1 231:-1 232:-1 233:-1 235:-1 236:-1 237:-1 238:-1 239:-1 240:-1 241:-1 242:-1 243:-1 244:-1 245:-1 246:-1 247:-1 248:-1 249:-1 250:-1 251:-1 252:-1 254:-1 255:-1 256:-1 257:-1 258:-0.6 259:-1 260:-1 261:-1 262:-1 263:-1 265:-1 266:-1 267:-1 268:-1 269:-1 270:-1 271:-1 273:-1 274:-1 275:-1 276:-1 277:-1 278:-1 279:-1 280:-1 281:-1 282:-1 283:-1 284:-1 285:-1 286:-1 287:-1 288:-1 289:-1 290:-1 292:-1 293:-1 294:-1 295:-1 296:-1 297:-1 298:-0.666667 299:-1 300:-1 301:-1 302:-1 303:-1 304:-1 305:-1 306:-1 307:-1 308:-1 309:-1 311:-1 312:-1 313:-1 314:-1 315:-1 316:-1 317:-1 318:-1 319:-1 320:-1 321:-1 322:-1 323:-1 324:-1 325:-1 326:-1 328:-1 330:-1 331:-1 332:-1 333:-1 334:-1 335:-1 336:-1 337:-1 338:-1 339:-1 340:-1 341:-1 342:-1 343:-1 344:-1 345:-1 346:-1 347:-1 349:-1 350:-1 351:-1 352:-1 353:-1 354:-1 355:-1 356:-1 357:-1 358:-0.714286 359:-1 360:-1 361:-1 362:-1 363:-1 364:-1 365:-1 366:-1 368:-1 369:-1 370:-1 371:-1 372:-1 373:-1 374:-1 375:-1 376:-1 377:-1 378:-1 379:-1 380:-1 381:-1 382:-1 383:-1 384:-1 385:-1 387:-1 388:-1 389:-1 390:-1 391:-1 392:-1 393:-1 394:-1 395:-1 396:-1 397:-1 398:-1 399:-1 400:-1 401:-1 402:-1 403:-1 404:-1 407:-1 408:-1 409:-1 410:-1 411:-1 412:-1 413:-1 414:-1 415:-1 416:-1 417:-1 418:-1 419:-1 420:-1 421:-1 422:-1 423:-1 424:-1 425:-0.714286 426:-1 427:-1 428:-1 429:-1 430:-1 431:-1 433:-1 434:-1 435:-1 436:-1 438:-1 439:-1 440:-1 441:-1 442:-1 443:-1 444:-1 445:-1 446:-1 447:-1 448:-1 449:-1 450:-1 451:-1 452:-1 453:-1 454:-1 455:-1 456:-1 457:-1 458:-1 459:-1 461:-1 462:-0.333333 463:-1 464:-1 465:-1 466:-1 468:-1 469:-1 470:-0.6 471:-1 472:-1 473:-1 474:-1 475:-1 476:-1 478:-1 479:-1 480:-1 481:-1 482:-1 483:-1 484:-1 485:-1 486:-1 487:-1 488:-1 489:-1 490:-1 491:-1 492:-1 494:-1 495:1 496:-1 497:-1 498:-0.333333 499:-1 500:-1 501:-1 502:-1 504:-1 506:-1 507:-1 509:-1 510:-1 511:-1 512:-1 513:-1 514:-1 515:-1 516:-1 517:-1 519:-1 520:-1 521:-1 522:-1 523:-1 524:-1 525:-1 526:-1 527:-1 528:-1 529:-1 530:-1 531:-1 532:-1 533:-1 534:-1 535:-1 536:-1 537:-1 538:-1 539:-1 540:-1 541:-1 543:-1 544:-1 545:-1 546:-1 547:1 548:-1 549:-1 550:-1 551:-0.6 552:-1 553:-1 554:-1 555:-1 556:-1 557:0.333333 558:-0.454545 559:-1 560:-1 561:-1 562:-1 563:-1 564:-1 565:-0.9 566:-1 567:-1 568:-1 569:-0.947368 570:-1 571:-1 572:-1 573:-1 574:-0.666667 575:-1 576:-1 577:-0.666667 578:-0.833333 579:-1 580:-1 581:-1 582:-1 583:-1 584:-1 585:-1 586:-1 587:-1 588:-1 589:-1 590:-1 591:-1 592:-1 593:-1 594:-1 595:-1 596:-1 597:-1 598:-1 599:-1 600:-1 601:-1 602:-1 603:-1 604:-1 605:-1 606:-1 607:-1 608:-1 609:-1 610:-1 611:-1 612:-1 613:-1 614:-1 615:-1 617:-1 618:-1 619:-1 620:-1 621:-1 622:-1 623:-1 624:-1 625:-1 626:-0.333333 627:-1 628:-1 629:-1 630:-1 631:-1 632:-1 633:-1 634:-1 636:-1 637:-1 638:-1 639:-1 640:-0.6 641:-1 642:-1 643:-1 644:-1 645:-1 646:-1 647:-1 648:-0.6 649:-0.818182 650:-1 651:-0.875 652:-1 653:-1 655:-1 656:-1 657:-1 658:-1 659:-1 660:-1 661:-1 662:-1 663:-1 664:-1 665:-1 666:-0.666667 667:-1 668:-1 669:-1 670:-1 671:-1 672:-1 674:-1 675:-1 676:-1 677:-1 678:-1 679:-1 680:-1 681:-1 683:-1 684:-0.666667 685:-1 686:-1 687:-1 688:-1 689:-1 690:-1 691:-1 693:-1 694:-1 695:-1 696:-0.714286 697:-1 698:-1 699:-1 700:-1 701:-1 702:-1 703:-1 704:-0.8 705:-1 706:-1 707:-1 708:-1 709:-1 710:-1 712:-1 714:-1 715:-1 716:-1 717:-1 718:-1 719:-1 720:-1 721:-1 722:-1 723:-1 724:-1 725:-1 726:-1 727:-1 728:-1 729:-1 731:-1 732:-1 733:-1 734:-1 735:-1 736:-1 737:-1 738:-0.6 739:-1 740:-1 741:-0.714286 742:-1 743:-1 744:-1 745:-0.5 746:-1 747:-1 748:-1 750:-1 751:-0.333333 752:-1 753:-1 754:-1 755:-1 756:-1 757:-1 758:-1 759:-1 760:-1 761:-0.8 762:-1 763:-1 764:-1 765:-1 766:-1 767:-1 769:-1 770:-1 771:-1 772:-1 773:-1 774:-1 775:-1 776:-1 777:-1 778:-1 779:-0.333333 780:-1 781:-1 782:-1 783:-1 784:-0.714286 785:-1 786:-1 788:-1 789:-1 790:-1 791:-1 792:-1 793:-0.333333 794:-1 795:-1 796:-0.333333 797:-1 798:-1 799:-1 800:-1 801:-1 802:-1 803:-1 804:-1 805:-1 807:-1 808:-1 809:-1 810:-1 811:-1 812:-0.75 813:-1 814:-1 815:-1 816:-1 817:-1 818:-1 819:-0.5 820:-0.333333 821:-1 822:-1 823:-1 824:-1 826:-1 827:-1 828:-1 829:-1 830:-1 831:-1 832:-1 833:-1 834:-1 835:-1 836:-1 837:-1 838:-1 839:-1 840:-1 841:-1 842:-0.666667 843:-1 845:-1 846:-1 847:-1 848:-1 849:-1 850:-1 851:-0.333333 852:-1 853:-1 854:-1 855:-1 856:-1 857:-1 858:-1 859:-1 860:-1 861:-0.833333 862:-1 864:-1 865:-1 866:-1 867:-1 868:-1 869:-1 870:-1 871:-1 872:-1 873:-1 874:-1 875:-1 876:-1 877:-1 878:-1 879:-1 880:-0.6 881:-1 883:-1 884:-1 885:-1 886:-1 887:-1 888:-1 889:-1 890:-1 891:-1 892:-1 893:-1 894:-1 895:-1 896:-1 897:-1 898:-1 899:-1 900:-1 902:-1 903:-1 904:-1 905:-1 906:-1 907:-1 908:-1 909:-1 910:-1 911:-1 912:-1 913:-0.6 914:-1 915:-1 916:-1 917:-1 918:-1 919:-0.714286 921:-1 922:-1 923:-1 924:-1 925:-0.333333 926:-1 927:-1 928:-1 929:-1 930:-1 931:-1 932:-1 933:-1 934:-1 935:-1 936:-1 937:-1 938:-1 940:-1 941:-1 942:-0.666667 943:-1 944:-1 945:-1 946:-1 947:-1 948:-1 949:-1 950:-1 951:-1 952:-1 953:-1 954:-1 955:-1 956:-1 957:-1 959:-1 960:-1 961:-1 962:-1 963:-1 964:-1 965:-1 966:-1 967:-1 968:-1 969:-1 970:-1 971:-1 972:-1 973:-1 974:-1 975:-1 976:-1 977:-1 978:-1 979:-0.666667 980:-1 981:-1 982:-1 983:-1 984:-1 985:-1 986:-1 987:-1 988:-1 989:-0.875 990:-1 991:-1 992:-1 993:-1 994:-1 996:-1 997:-1 998:-1 999:-1 1000:-1 1001:-1 1002:-1 1003:-1 1004:-0.833333 1005:-1 1006:-1 1007:-1 1008:-1 1009:-1 1010:-1 1011:-1 1012:-0.947368 1014:-1 1015:-0.818182 1016:-1 1017:-1 1018:-1 1019:-1 1020:-1 1021:-0.714286 1022:-1 1023:-1 1024:-1 1025:-1 1026:-1 1027:-1 1028:-1 1029:-1 1031:-1 1032:-1 1033:-1 1034:-1 1035:-1 1036:-1 1037:-1 1038:-1 1039:-1 1040:-1 1041:-1 1042:-1 1043:-1 1044:-1 1045:-1 1046:-1 1047:-1 1048:-0.333333 1049:-1 1050:-1 1051:-1 1052:-1 1053:-0.6 1054:-1 1055:-1 1056:-1 1057:-1 1058:-1 1059:-1 1060:-0.8 1061:-1 1062:-1 1063:-1 1064:-1 1065:-1 1066:-1 1067:-1 1068:-1 1069:-1 1070:-1 1071:-1 1072:-1 1073:-1 1074:-1 1075:-1 1076:-1 1077:-1 1078:-1 1079:-1 1080:-1 1081:-1 1082:-1 1083:-0.714286 1084:-1 1085:-1 1086:-1 1087:-0.666667 1088:-1 1089:-1 1090:-1 1091:-1 1092:-1 1093:-1 1094:-1 1095:-1 1096:-1 1097:-0.75 1098:-1 1099:-1 1100:-0.333333 1101:-1 1102:-1 1103:-1 1104:-1 1105:-1 1106:-1 1107:-1 1108:-1 1109:-0.714286 1110:-0.6 1111:-0.85567 1112:1 1113:-1 
512 1:-0.517241 2:-0.999505 3:-1 4:-0.999526 5:1 6:-1 7:-1 8:-1 9:-1 10:-1 11:-1 12:-1 13:-1 14:-1 15:-1 16:-1 18:-1 19:-1 21:-1 22:-1 23:-1 24:-1 25:-1 26:-1 27:-1 28:-1 29:-1 30:-1 31:-1 32:-1 33:-1 34:-1 35:-1 36:-1 37:-0.333333 38:-1 39:-1 40:-1 41:-1 42:-1 43:-1 44:-1 45:-1 46:-1 47:-1 48:-1 49:-1 50:-1 51:-1 52:-1 53:-1 54:-1 55:-1 56:-1 57:-1 58:-1 59:-1 61:-1 62:-1 64:-1 65:-1 66:-1 67:-1 68:-1 69:-1 70:-1 71:-0.6 72:-1 73:-1 74:-1 75:-1 76:-1 77:-1 78:-1 79:-1 80:-1 81:-1 83:-0.333333 84:-1 85:-1 86:-1 87:-1 88:-1 89:-1 90:-1 91:-1 92:-1 93:-1 94:-1 95:-1 96:-1 97:-1 98:-1 99:-1 100:-1 102:-1 103:-1 104:-1 105:-1 106:-1 107:-1 108:-1 109:-1 110:-1 111:-1 112:-1 113:-1 114:-1 115:-1 116:-1 117:-1 118:-1 119:-1 121:-1 122:-1 123:-1 124:-1 125:-1 126:-1 127:-1 128:-1 129:-1 130:-1 131:-1 133:-1 134:-1 135:-1 136:-1 137:-1 138:-1 140:-1 141:-1 142:-1 143:-1 144:-1 145:-1 146:-1 147:-1 148:-1 149:-1 150:-1 151:-1 152:-1 153:-1 154:-1 155:-1 156:-1 157:-1 159:-1 160:-1 161:-1 162:-1 163:-1 164:-1 165:-1 166:-1 167:-1 168:-1 169:-1 170:-1 171:-1 172:-1 173:-1 174:-1 175:-1 176:-1 178:-1 179:-1 180:-1 181:-1 182:-1 183:-1 184:-0.6 185:-1 186:-1 187:-1 188:-1 189:-1 190:-1 191:-1 192:-1 193:-1 194:-1 195:-1 197:-1 198:-1 199:-1 200:-1 201:-1 202:-1 203:-1 204:-1 205:-1 206:-1 207:-1 208:-1 209:-1 210:-1 211:-1 212:-1 213:-1 214:-1 216:-1 217:-1 218:-1 219:-1 220:-1 221:-1 222:-1 223:-1 224:-1 225:-1 226:-1 227:-1 228:-1 229:-1 230:-1 231:-1 232:-1 233:-1 235:-1 236:-1 237:-1 238:-1 239:-1 240:-1 241:-1 242:-1 243:-1 244:-1 245:-1 246:-1 247:-1 248:-1 249:-1 250:-1 251:-1 252:-1 254:-1 255:-1 256:-1 257:-1 258:-1 259:-1 260:-1 261:-1 262:-1 263:-1 264:-1 265:-1 266:-1 267:-1 268:-1 269:-1 270:-1 271:-1 273:-1 274:-1 275:-1 276:-1 277:-1 278:-1 279:-1 280:-1 281:-1 282:-1 283:-1 284:-1 285:-1 286:-1 287:-1 288:-1 289:-1 290:-1 292:-1 293:-1 294:-1 295:-1 296:-1 297:-1 298:-1 299:-1 300:-1 301:-1 302:-1 303:-1 304:-1 305:-1 306:-1 307:-1 308:-1 309:-1 311:-1 312:-1 313:-1 314:-1 315:-1 316:-1 317:-1 318:-1 319:-1 320:-1 321:-1 322:-1 323:-1 324:-1 325:-1 326:-1 328:-1 330:-1 331:-1 332:-1 333:-1 334:-1 335:-1 336:-1 337:-1 338:-1 339:-1 340:-1 341:-1 342:-1 343:-1 344:-1 345:-1 346:-1 347:-1 349:-1 350:-1 351:-1 352:-1 353:-1 354:-1 355:-1 356:-1 357:-1 358:-1 359:-1 360:-1 361:-1 362:-1 363:-1 364:-1 365:-1 366:-1 368:-1 369:-1 370:-1 371:-1 372:-1 373:-1 374:-1 375:-1 376:-1 377:-1 378:-1 379:-1 380:-1 381:-1 382:-1 383:-1 384:-1 385:-1 387:-1 388:-1 389:-1 390:-1 391:-1 392:-1 393:-1 394:-1 395:-1 396:-1 397:-1 398:-1 399:-1 400:-1 401:-1 402:-1 403:-1 404:-1 406:-1 407:-1 408:-1 409:-1 410:-1 411:-1 412:-1 413:-1 414:-1 415:-1 416:-1 417:-1 418:-1 419:-1 420:-1 421:-1 422:-1 423:-1 424:-1 425:-1 426:-1 427:-1 428:-1 429:-1 430:-1 431:-1 433:-1 434:-1 435:-1 436:-1 438:-1 439:-1 440:-1 441:-1 442:-1 443:-1 444:-1 445:-1 446:-1 447:-1 448:-1 449:-1 450:-1 451:-1 452:-1 453:-1 454:-1 455:-1 456:-1 457:-1 458:-1 459:-1 461:-1 462:-1 463:-1 464:-1 465:-1 466:-1 468:-1 469:-1 470:-1 471:-1 472:-1 473:-1 474:-1 475:-1 476:-1 478:-1 479:-1 480:-1 482:-1 483:-1 484:-1 485:-1 486:-1 487:-1 488:-1 489:-1 490:-1 491:-1 492:-1 494:-1 495:-1 496:-1 497:-1 498:-1 499:-1 500:-1 501:-1 502:-1 504:-1 506:-1 507:-1 509:-1 510:-1 511:-1 512:-1 513:-1 514:-1 515:-1 516:-1 517:-1 519:-1 520:-1 521:-1 522:-1 523:-1 524:-1 525:-1 526:-1 527:-1 528:-1 529:-1 530:-1 531:-1 532:-1 533:-1 534:-1 535:-1 536:-1 537:-1 538:-1 539:-1 540:-1 541:-1 542:-1 543:-1 544:-1 545:-1 546:-1 547:-1 548:-1 549:-1 550:-1 551:-1 552:-1 553:-1 554:-1 555:-1 556:-1 557:0.333333 558:-0.363636 559:-1 560:-1 561:-1 562:-1 563:-1 564:-1 565:-1 566:-1 567:-1 568:-1 569:-1 570:-1 571:-1 572:-1 573:-0.6 574:-1 575:-1 576:-1 577:-1 578:-1 579:-1 580:-1 581:-1 582:-1 583:-1 584:-1 585:-1 586:-1 587:-1 588:-1 589:-1 590:-0.714286 591:-1 592:-1 593:-1 594:-1 595:-1 596:-1 597:-1 598:-1 599:-0.857143 600:-1 601:-1 602:-1 603:-1 604:-1 605:-1 606:-1 607:-1 608:-1 609:-1 610:-1 611:-1 612:-1 613:-1 614:-1 615:-1 617:-1 618:-1 619:-1 621:-1 622:-1 623:-1 624:-0.5 625:-1 626:-1 627:-1 628:-1 629:-1 630:-1 631:-1 632:-1 633:-1 634:-1 636:-0.333333 637:-1 638:-1 639:-1 640:-1 641:-1 642:-1 643:-1 644:-1 645:-1 646:-1 647:-1 648:-1 649:-1 650:-1 651:-0.875 652:-1 653:-1 655:-1 656:-1 657:-1 658:-1 659:-1 660:-1 661:-1 662:-1 663:-1 664:-1 665:-1 666:-1 667:-1 668:-1 669:-1 670:-1 671:-1 672:-1 674:-1 675:-1 676:-1 677:-1 678:-1 679:-1 680:-1 681:-1 682:-1 683:-1 684:-1 685:-1 686:-1 687:-1 688:-1 689:-1 690:-1 691:-1 693:-1 694:-1 695:-1 696:-1 697:-1 698:-1 699:-1 700:-1 701:-1 702:-1 703:-1 704:-1 705:-1 706:-1 707:-1 708:-1 709:-0.333333 710:-1 712:-1 713:-1 714:-1 715:-1 716:-1 717:-1 718:-1 719:-1 720:-1 721:-0.666667 722:-1 723:-1 724:-1 725:-1 726:-1 727:-1 728:-1 729:-1 731:-1 732:-1 733:-1 734:-1 735:-1 736:-1 737:-1 738:-1 739:-1 740:-1 741:-1 742:-1 743:-1 744:-1 745:-1 746:-1 747:-1 748:-1 750:-1 751:-0.333333 752:-1 753:-1 754:-1 755:-1 756:-1 757:-1 758:-1 759:-1 760:-1 761:-1 762:-1 763:-1 764:-1 765:-1 766:-1 767:-1 769:-1 770:-1 771:-1 772:-0.5 773:-1 774:-1 775:-1 776:-1 777:-1 778:-1 779:-1 780:-1 781:-1 782:-1 783:-1 784:-1 785:-1 786:-1 788:-1 789:-1 790:-0.75 791:-1 792:-1 793:-0.333333 794:-1 795:-1 796:-1 797:-1 798:-1 799:-1 800:-1 801:-1 802:-1 803:-1 804:-1 805:-1 807:-1 808:-1 809:-1 810:-1 811:-1 812:-1 813:-1 814:-1 815:-1 816:-1 817:-1 818:-1 819:-1 820:-1 821:-1 822:-1 823:-1 824:-1 826:-1 827:-1 828:-1 829:-1 830:-1 831:-1 832:-1 833:-1 834:-1 835:-1 836:-1 837:-1 838:-1 839:-1 840:-1 841:-1 842:-1 843:-1 845:-1 846:-1 847:-1 848:-1 849:-1 850:-1 851:-0.666667 852:-1 853:-1 854:-1 855:-1 856:-1 857:-1 858:-1 859:-1 860:-1 861:-1 862:-1 864:-1 865:-1 866:-0.428571 867:-1 868:-1 869:-1 870:-1 871:-1 872:-1 873:-1 874:-1 875:-1 876:-1 877:-1 878:-1 879:-1 880:-1 881:-1 883:-1 884:-1 885:-1 886:-1 887:-1 888:-1 889:-1 890:-1 891:-1 892:-1 893:-1 894:-1 895:-1 896:-1 897:-1 898:-1 899:-1 900:-1 902:-1 903:-1 904:-1 905:-1 906:-1 907:-1 908:-1 909:-1 910:-1 911:-1 912:-1 913:-1 914:-1 915:-1 916:-1 917:-1 918:-1 919:-0.714286 921:-1 922:-1 923:-1 924:-1 925:-1 926:-1 927:-1 928:-1 929:-1 930:-1 931:-1 932:-1 933:-1 934:-1 935:-1 936:-1 937:-1 938:-0.666667 940:-1 941:-1 942:-1 943:-1 944:-1 945:-1 946:-1 947:-1 948:-1 949:-1 950:-1 951:-1 952:-1 953:-1 954:-1 955:-1 956:-1 957:-1 959:-1 960:-1 961:-1 962:-1 963:-1 964:-1 965:-1 966:-1 967:-1 968:-1 969:-1 970:-1 971:-1 972:-1 973:-1 974:-1 975:-1 976:-1 977:-1 978:-1 979:-1 980:-1 981:-1 982:-1 983:-1 984:-1 985:-1 986:-1 987:-1 988:-1 989:-0.875 990:-1 991:-1 992:-1 993:-1 994:-1 995:-1 996:-1 997:-1 998:-1 999:-1 1000:-1 1001:-1 1002:-0.75 1003:-1 1004:-1 1005:-1 1006:-1 1007:-1 1008:-1 1009:-1 1010:-1 1011:-1 1012:-1 1014:-1 1015:-1 1016:-1 1017:-1 1018:-1 1019:-1 1020:-1 1021:-0.714286 1022:-1 1023:-1 1024:-1 1025:-1 1026:-1 1027:-1 1028:-1 1029:-1 1031:-1 1032:-1 1033:-1 1034:-0.6 1035:-1 1036:-1 1037:-1 1038:-1 1039:-1 1040:-1 1041:-1 1042:-1 1043:-1 1044:-1 1045:-1 1046:-1 1047:-1 1048:-0.333333 1049:-1 1050:-1 1051:-1 1052:-1 1053:-1 1054:-1 1055:-1 1056:-1 1057:-1 1058:-1 1059:-1 1060:-1 1061:-1 1062:-1 1063:-1 1064:-1 1065:-1 1066:-1 1067:-1 1068:-1 1069:-1 1070:-1 1071:-1 1072:-1 1073:-1 1074:-1 1075:-1 1076:-1 1077:-1 1078:-1 1079:-1 1080:-1 1081:-1 1082:-1 1083:-1 1084:-1 1085:-1 1086:-1 1087:-1 1088:-1 1089:-1 1090:-1 1091:-1 1092:-1 1093:-1 1094:-1 1095:-1 1096:-1 1097:-1 1098:-1 1099:-1 1100:-0.333333 1101:-1 1102:-1 1103:-1 1104:-1 1105:-1 1106:-1 1107:-1 1108:-1 1109:-0.714286 1110:-0.2 1111:-0.835052 1112:1 1113:-1 
426.6476057509713 1:-0.206897 2:-0.998019 3:-0.935484 4:-0.967981 5:0.9 6:-1 7:-1 8:-1 9:-1 10:-1 11:-1 12:-1 13:-1 14:-1 15:-1 16:-1 18:-1 19:-1 20:-1 21:-1 22:-1 23:-1 24:-1 25:-1 26:-1 27:-1 28:-1 29:-1 30:-1 31:-1 32:-1 33:-1 34:-1 35:-1 36:-1 37:-1 38:-1 39:0.333333 40:-1 41:-1 42:-1 43:-1 44:-1 45:-1 46:-1 47:-1 48:-1 49:-1 50:-1 51:-1 52:-1 53:-1 54:-1 55:-1 56:-1 57:-1 58:-1 59:-1 61:-1 62:-1 64:-1 65:-1 66:-1 67:-1 68:-1 69:-1 70:-1 71:-1 72:-1 73:-1 74:-1 75:-1 76:-1 77:-1 78:-1 79:-1 80:-1 81:-1 83:-1 84:-1 85:-1 86:-1 87:-1 88:-1 89:-1 90:-1 91:-1 92:-1 93:-1 94:-0.5 95:-1 96:-0.333333 97:-1 98:-1 99:-1 100:-1 102:-1 103:-1 104:-1 105:-1 106:-1 107:-1 108:-0.6 109:-1 110:-1 111:-1 112:-1 113:1 114:-1 115:-1 116:-1 117:-1 118:-1 119:-1 121:-1 122:-1 123:-1 124:-1 125:-1 126:-1 127:-1 128:-1 129:-1 130:-1 131:-1 133:-1 134:-1 135:-1 136:-1 137:-1 138:-1 140:-1 141:-1 142:-1 143:-1 144:-1 145:-1 146:-1 147:-1 148:-1 149:-1 150:-1 151:-1 152:-1 153:-1 154:-1 155:-1 157:-1 159:-1 160:-1 161:-1 162:-1 163:-1 164:-1 165:-1 166:-1 167:-1 168:-1 169:-1 170:-0.666667 171:-1 172:-1 173:-1 174:-1 175:-1 176:-1 178:-1 179:-1 180:-1 181:-1 182:-1 183:-1 184:-0.6 185:-1 186:-1 187:-1 188:-1 189:-1 190:-1 191:-1 192:-1 193:-1 194:-1 195:-1 197:-1 198:-1 199:-1 200:-1 201:-1 202:-1 203:-1 204:-1 205:-1 206:-0.6 207:-1 208:-1 209:-1 210:-1 211:-1 212:-1 213:-1 214:-1 216:-1 217:-1 218:-1 219:-1 220:-1 221:-1 222:-1 223:-1 224:-1 225:-1 226:-1 227:-1 228:-1 229:-0.333333 230:-1 231:-1 232:-1 233:-1 235:-1 236:-1 237:-1 238:-1 239:-1 240:-1 241:-1 242:-1 243:-1 244:-1 245:-1 246:-1 247:-1 248:-1 249:-1 250:-1 251:-1 252:-1 254:-1 255:-1 256:-1 257:-1 258:-1 259:-0.5 260:-1 261:-1 262:-0.6 263:-1 264:-1 265:-1 266:-1 267:-1 268:-1 269:-0.6 270:-1 271:-1 273:-1 274:-1 275:-1 276:-1 277:-1 278:-1 279:-1 280:-1 281:-1 282:-1 283:-1 284:-1 285:-1 286:-1 287:-1 288:-1 289:-1 290:-0.5 292:-1 293:-1 294:-1 295:-1 296:-1 297:-1 298:-1 299:-1 300:-1 301:-1 302:-1 303:-1 304:-1 305:-1 306:-0.333333 307:-1 308:-1 309:-1 311:-1 312:-1 313:-1 314:-1 315:-1 316:-1 317:-1 318:-1 319:-1 320:-1 321:-1 322:-1 323:-1 324:-1 325:-1 326:-1 328:-1 330:-1 331:-1 333:-1 334:-1 335:-1 336:-1 337:-1 338:-1 339:-1 340:-1 341:-1 342:-1 343:-1 344:-1 345:-1 346:-1 347:-1 349:-1 350:-1 351:-1 352:-1 353:-1 354:-1 355:-1 356:-1 357:-1 358:-1 359:-1 360:-1 361:-1 362:-1 363:-1 365:-1 366:-1 368:-1 369:-0.6 370:-1 371:-1 372:-1 373:-1 374:-1 376:-1 377:-1 378:-1 379:-1 380:-1 381:-1 382:-1 383:-1 384:-1 385:-1 387:-1 388:-1 389:-1 390:-1 391:-1 392:-1 393:-1 394:-1 395:-1 396:-1 397:-1 398:-1 399:-1 400:-1 401:-1 402:-1 404:-1 406:-1 407:-1 408:-1 409:-1 410:-1 411:-0.6 412:-1 413:-1 414:-1 415:-1 416:-1 417:-1 418:-1 419:-1 420:-1 421:-1 422:-1 423:-1 424:-1 425:-1 426:-1 427:-1 428:-1 429:-1 430:-0.6 431:-1 433:-1 434:-1 435:-1 436:-1 438:-1 439:-1 440:-1 441:-1 442:-1 443:-1 444:-1 445:-1 446:-1 447:-1 448:-1 449:-1 450:-1 451:-1 452:-0.6 453:-1 454:-1 455:-1 456:-1 457:-1 458:-1 459:-1 461:-1 462:-0.333333 463:-1 464:-1 465:-1 466:-1 468:-1 469:-1 470:-1 471:-1 472:-1 473:-1 474:-1 475:-1 476:-1 478:-1 479:-1 480:-1 481:-1 482:-1 483:-1 484:-1 485:-1 486:-1 487:-1 489:-1 490:-1 491:-1 492:-1 494:-1 495:-1 496:-1 497:-1 498:-0.333333 499:-1 500:-1 501:-1 502:-1 504:-1 506:-1 507:-1 509:-1 510:-1 511:-1 512:-1 513:-1 514:-1 515:-1 516:-1 517:-1 519:-1 520:-1 521:-1 522:-1 523:-1 524:-1 525:-1 526:-1 527:-1 528:-1 529:-1 530:-1 531:-1 532:-1 533:-1 534:-1 535:-1 536:-1 537:-1 538:-1 539:-1 540:-1 541:-1 542:-1 543:-1 544:-0.5 545:-1 546:-1 547:-1 548:-1 549:-1 550:-1 551:-1 552:-1 553:-1 554:-1 555:-1 556:-1 557:-0.666667 558:-0.818182 559:-1 560:-1 561:-1 562:-1 563:-1 564:-1 565:-1 566:-1 567:-1 568:-1 569:-1 570:-1 571:-1 572:-1 573:-1 574:-1 575:-1 576:-1 577:-1 578:-1 579:-1 580:-1 581:-1 582:-1 583:-1 584:-1 585:-1 586:-1 587:-1 588:-1 589:-1 590:-1 591:-1 592:-1 593:-1 594:-1 595:-1 596:-1 597:-1 598:-1 599:-1 600:-1 601:-1 602:-1 603:-1 604:-1 605:-1 606:-1 607:-1 608:-1 609:-1 610:-1 611:-1 612:-1 613:-1 614:-1 615:-1 617:-1 618:-1 619:-1 620:-1 621:-1 622:-1 623:-1 624:-1 625:-1 626:-1 627:-1 628:-1 629:-1 630:-1 631:-1 632:-1 633:-1 634:-1 636:-1 637:-1 638:-1 639:-1 640:-1 641:-1 642:-1 643:-1 644:-1 645:-1 646:-1 647:-1 648:-1 649:-1 650:-1 651:-1 652:-1 653:-1 655:-1 656:-1 657:-1 658:-1 659:-1 660:-1 661:-1 662:-1 663:-1 664:-1 665:-1 666:-1 667:-1 668:-1 669:-1 670:-1 671:-1 672:-1 674:-1 675:-1 676:-1 677:-1 678:-1 679:-1 680:-1 681:-1 682:-1 683:-1 684:-1 685:-1 686:-1 687:-1 688:-1 689:-1 690:-1 691:-1 693:-1 694:-1 695:-1 696:-1 697:-1 698:-1 699:-1 700:-1 701:-1 702:-1 703:-1 704:-1 705:-1 706:-1 707:-1 708:-1 709:-1 710:-1 712:-1 713:-1 714:-1 715:-1 716:-1 717:-1 718:-1 719:-1 720:-1 721:-1 722:-1 723:-1 724:-1 725:-1 726:-1 727:-1 728:-1 729:-1 731:-1 732:-1 733:-1 734:-1 735:-1 736:-1 737:-1 738:-1 739:-1 740:-1 741:-1 742:-1 743:-1 744:-1 745:-1 746:-1 747:-1 748:-1 750:-1 751:-1 752:-1 753:-1 754:-1 755:-1 756:-1 757:-1 758:-1 759:-1 760:-1 761:-1 762:-1 763:-1 764:-1 765:-1 766:-1 767:-1 769:-1 770:-1 771:-1 772:-1 773:-1 774:-1 775:-1 776:-1 777:-1 778:-1 779:-1 780:-1 781:-1 782:-1 783:-1 784:-1 785:-1 786:-1 788:-1 789:-1 790:-1 791:-1 792:-1 793:-1 794:-1 795:-1 796:-1 797:-1 798:-1 799:-1 800:-1 801:-1 802:-1 803:-1 804:-1 805:-1 807:-1 808:-1 809:-1 810:-1 811:-1 812:-1 813:-1 814:-1 815:-1 816:-1 817:-1 818:-1 819:-1 820:-1 821:-1 822:-1 823:-1 824:-1 826:-1 827:-1 828:-1 829:-1 830:-1 831:-1 832:-1 833:-1 834:-1 835:-1 836:-1 837:-1 838:-1 839:-1 840:-1 841:-1 842:-1 843:-1 845:-1 846:-1 847:-1 848:-1 849:-1 850:-1 851:-1 852:-1 853:-1 854:-1 855:-1 856:-1 857:-1 858:-1 859:-1 860:-1 861:-1 862:-1 864:-1 865:-1 866:-1 867:-1 868:-1 869:-1 870:-1 871:-1 872:-1 873:-1 874:-1 875:-1 876:-1 877:-1 878:-1 879:-1 880:-1 881:-1 883:-1 884:-1 885:-1 886:-1 887:-1 888:-1 889:-1 890:-1 891:-1 892:-1 893:-1 894:-1 895:-1 896:-1 897:-1 898:-1 899:-1 900:-1 902:-1 903:-1 904:-1 905:-1 906:-1 907:-1 908:-1 909:-1 910:-1 911:-1 912:-1 913:-1 914:-1 915:-1 916:-1 917:-1 918:-1 919:-1 921:-1 922:-1 923:-1 924:-1 925:-1 926:-1 927:-1 928:-1 929:-1 930:-1 931:-1 932:-1 933:-1 934:-1 935:-1 936:-1 937:-1 938:-1 940:-1 941:-1 942:-1 943:-1 944:-1 945:-1 946:-1 947:-1 948:-1 949:-1 950:-1 951:-1 952:-1 953:-1 954:-1 955:-1 956:-1 957:-1 959:-1 960:-1 961:-1 962:-1 963:-1 964:-1 965:-1 966:-1 967:-1 968:-1 969:-1 970:-1 971:-1 972:-1 973:-1 974:-1 975:-1 976:-1 977:-1 978:-1 979:-1 980:-1 981:-1 982:-1 983:-1 984:-1 985:-1 986:-1 987:-1 988:-1 989:-1 990:-1 991:-1 992:-1 993:-1 994:-1 995:-1 996:-1 997:-1 998:-1 999:-1 1000:-1 1001:-1 1002:-1 1003:-1 1004:-1 1005:-1 1006:-1 1007:-1 1008:-1 1009:-1 1010:-1 1011:-1 1012:-1 1014:-1 1015:-1 1016:-1 1017:-1 1018:-1 1019:-1 1020:-1 1021:-1 1022:-1 1023:-1 1024:-1 1025:-1 1026:-1 1027:-1 1028:-1 1029:-1 1031:-1 1032:-1 1033:-1 1034:-1 1035:-1 1036:-1 1037:-1 1038:-1 1039:-1 1040:-1 1041:-1 1042:-1 1043:-1 1044:-1 1045:-1 1046:-1 1047:-1 1048:-1 1049:-1 1050:-1 1051:-1 1052:-1 1053:-1 1054:-1 1055:-1 1056:-1 1057:-1 1058:-1 1059:-1 1060:-1 1061:-1 1062:-1 1063:-1 1064:-1 1065:-1 1066:-1 1067:-1 1068:-1 1069:-1 1070:-1 1071:-1 1072:-1 1073:-1 1074:-1 1075:-1 1076:-1 1077:-1 1078:-1 1079:-1 1080:-1 1081:-1 1082:-1 1083:-1 1084:-1 1085:-1 1086:-1 1087:-1 1088:-1 1089:-1 1090:-1 1091:-1 1092:-1 1093:-1 1094:-1 1095:-1 1096:-1 1097:-1 1098:-1 1099:-1 1100:-1 1101:-1 1102:-1 1103:-1 1104:-1 1105:-1 1106:-1 1107:-1 1108:-1 1109:-1 1110:-0.8 1111:-0.876289 1112:-1 1113:-0.935484 
512 1:-0.62069 2:-1 3:-1 4:-0.998371 5:1 6:-1 7:-1 8:-1 9:-1 10:-1 11:-1 12:-1 13:-1 14:-1 15:-1 16:-1 18:-1 19:-1 20:-1 21:-1 22:-1 23:-1 24:-1 25:-1 26:-1 27:-1 28:-1 29:-1 30:-1 31:-1 32:-1 33:-1 34:-1 35:-1 36:-1 37:-1 38:-1 39:-0.333333 40:-1 41:-1 42:-1 43:-1 44:-1 45:-1 46:-1 47:-1 48:-1 49:-1 50:-1 51:-1 52:-1 53:-1 54:-1 55:-1 56:-1 57:-1 58:-1 59:-1 61:-1 62:-1 64:-1 65:-1 66:-1 67:-1 68:-1 69:-1 70:-1 71:-1 72:-1 73:-1 74:-1 75:-1 76:-1 77:-1 78:-1 79:-1 80:-1 81:-1 83:-1 84:-1 85:-1 86:-1 87:-1 88:-1 89:-1 90:-1 91:-1 92:-1 93:-1 94:-1 95:-1 96:-1 97:-1 98:-1 99:-1 100:-1 102:-1 103:-1 104:-1 105:-1 106:-1 107:-1 108:-1 109:-1 110:-1 111:-1 112:-1 113:-1 114:-1 115:-1 116:-1 117:-1 118:-1 119:-1 121:-1 122:-1 123:-1 124:-1 125:-1 126:-1 127:-1 128:-1 129:-1 130:-1 131:-1 133:-1 134:-1 135:-1 136:-1 137:-1 138:-1 140:-1 141:-1 142:-1 143:-1 144:-1 145:-1 146:-1 147:-1 148:-1 149:-1 150:-1 151:-1 152:-1 153:-1 154:-1 155:-1 156:-1 157:-1 159:-1 160:-1 161:-1 162:-1 163:-1 164:-1 165:-1 166:-1 167:-1 168:-1 169:-1 170:-1 171:-1 172:-1 173:-1 174:-1 175:-1 176:-1 178:-1 179:-1 180:-1 181:-1 182:-1 183:-1 184:-1 185:-1 186:-1 187:-1 188:-1 189:-1 190:-1 191:-1 192:-1 193:-1 194:-1 195:-1 197:-1 198:-1 199:-1 200:-1 201:-1 202:-1 203:-1 204:-1 205:-1 206:-1 207:-1 208:-1 209:-1 210:-1 211:-1 212:-1 213:-1 214:-1 216:-1 217:-1 218:-1 219:-1 220:-1 221:-1 222:-1 223:-1 224:-1 225:-1 226:-1 227:-1 228:-1 229:-1 230:-1 231:-1 232:-1 233:-1 235:-1 236:-1 237:-1 238:-1 239:-1 240:-1 241:-1 242:-1 243:-1 244:-1 245:-1 246:-1 247:-1 248:-1 249:-1 250:-1 251:-1 252:-1 254:-1 255:-1 256:-1 257:-1 258:-1 259:-1 260:-1 261:-1 262:-1 263:-1 264:-1 265:-1 266:-1 267:-1 268:-1 269:-1 270:-1 271:-1 273:-1 274:-1 275:-1 276:-1 277:-1 278:-1 279:-1 280:-1 281:-1 282:-1 283:-1 284:-1 285:-1 286:-1 287:-1 288:-1 289:-1 290:-1 292:-1 293:-1 294:-1 295:-1 296:-1 297:-1 298:-1 299:-1 300:-1 301:-1 302:-1 303:-1 304:-1 305:-1 306:-1 307:-1 308:-1 309:-1 311:-1 312:-1 313:-1 314:-1 315:-1 316:-1 317:-1 318:-1 319:-1 320:-1 321:-1 322:-1 323:-1 324:-1 325:-1 326:-1 328:-1 330:-1 331:-1 332:-1 333:-1 334:-1 335:-1 336:-1 337:-1 338:-1 339:-1 340:-1 341:-1 342:-1 343:-1 344:-1 345:-1 346:-1 347:-1 349:-1 350:-1 351:-1 352:-1 353:-1 354:-1 355:-1 356:-1 357:-1 358:-1 359:-1 360:-1 361:-1 362:-1 363:-1 364:-1 365:-1 366:-1 368:-1 369:-1 370:-1 371:-1 372:-1 373:-1 374:-1 375:-1 376:-1 377:-1 378:-1 379:-1 380:-1 381:-1 382:-1 383:-1 384:-1 385:-1 387:-1 388:-1 389:-1 390:-1 391:-1 392:-1 393:-1 394:-1 395:-1 396:-1 397:-1 398:-1 399:-1 400:-1 401:-1 402:-1 403:-1 404:-1 406:-1 407:-1 408:-1 409:-1 410:-1 411:-1 412:-1 413:-1 414:-1 415:-1 416:-1 417:-1 418:-1 419:-1 420:-1 421:-1 422:-1 423:-1 424:-1 425:-1 426:-1 427:-1 428:-1 429:-1 430:-1 431:-1 433:-1 434:-1 435:-1 436:-1 438:-1 439:-1 440:-1 441:-1 442:-1 443:-1 444:-1 445:-1 446:-1 447:-1 448:-1 449:-1 450:-1 451:-1 452:-1 453:-1 454:-1 455:-1 456:-1 457:-1 458:-1 459:-1 461:-1 462:-1 463:-1 464:-1 465:-1 466:-1 468:-1 469:-1 470:-1 471:-1 472:-1 473:-1 474:-1 475:-1 476:-1 478:-1 479:-1 480:-1 481:-1 482:-1 483:-1 484:-1 485:-1 486:-1 487:-1 488:-1 489:-1 490:-1 491:-1 492:-1 494:-1 495:-1 496:-1 497:-1 498:-1 499:-1 500:-1 501:-1 502:-1 504:-1 506:-1 507:-1 509:-1 510:-1 511:-1 512:-1 513:-1 514:-1 515:-1 516:-1 517:-1 519:-1 520:-1 521:-1 522:-1 523:-1 524:-1 525:-1 526:-1 527:-1 528:-1 529:-1 530:-1 531:-1 532:-1 533:-1 534:-1 535:-1 536:-1 537:-1 538:-1 539:-1 540:-1 541:-1 542:-1 543:-1 544:-1 545:-1 546:-1 547:-1 548:-1 549:-1 550:-1 551:-1 552:-1 553:-1 554:-1 555:-1 556:-1 557:-0.5 558:-0.863636 559:-1 560:-1 561:-0.777778 562:-1 563:-1 564:-1 565:-1 566:-1 567:-1 568:-1 569:-1 570:-1 571:-1 572:-1 573:-1 574:-1 575:-1 576:-1 577:-1 578:-1 579:-1 580:-1 581:-1 582:-1 583:-1 584:-1 585:-1 586:-1 587:-1 588:-1 589:-1 590:-1 591:-1 592:-0.866667 593:-1 594:-1 595:-1 596:-1 597:-1 598:-1 599:-1 600:-1 601:-1 602:-1 603:-1 604:-1 605:-1 606:-1 607:-1 608:-1 609:-1 610:-1 611:-1 612:-0.666667 613:-1 614:-1 615:-1 617:-1 618:-1 619:-1 620:-1 621:-1 622:-1 623:-1 624:-1 625:-1 626:-1 627:-1 628:-1 629:-1 630:-1 631:-1 632:-1 633:-1 634:-1 636:-1 637:-1 638:-1 639:-1 640:-1 641:-1 642:-1 643:-1 644:-1 645:-1 646:-1 647:-1 648:-0.2 649:-1 650:-1 651:-1 652:-1 653:-1 655:-1 656:-1 657:-1 658:-1 659:-1 660:-1 661:-1 662:-1 663:-1 664:-1 665:-1 666:-0.333333 667:-1 668:-1 669:-1 670:-1 671:-1 672:-1 674:-1 675:-1 676:-1 677:-1 678:-1 679:-1 680:-1 681:-1 682:-1 683:-0.333333 684:-1 685:-1 686:-1 687:-1 688:-1 689:-1 690:-1 691:-1 693:-1 694:-1 695:-1 696:-1 697:-1 698:-1 699:-1 700:-1 701:-1 702:-1 703:-1 704:-1 705:-1 706:-1 707:-1 708:-1 709:-1 710:-1 712:-1 713:-1 714:-1 715:-1 716:-0.75 717:-1 718:-1 719:-1 720:-1 721:-1 722:-1 723:-1 724:-1 725:-1 726:-1 727:-1 728:-1 729:-1 731:-1 732:-1 733:-1 734:-1 735:-1 736:-1 737:-0.714286 738:-1 739:-1 740:-1 741:-0.428571 742:-1 743:-1 744:-1 745:-0.5 746:-1 747:-1 748:-1 750:-1 751:-1 752:-1 753:-1 754:-1 755:-1 756:-1 757:-1 758:-1 759:-1 760:-1 761:-1 762:-1 763:-1 764:-1 765:-1 766:-1 767:-1 769:-1 770:-1 771:-1 772:-1 773:-1 774:-1 775:-1 777:-1 778:-1 779:-1 780:-1 781:-1 782:-1 783:-1 784:-1 785:-1 786:-1 788:-1 789:-1 790:-1 791:-1 792:-1 793:-0.333333 794:-1 795:-1 796:-1 797:-1 798:-1 799:-1 800:-1 801:-1 802:-1 803:-1 804:-1 805:-1 807:-1 808:-1 809:-1 810:-1 811:-1 812:-1 813:-1 814:-1 815:-1 816:-0.6 817:-1 818:-1 819:-1 820:-1 821:-1 822:-1 823:-1 824:-1 826:-1 827:-1 828:-1 829:-1 830:-1 831:-1 832:-1 833:-1 834:-1 835:-1 836:-1 837:-1 838:-1 839:-1 840:-1 841:-1 842:-1 843:-1 845:-1 846:-1 847:-0.882353 848:-1 849:-1 850:-1 851:-0.333333 852:-1 853:-1 854:-1 855:-1 856:-1 857:-1 858:-1 859:-1 860:-1 861:-1 862:-1 864:-1 865:-1 866:-1 867:-1 868:-1 869:-1 870:-1 871:-1 872:-1 873:-1 874:-1 875:-1 876:-1 877:-1 878:-1 879:-1 880:-1 881:-1 883:-1 884:-1 885:-1 886:-1 887:-1 888:-1 889:-1 890:-1 891:-1 892:-1 893:-1 894:-1 895:-1 896:-1 897:-1 898:-1 899:-1 900:-1 902:-1 903:-1 904:-1 905:-1 906:-1 907:-0.777778 908:-1 909:-1 910:-1 911:-1 912:-1 913:-1 914:-1 915:-1 916:-1 917:-1 918:-1 919:-1 921:-1 922:-1 923:-1 924:-1 925:-1 926:-1 927:-1 928:-0.333333 929:-1 930:-1 931:-1 932:-1 933:-1 934:-1 935:-1 936:-1 937:-1 938:-1 940:-1 941:-1 942:-1 943:-1 944:-1 945:-1 946:-1 947:-1 948:-1 949:-1 950:-1 951:-1 952:-1 953:-1 954:-1 955:-1 956:-1 957:-1 959:-1 960:-1 961:-1 962:-0.75 963:-1 964:-1 965:-1 966:-1 967:-1 968:-1 969:-1 970:-0.75 971:-1 972:-1 973:-1 974:-1 975:-1 976:-1 977:-1 978:-1 979:-1 980:-1 981:-1 982:-1 983:-1 984:-1 985:-1 986:-1 987:-1 989:-1 990:-1 991:-1 992:-1 993:-1 994:-1 995:-1 996:-1 997:-1 998:-1 999:-1 1000:-1 1001:-1 1002:-1 1003:-1 1004:-1 1005:-1 1006:-1 1007:-1 1008:-1 1009:-1 1010:-1 1011:-1 1012:-1 1014:-1 1015:-1 1016:-1 1017:-1 1018:-1 1019:-1 1020:-1 1021:-1 1022:-1 1023:-1 1024:-1 1025:-1 1026:-1 1027:-0.6 1028:-1 1029:-1 1031:-1 1032:-1 1033:-1 1034:-1 1035:-1 1036:-1 1037:-1 1038:-1 1039:-1 1040:-1 1041:-0.333333 1042:-1 1043:-1 1044:-1 1045:-1 1046:-1 1047:-1 1048:-1 1049:-1 1050:-1 1051:-1 1052:-1 1053:-1 1054:-1 1055:-1 1056:-1 1057:-1 1058:-1 1059:-1 1060:-1 1061:-1 1062:-1 1063:-1 1064:-1 1065:-1 1066:-1 1067:-1 1068:-1 1069:-1 1070:-1 1071:-1 1072:-1 1073:-1 1074:-1 1075:-1 1076:-1 1077:-1 1078:-1 1079:-1 1080:-1 1081:-1 1082:-1 1083:-1 1084:-1 1085:-1 1086:-1 1087:-1 1088:-1 1089:-1 1090:-1 1091:-1 1092:-1 1093:-1 1094:-1 1095:-1 1096:-1 1097:-1 1098:-1 1099:-1 1100:-1 1101:-1 1102:-1 1103:-1 1104:-1 1105:-1 1106:-1 1107:-1 1108:-1 1109:-1 1110:-1 1111:-1 1112:-1 1113:-1 
154.8508662472682 1:-0.655172 2:-0.999505 3:-1 4:-0.978345 5:1 6:-1 8:-1 9:-1 10:-1 11:-1 12:-1 13:-1 14:-1 15:-1 16:-0.6 18:-1 19:-1 20:-1 21:-1 22:-1 23:-1 24:-1 25:-1 26:-1 27:-1 28:-1 29:-1 30:-1 31:-1 32:-1 33:-0.333333 34:-1 35:-1 36:-1 37:-1 38:-1 39:-1 40:-1 41:-1 42:-1 43:-0.5 44:-1 45:-1 46:-0.5 47:-1 48:-1 49:-1 50:-1 51:-1 52:-1 53:-1 54:-1 55:-1 56:-1 57:-1 58:-1 59:-0.5 61:-1 62:-1 64:-1 65:-1 66:-1 67:-1 68:-1 69:-1 70:-1 71:-1 72:-1 73:-1 74:-1 75:-1 76:-1 77:-1 78:-1 79:-1 80:-1 81:-1 83:-1 84:-1 85:-1 86:-1 87:-1 88:-1 89:-1 90:-1 91:-1 92:-0.5 93:-1 94:-1 95:-1 96:-1 97:-1 98:-1 99:-1 100:-1 102:-1 103:-1 104:-1 105:-0.333333 106:-1 107:-1 108:-1 109:-1 110:-1 111:-1 112:-1 113:-1 114:-1 115:-0.5 116:-1 117:-1 118:-1 119:-1 121:-1 122:-1 123:-1 124:-1 125:-1 126:-1 127:-1 128:-1 129:-1 130:-1 131:-1 133:-1 134:-1 135:-1 136:-1 137:-1 138:-1 140:-1 141:-1 142:-1 143:-1 144:-1 145:-1 146:-0.333333 147:-1 148:-1 149:-1 150:-1 151:-1 152:-1 153:-1 154:-1 155:-1 156:-1 157:-1 159:-1 160:-1 161:-1 162:-1 163:-1 164:-1 165:-1 166:-1 167:-1 168:-1 169:-1 170:-0.333333 171:-1 172:-1 173:-1 174:-1 175:-1 176:-1 178:-1 179:-1 180:-1 181:-1 182:-1 183:-1 184:-0.6 185:-1 186:-1 187:-1 188:-1 189:-1 190:-1 191:-1 192:-1 193:-1 194:-1 195:-1 197:-1 198:-1 199:-1 200:-1 201:-1 202:-1 203:-1 204:-1 205:-1 206:-1 207:-1 208:-1 209:-1 210:-1 211:-1 212:-1 213:-1 214:-0.333333 216:-1 217:-1 218:-1 219:-1 220:-1 221:-1 222:-1 223:-0.333333 224:-1 225:-1 226:-1 227:-1 228:-1 229:-1 230:-1 231:-1 232:-1 233:-1 235:-1 236:-1 237:-1 238:-1 239:-1 240:-1 241:-1 242:-1 243:-1 244:-1 245:-1 246:-1 247:-1 248:-1 249:-1 250:-1 251:-1 252:-1 254:-1 255:-1 256:-1 257:-1 258:-1 259:-0.5 260:-1 261:-1 262:-1 263:-1 264:-1 265:-1 266:-1 267:-1 268:-1 269:-1 270:-1 271:-1 273:-1 274:-1 275:-1 276:-1 277:-1 278:-1 279:-1 280:-1 281:-1 282:-1 283:-1 284:-1 285:-1 286:-1 287:-1 288:-1 289:-1 290:-1 292:-1 293:-1 294:-1 295:-1 296:-1 297:-1 298:-1 299:-1 300:-1 301:-1 302:-1 303:-1 304:-1 305:-1 306:-1 307:-1 308:-1 309:-1 311:-1 312:-1 313:-1 314:-1 315:-1 316:-1 317:-1 318:-1 319:-1 321:-1 322:-1 323:-1 324:-1 325:-1 326:-1 328:-1 330:-1 331:-1 332:-1 333:-1 334:-1 335:-1 336:-1 337:-1 338:-1 339:-1 340:-1 341:-1 342:-1 343:-1 344:-1 345:-1 346:-1 347:-1 349:-1 350:-1 351:-1 352:-1 353:-1 354:-1 355:-1 356:-1 357:-1 358:-1 359:-1 360:-1 361:-1 362:-1 363:-1 364:-1 365:-1 366:-1 368:-1 369:-1 370:-1 371:-1 372:-1 373:-0.333333 374:-1 375:-1 376:-1 377:-1 378:-1 379:-1 380:-1 381:-1 382:-1 383:-1 384:-1 385:-1 387:-1 388:-1 389:-1 390:-1 391:-1 392:-1 393:-1 394:-1 395:-1 396:-1 397:-1 398:-1 399:-1 400:-1 401:-1 402:-1 403:-1 404:-1 406:-1 407:-1 408:-1 409:-1 410:-1 411:-1 412:-1 413:-1 414:-1 415:-1 416:-1 417:-1 418:-1 419:-1 420:-1 421:-1 422:-1 423:-1 424:-1 425:-1 426:-1 427:-1 428:-1 429:-1 430:-1 431:-1 433:-1 434:-1 435:-1 436:-1 438:-1 439:-1 440:-1 441:-1 442:-1 443:-1 444:-1 445:-0.333333 446:-1 447:-1 448:-1 449:-1 450:-1 451:-1 452:-1 453:-1 454:-1 455:-1 456:-1 457:-1 458:-0.5 459:-0.6 461:-1 462:-1 463:-1 464:-1 465:-1 466:-1 468:-1 469:-1 470:-1 471:-1 472:-1 473:-1 474:-1 475:-1 476:-1 478:-1 479:-1 480:-1 481:-1 482:-1 483:-1 484:-1 485:-1 486:-1 487:-1 488:-1 489:-1 490:-1 491:-1 492:-1 494:-1 495:-1 496:-1 497:-1 498:-1 499:-1 500:-1 501:-1 502:-1 504:-1 506:-1 507:-1 509:-1 510:-1 511:-1 512:-1 513:-1 514:-1 515:-1 516:-0.333333 517:-1 519:-1 520:-1 521:-1 522:-1 523:-1 524:-1 525:-1 526:-1 527:-1 528:-1 529:-1 530:-1 531:-0.333333 532:-1 533:-1 534:-1 535:-1 536:-1 537:-1 538:-1 539:-1 540:-1 541:-1 542:-1 543:-1 544:-0.5 545:-1 546:-1 547:-1 548:-1 549:-1 550:-1 551:-1 552:-1 553:-1 554:-1 555:-1 556:0.5 557:0.333333 558:-0.454545 559:-0.75 560:-0.6 561:-1 562:-1 563:-1 564:-1 565:-1 566:-1 567:-1 568:-1 569:-0.947368 570:-1 571:-1 572:-1 573:-1 574:-1 575:-1 576:-1 577:-1 578:-1 579:-1 580:-1 581:-1 582:-1 583:-1 584:-1 585:-1 586:-1 587:-1 588:-1 589:-1 590:-1 591:-1 592:-1 593:-1 594:-1 595:-1 596:-1 597:-1 598:-1 599:-1 600:-1 601:-1 602:-1 603:-1 604:-1 605:-1 606:-1 607:-1 608:-1 609:-1 610:-1 611:-1 612:-1 613:-1 614:-1 615:-1 617:-1 618:-1 619:-1 620:-1 621:-1 622:-1 623:-1 624:-1 625:-1 626:-1 627:-1 628:-1 629:-1 630:-1 631:-0.666667 632:-1 633:-1 634:-1 636:-1 637:-1 638:-1 639:-1 640:-1 641:-1 642:-1 643:-1 644:-1 645:-1 646:-1 647:-1 648:-1 649:-0.818182 650:-1 651:-1 652:-1 653:-1 655:-1 656:-1 657:-1 658:-1 659:-1 660:-1 661:-1 662:-1 663:-1 664:-1 665:-1 666:-1 667:-1 668:-0.818182 669:-1 670:-1 671:-1 672:-1 674:-1 676:-1 677:-1 678:-1 679:-1 680:-1 681:-1 682:-1 683:-1 684:-1 685:-1 686:-1 687:-0.5 688:-1 689:-0.5 690:-1 691:-1 693:-1 694:-1 695:-1 696:-1 697:-1 698:-1 699:-1 700:-1 701:-1 702:-1 703:-1 704:-1 705:-1 706:-1 707:-1 708:-1 709:-1 710:-1 712:-1 713:-1 714:-1 715:-0.714286 716:-1 717:-1 718:-1 719:-1 720:-1 721:-1 722:-1 723:-0.823529 724:-1 725:-1 726:-1 727:-1 728:-0.5 729:-1 731:-1 732:-1 733:-1 734:-1 735:-1 736:-1 737:-1 738:-1 739:-1 740:-1 741:-1 742:-0.5 743:-1 744:-1 745:-1 746:-1 747:-1 748:-1 750:-1 751:-1 752:-1 753:-1 754:-1 755:-1 756:-1 757:-1 758:-1 759:-1 760:-1 761:-1 762:-1 763:-1 764:-1 765:-1 766:-1 767:-1 769:-1 770:-1 771:-1 772:-1 773:-1 774:-1 775:-1 776:-1 777:-1 778:-1 779:-1 780:-1 781:-1 782:-1 783:-1 784:-1 785:-1 786:-1 788:-1 789:-1 790:-1 791:-1 792:-1 793:-1 794:-1 795:-1 796:-1 797:-1 798:-1 799:-1 800:-1 801:-1 802:-1 803:-1 804:-1 805:-1 807:-1 808:-1 809:-1 810:-0.666667 811:-0.833333 812:-1 813:-1 814:-1 815:-1 816:-1 817:-1 818:-1 819:-1 820:-1 821:-1 822:-0.647059 823:-1 824:-1 826:-1 827:-0.714286 828:-1 829:-1 830:-1 831:-1 832:-1 833:-1 834:-1 835:-1 836:-1 837:-1 838:-1 839:-1 840:-1 841:-1 842:-0.666667 843:-1 845:-1 846:-1 847:-1 848:-1 849:-1 850:-1 851:-1 852:-1 853:-1 854:-1 855:-1 856:-1 857:-1 858:-1 859:-1 860:-1 861:-1 862:-1 864:-1 865:-1 866:-1 867:-1 868:-1 869:-1 870:-1 871:-1 872:-1 873:-1 874:-1 875:-1 876:-1 877:-1 878:-1 879:-1 880:-1 881:-1 883:-1 884:-1 885:-1 886:-1 887:-1 888:-1 889:-1 890:-1 891:-1 892:-1 893:-1 894:-1 895:-1 896:-1 897:-1 898:-1 899:-1 900:-1 902:-1 903:-1 904:-1 905:-1 906:-1 907:-1 908:-1 909:-1 910:-1 911:-1 912:-1 913:-1 914:-0.666667 915:-1 916:-1 917:-1 918:-1 919:-1 921:-1 922:-1 923:-1 924:-1 925:-1 926:-1 927:-1 928:-1 929:-1 930:-1 931:-1 932:-1 933:-1 934:-1 935:-1 936:-1 937:-1 938:-1 940:-1 941:-1 942:-1 943:-1 944:-1 945:-1 946:-1 947:-0.5 948:-1 949:-1 950:-1 951:-0.333333 952:-1 953:-1 954:-1 955:-1 956:-1 957:-1 959:-1 960:-1 961:-1 962:-1 963:-1 964:-1 965:-1 966:-0.571429 967:-1 968:-1 969:-1 970:-1 971:-1 972:-1 973:-1 974:-1 975:-1 976:-1 977:-0.75 978:-1 979:-1 980:-1 981:-1 982:-1 983:-1 984:-1 985:-1 986:-1 987:-1 988:-1 989:-1 990:-1 991:-1 992:-1 993:-0.666667 994:-1 995:-1 996:-1 997:-1 998:-1 999:-1 1000:-1 1001:-1 1002:-1 1003:-1 1004:-1 1005:-1 1006:-1 1007:-1 1008:-1 1009:-1 1010:-1 1011:-1 1012:-0.947368 1014:-1 1015:-0.818182 1016:-1 1017:-1 1018:-1 1019:-1 1020:-1 1021:-1 1022:-1 1023:-0.833333 1024:-1 1025:-1 1026:-1 1027:-1 1028:-1 1029:-1 1031:-1 1032:-1 1033:-1 1034:-1 1035:-1 1036:-1 1037:-1 1038:-1 1039:-1 1040:-1 1041:-1 1042:-1 1043:-1 1044:-1 1045:-1 1046:-1 1047:-1 1048:-1 1049:-1 1050:-1 1051:-1 1052:-1 1053:-1 1054:-1 1055:-1 1056:-1 1057:-1 1058:-1 1059:-1 1060:-1 1061:-1 1062:-1 1063:-1 1064:-1 1065:-1 1066:-1 1067:-1 1068:-1 1069:-0.714286 1070:-1 1071:-1 1072:-1 1073:-1 1074:-1 1075:-1 1076:-1 1077:-1 1078:-1 1079:-1 1080:-1 1081:-1 1082:-1 1083:-1 1084:-1 1085:-1 1086:-1 1087:-1 1088:-1 1089:-1 1090:-1 1091:-1 1092:-1 1093:-1 1094:-1 1095:-1 1096:-1 1097:-1 1098:-1 1099:-1 1100:0.333333 1101:-1 1102:-1 1103:-1 1104:-1 1105:-1 1106:-1 1107:-1 1108:-1 1109:-1 1110:-0.6 1111:-0.670103 1112:-1 1113:-1 
512 1:-0.0344828 2:-0.998514 3:-1 4:-0.998049 5:1 6:-1 7:-1 8:-1 9:-1 10:-1 11:-1 12:-1 13:-1 14:-1 15:-1 16:-1 18:-1 19:-1 20:-1 21:-1 22:-1 23:-1 24:-1 25:-1 26:-1 27:-1 28:-1 29:-1 30:-1 31:-1 32:-1 33:-1 34:-1 35:-1 36:-1 37:-1 38:-1 39:-1 40:-1 41:-1 42:-1 43:-1 44:-1 45:-1 46:-1 47:-1 48:-1 49:-1 50:-1 51:-1 52:-1 53:-1 54:-1 55:-1 56:-1 57:-1 58:-1 59:-1 61:-1 62:-1 64:-1 65:-1 66:-1 67:-1 68:-1 69:-1 70:-1 71:-1 72:-1 73:-1 74:-1 75:-1 76:-1 77:-1 78:-1 79:-1 80:-1 81:-1 83:-1 84:-1 85:-1 86:-1 87:-1 88:-1 89:-1 90:-1 91:-1 92:-1 93:-1 94:-1 95:-1 96:-1 97:-1 98:-1 99:-1 100:-1 102:-1 103:-1 104:-1 105:-1 106:-1 107:-1 108:-1 109:-1 110:-1 111:-1 112:-1 113:-1 114:-1 115:-1 116:-1 117:-1 118:-1 119:-1 121:-1 122:-1 123:-1 124:-1 125:-1 126:-1 127:-1 128:-1 129:-1 130:-1 131:-1 133:-1 134:-1 135:-1 136:-1 137:-1 138:-1 140:-1 141:-1 142:-1 143:-1 144:-1 145:-1 146:-1 147:-1 148:-1 149:-1 150:-1 151:-1 152:-1 153:-1 154:-1 155:-1 156:-1 157:-1 159:-1 160:-1 161:-1 162:-1 163:-1 164:-1 165:-1 166:-1 167:-1 168:-1 169:-1 170:-1 171:-1 172:-1 173:-1 174:-1 175:-1 176:-1 178:-1 179:-1 180:-1 181:-1 182:-1 183:-1 184:-1 185:-1 186:-1 187:-1 188:-1 189:-1 190:-1 191:-1 192:-1 193:-1 194:-1 195:-1 197:-1 198:-1 199:-1 200:-1 201:-1 202:-1 203:-1 204:-1 205:-1 206:-1 207:-1 208:-1 209:-1 210:-1 211:-1 212:-1 213:-1 214:-1 216:-1 217:-1 218:-1 219:-1 220:-1 221:-1 222:-1 223:-1 224:-1 225:-1 226:-1 227:-1 228:-1 229:-1 230:-1 231:-1 232:-1 233:-1 235:-1 236:-1 237:-1 238:-1 239:-1 240:-1 241:-1 242:-1 243:-1 244:-1 245:-1 246:-1 247:-1 248:-1 249:-1 250:-1 251:-1 252:-1 254:-1 255:-1 256:-1 257:-1 258:-1 259:-1 260:-1 261:-1 262:-1 263:-1 264:-1 265:-1 266:-1 267:-1 268:-1 269:-1 270:-1 271:-1 273:-1 274:-1 275:-1 276:-1 277:-1 278:-1 279:-1 280:-1 281:-1 282:-1 283:-1 284:-1 285:-1 286:-1 287:-1 288:-1 289:-1 290:-1 292:-1 293:-1 294:-1 295:-1 296:-1 297:-1 298:-1 299:-1 300:-1 301:-1 302:-1 303:-1 304:-1 305:-1 306:-1 307:-1 308:-1 309:-1 311:-1 312:-1 313:-1 314:-1 315:-1 316:-1 317:-1 318:-1 319:-1 320:-1 321:-1 322:-1 323:-1 324:-1 325:-1 326:-1 328:-1 330:-1 331:-1 332:-1 333:-1 334:-1 335:-1 336:-1 337:-1 338:-1 339:-1 340:-1 341:-1 342:-1 343:-1 344:-1 345:-1 346:-1 347:-1 349:-1 350:-1 351:-1 352:-1 353:-1 354:-1 355:-1 356:-1 357:-1 358:-1 359:-1 360:-1 361:-1 362:-1 363:-1 364:-1 365:-1 366:-1 368:-1 369:-1 370:-1 371:-1 372:-1 373:-1 374:-1 375:-1 376:-1 377:-1 378:-1 379:-1 380:-1 381:-1 382:-1 383:-1 384:-1 385:-1 387:-1 388:-1 389:-1 390:-1 391:-1 392:-1 393:-1 394:-1 395:-1 396:-1 397:-1 398:-1 399:-1 400:-1 401:-1 402:-1 403:-1 404:-1 406:-1 407:-1 408:-1 409:-1 410:-1 411:-1 412:-1 413:-1 414:-1 415:-1 416:-1 417:-1 418:-1 419:-1 420:-1 421:-1 422:-1 423:-1 424:-1 425:-1 426:-1 427:-1 428:-1 429:-1 430:-1 431:-1 433:-1 434:-1 435:-1 436:-1 438:-1 439:-1 440:-1 441:-1 442:-1 443:-1 444:-1 445:-1 446:-1 447:-1 448:-1 449:-1 450:-1 451:-1 452:-1 453:-1 454:-1 455:-1 456:-1 457:-1 458:-1 459:-1 461:-1 462:-1 463:-1 464:-1 465:-1 466:-1 468:-1 469:-1 470:-1 471:-1 472:-1 473:-1 474:-1 475:-1 476:-1 478:-1 479:-1 480:-1 481:-1 482:-1 483:-1 484:-1 485:-1 486:-1 487:-1 488:-1 489:-1 490:-1 491:-1 492:-1 494:-1 495:-1 496:-1 497:-1 498:-1 499:-1 500:-1 501:-1 502:-1 504:-1 506:-1 507:-1 509:-1 510:-1 511:-1 512:-1 513:-1 514:-1 515:-1 516:-1 517:-1 519:-1 520:-1 521:-1 522:-1 523:-1 524:-1 525:-1 526:-1 527:-1 528:-1 529:-1 530:-1 531:-1 532:-1 533:-1 534:-1 535:-1 536:-1 537:-1 538:-1 539:-1 540:-1 541:-1 542:-1 543:-1 544:-1 545:-1 546:-1 547:-1 548:-1 549:-1 550:-1 551:-1 552:-1 553:-1 554:-1 555:-1 556:-1 557:0.666667 558:-0.545455 559:-1 560:-1 561:-1 562:-1 563:-1 564:-1 565:-1 566:-1 567:-1 568:-1 569:-1 570:-1 571:-1 572:-1 573:-1 574:-1 575:-1 576:-1 577:-1 578:-1 579:-1 580:-1 581:-1 582:-1 583:-1 584:-1 585:-0.75 586:-1 587:-1 588:-1 589:-1 590:-1 591:-1 592:-1 593:-1 594:-1 595:-1 596:-1 597:-1 598:-1 599:-1 600:-1 601:-1 602:-1 603:-1 604:-1 605:-1 606:-1 607:-1 608:-1 609:-1 610:-1 611:-1 612:-1 613:-1 614:-1 615:-1 617:-1 618:-1 619:-1 620:-1 621:-1 622:-1 623:-1 624:-1 625:-1 626:-1 627:-1 628:-1 629:-1 630:-1 631:-1 632:-1 633:-1 634:-1 636:-1 637:-1 638:-1 639:-1 640:-1 641:-1 642:-1 643:-1 644:-1 645:-1 646:-1 647:-1 648:-1 649:-1 650:-1 651:-1 652:-1 653:-1 655:-1 656:-1 657:-1 658:-1 659:-1 660:-1 661:-1 662:-1 663:-1 664:-1 665:-1 666:-1 667:-1 668:-0.636364 669:-1 670:-1 671:-1 672:-1 674:-1 675:-1 676:-1 677:-1 678:-1 679:-1 680:-1 681:-1 682:-1 683:-1 684:-1 685:-1 686:-1 687:-1 688:-1 689:-1 690:-1 691:-1 693:-1 694:-1 695:-1 696:-1 697:-1 698:-1 699:-1 700:-1 701:-1 702:-1 703:-1 704:-1 705:-1 706:-1 707:-1 708:-1 709:-1 710:-1 712:-1 713:-1 714:-1 715:-1 716:-1 717:-1 718:-1 719:-1 720:-1 721:-1 722:-1 723:-0.882353 724:-1 725:-1 726:-1 727:-1 728:-1 729:-1 731:-1 732:-1 733:-1 734:-1 735:-1 736:-1 737:-1 738:-1 739:-1 740:-1 741:-1 742:-1 743:-1 744:-1 745:-1 746:-1 747:-1 748:-1 750:-1 751:-1 752:-1 753:-1 754:-1 755:-1 756:-1 757:-1 758:-1 759:-1 760:-1 761:-1 762:-1 763:-1 764:-1 765:-1 766:-1 767:-1 769:-1 770:-1 771:-1 772:-1 773:-1 774:-1 775:-1 776:-1 777:-1 778:-1 779:-1 780:-1 781:-1 782:-1 783:-1 784:-1 785:-1 786:-1 788:-1 789:-1 790:-1 791:-1 792:-1 793:-1 794:-1 795:-1 796:-1 797:-1 798:-1 799:-1 800:-1 801:-1 802:-1 803:-1 804:-1 805:-1 807:-1 808:-1 809:-1 810:-1 811:-1 812:-1 813:-1 814:-1 815:-1 816:-1 817:-1 818:-1 819:-1 820:-1 821:-1 822:-0.764706 823:-1 824:-1 826:-1 827:-1 828:-1 829:-1 830:-1 831:-1 832:-1 833:-1 834:-1 835:-1 836:-1 837:-1 838:-1 839:-1 840:-1 841:-1 842:-1 843:-1 845:-1 846:-1 847:-1 848:-1 849:-1 850:-1 851:-1 852:-1 853:-1 854:-1 855:-1 856:-1 857:-1 858:-1 859:-1 860:-1 861:-1 862:-1 864:-1 865:-1 866:-1 867:-1 868:-1 869:-1 870:-1 871:-1 872:-1 873:-1 874:-1 875:-1 876:-1 877:-1 878:-1 879:-1 880:-1 881:-1 883:-1 884:-1 885:-1 886:-1 887:-1 888:-1 889:-1 890:-1 891:-1 892:-1 893:-1 894:-1 895:-1 896:-1 897:-1 898:-1 899:-1 900:-1 902:-1 903:-1 904:-1 905:-1 906:-1 907:-1 908:-1 909:-1 910:-1 911:-1 912:-1 913:-1 914:-1 915:-1 916:-1 917:-1 918:-1 919:-1 921:-1 922:-1 923:-1 924:-1 925:-1 926:-1 927:-1 928:-1 929:-1 930:-1 931:-1 932:-1 933:-1 934:-1 935:-1 936:-1 937:-1 938:-1 940:-1 941:-1 942:-1 943:-1 944:-1 945:-1 946:-1 947:-1 948:-1 949:-1 950:-1 951:-1 952:-1 953:-1 954:-1 955:-1 956:-1 957:-1 959:-1 960:-1 961:-1 962:-1 963:-1 964:-1 965:-1 966:-0.714286 967:-1 968:-1 969:-1 970:-1 971:-1 972:-1 973:-1 974:-1 975:-0.6 976:-1 977:-1 978:-1 979:-1 980:-1 981:-1 982:-1 983:-1 984:-1 985:-1 986:-1 987:-1 988:-1 989:-1 990:-1 991:-1 992:-1 993:-1 994:-1 995:-1 996:-1 997:-1 998:-1 999:-1 1000:-1 1001:-1 1002:-1 1003:-1 1004:-1 1005:-1 1006:-1 1007:-1 1008:-1 1009:-1 1010:-1 1011:-1 1012:-1 1014:-1 1015:-1 1016:-1 1017:-1 1018:-1 1019:-1 1020:-1 1021:-1 1022:-1 1023:-1 1024:-1 1025:-1 1026:-1 1027:-1 1028:-1 1029:-1 1031:-1 1032:-1 1033:-1 1034:-1 1035:-1 1036:-1 1037:-1 1038:-1 1039:-1 1040:-1 1041:-1 1042:-1 1043:-1 1044:-1 1045:-1 1046:-1 1047:-1 1048:-1 1049:-1 1050:-1 1051:-1 1052:-1 1053:-1 1054:-1 1055:-1 1056:-1 1057:-1 1058:-1 1059:-1 1060:-1 1061:-1 1062:-1 1063:-1 1064:-1 1065:-1 1066:-1 1067:-1 1068:-1 1069:-0.428571 1070:-1 1071:-1 1072:-1 1073:-1 1074:-1 1075:-1 1076:-1 1077:-1 1078:-1 1079:-1 1080:-1 1081:-1 1082:-1 1083:-1 1084:-1 1085:-1 1086:-1 1087:-1 1088:-1 1089:-1 1090:-1 1091:-1 1092:-1 1093:-1 1094:-1 1095:-1 1096:-1 1097:-1 1098:-1 1099:-1 1100:-1 1101:-1 1102:-1 1103:-1 1104:-1 1105:-1 1106:-1 1107:-1 1108:-1 1109:-0.428571 1110:-0.7 1111:-0.85567 1112:-1 1113:-1 
512 1:-0.0344828 2:-0.999009 3:-1 4:-0.998049 5:1 6:-1 7:-1 8:-1 9:-1 10:-1 11:-1 12:-1 13:-1 14:-1 15:-1 16:-1 18:-1 19:-1 20:-1 21:-1 22:-1 23:-1 24:-1 25:-1 26:-1 27:-1 28:-1 29:-1 30:-1 31:-1 32:-1 33:-1 34:-1 35:-1 36:-1 37:-1 38:-1 39:-1 40:-1 41:-1 42:-1 43:-1 44:-1 45:-1 46:-1 47:-1 48:-1 49:-1 50:-1 51:-1 52:-1 53:-1 54:-1 55:-1 56:-1 57:-1 58:-1 59:-1 61:-1 62:-1 64:-1 65:-1 66:-1 67:-1 68:-1 69:-1 70:-1 71:-1 72:-1 73:-1 74:-1 75:-1 76:-1 77:-1 78:-1 79:-1 80:-1 81:-1 83:-1 84:-1 85:-1 86:-1 87:-1 88:-1 89:-1 90:-1 91:-1 92:-1 93:-1 94:-1 95:-1 96:-1 97:-1 98:-1 99:-1 100:-1 102:-1 103:-1 104:-1 105:-1 106:-1 107:-1 108:-1 109:-1 110:-1 111:-1 112:-1 113:-1 114:-1 115:-1 116:-1 117:-1 118:-1 119:-1 121:-1 122:-1 123:-1 124:-1 125:-1 126:-1 127:-1 128:-1 129:-1 130:-1 131:-1 133:-1 134:-1 135:-1 136:-1 137:-1 138:-1 140:-1 141:-1 142:-1 143:-1 144:-1 145:-1 146:-1 147:-1 148:-1 149:-1 150:-1 151:-1 152:-1 153:-1 154:-1 155:-1 156:-1 157:-1 159:-1 160:-1 161:-1 162:-1 163:-1 164:-1 165:-1 166:-1 167:-1 168:-1 169:-1 170:-1 171:-1 172:-1 173:-1 174:-1 175:-1 176:-1 178:-1 179:-1 180:-1 181:-1 182:-1 183:-1 184:-1 185:-1 186:-1 187:-1 188:-1 189:-1 190:-1 191:-1 192:-1 193:-1 194:-1 195:-1 197:-1 198:-1 199:-1 200:-1 201:-1 202:-1 203:-1 204:-1 205:-1 206:-1 207:-1 208:-1 209:-1 210:-1 211:-1 212:-1 213:-1 214:-1 216:-1 217:-1 218:-1 219:-1 220:-1 221:-1 222:-1 223:-1 224:-1 225:-1 226:-1 227:-1 228:-1 229:-1 230:-1 231:-1 232:-1 233:-1 235:-1 236:-1 237:-1 238:-1 239:-1 240:-1 241:-1 242:-1 243:-1 244:-1 245:-1 246:-1 247:-1 248:-1 249:-1 250:-1 251:-1 252:-1 254:-1 255:-1 256:-1 257:-1 258:-1 259:-1 260:-1 261:-1 262:-1 263:-1 264:-1 265:-1 266:-1 267:-1 268:-1 269:-1 270:-1 271:-1 273:-1 274:-1 275:-1 276:-1 277:-1 278:-1 279:-1 280:-1 281:-1 282:-1 283:-1 284:-1 285:-1 286:-1 287:-1 288:-1 289:-1 290:-1 292:-1 293:-1 294:-1 295:-1 296:-1 297:-1 298:-1 299:-1 300:-1 301:-1 302:-1 303:-1 304:-1 305:-1 306:-1 307:-1 308:-1 309:-1 311:-1 312:-1 313:-1 314:-1 315:-1 316:-1 317:-1 318:-1 319:-1 320:-1 321:-1 322:-1 323:-1 324:-1 325:-1 326:-1 328:-1 330:-1 331:-1 332:-1 333:-1 334:-1 335:-1 336:-1 337:-1 338:-1 339:-1 340:-1 341:-1 342:-1 343:-1 344:-1 345:-1 346:-1 347:-1 349:-1 350:-1 351:-1 352:-1 353:-1 354:-1 355:-1 356:-1 357:-1 358:-1 359:-1 360:-1 361:-1 362:-1 363:-1 364:-1 365:-1 366:-1 368:-1 369:-1 370:-1 371:-1 372:-1 373:-1 374:-1 375:-1 376:-1 377:-1 378:-1 379:-1 380:-1 381:-1 382:-1 383:-1 384:-1 385:-1 387:-1 388:-1 389:-1 390:-1 391:-1 392:-1 393:-1 394:-1 395:-1 396:-1 397:-1 398:-1 399:-1 400:-1 401:-1 402:-1 403:-1 404:-1 406:-1 407:-1 408:-1 409:-1 410:-1 411:-1 412:-1 413:-1 414:-1 415:-1 416:-1 417:-1 418:-1 419:-1 420:-1 421:-1 422:-1 423:-1 424:-1 425:-1 426:-1 427:-1 428:-1 429:-1 430:-1 431:-1 433:-1 434:-1 435:-1 436:-1 438:-1 439:-1 440:-1 441:-1 442:-1 443:-1 444:-1 445:-1 446:-1 447:-1 448:-1 449:-1 450:-1 451:-1 452:-1 453:-1 454:-1 455:-1 456:-1 457:-1 458:-1 459:-1 461:-1 462:-1 463:-1 464:-1 465:-1 466:-1 468:-1 469:-1 470:-1 471:-1 472:-1 473:-1 474:-1 475:-1 476:-1 478:-1 479:-1 480:-1 481:-1 482:-1 483:-1 484:-1 485:-1 486:-1 487:-1 488:-1 489:-1 490:-1 491:-1 492:-1 494:-1 495:-1 496:-1 497:-1 498:-1 499:-1 500:-1 501:-1 502:-1 504:-1 506:-1 507:-1 509:-1 510:-1 511:-1 512:-1 513:-1 514:-1 515:-1 516:-1 517:-1 519:-1 520:-1 521:-1 522:-1 523:-1 524:-1 525:-1 526:-1 527:-1 528:-1 529:-1 530:-1 531:-1 532:-1 533:-1 534:-1 535:-1 536:-1 537:-1 538:-1 539:-1 540:-1 541:-1 542:-1 543:-1 544:-1 545:-1 546:-1 547:-1 548:-1 549:-1 550:-1 551:-1 552:-1 553:-1 554:-1 555:-1 556:-1 557:0.666667 558:-0.545455 559:-1 560:-1 561:-1 562:-1 563:-1 564:-1 565:-1 566:-1 567:-1 568:-1 569:-1 570:-1 571:-1 572:-1 573:-1 574:-1 575:-1 576:-1 577:-1 578:-1 579:-1 580:-1 581:-1 582:-1 583:-1 584:-1 585:-0.75 586:-1 587:-1 588:-1 589:-1 590:-1 591:-1 592:-1 593:-1 594:-1 595:-1 596:-1 597:-1 598:-1 599:-1 600:-1 601:-1 602:-1 603:-1 604:-1 605:-1 606:-1 607:-1 608:-1 609:-1 610:-1 611:-1 612:-1 613:-1 614:-1 615:-1 617:-1 618:-1 619:-1 620:-1 621:-1 622:-1 623:-1 624:-1 625:-1 626:-1 627:-1 628:-1 629:-1 630:-1 631:-1 632:-1 633:-1 634:-1 636:-1 637:-1 638:-1 639:-1 640:-1 641:-1 642:-1 643:-1 644:-1 645:-1 646:-1 647:-1 648:-1 649:-1 650:-1 651:-1 652:-1 653:-1 655:-1 656:-1 657:-1 658:-1 659:-1 660:-1 661:-1 662:-1 663:-1 664:-1 665:-1 666:-1 667:-1 668:-0.636364 669:-1 670:-1 671:-1 672:-1 674:-1 675:-1 676:-1 677:-1 678:-1 679:-1 680:-1 681:-1 682:-1 683:-1 684:-1 685:-1 686:-1 687:-1 688:-1 689:-1 690:-1 691:-1 693:-1 694:-1 695:-1 696:-1 697:-1 698:-1 699:-1 700:-1 701:-1 702:-1 703:-1 704:-1 705:-1 706:-1 707:-1 708:-1 709:-1 710:-1 712:-1 713:-1 714:-1 715:-1 716:-1 717:-1 718:-1 719:-1 720:-1 721:-1 722:-1 723:-0.882353 724:-1 725:-1 726:-1 727:-1 728:-1 729:-1 731:-1 732:-1 733:-1 734:-1 735:-1 736:-1 737:-1 738:-1 739:-1 740:-1 741:-1 742:-1 743:-1 744:-1 745:-1 746:-1 747:-1 748:-1 750:-1 751:-1 752:-1 753:-1 754:-1 755:-1 756:-1 757:-1 758:-1 759:-1 760:-1 761:-1 762:-1 763:-1 764:-1 765:-1 766:-1 767:-1 769:-1 770:-1 771:-1 772:-1 773:-1 774:-1 775:-1 776:-1 777:-1 778:-1 779:-1 780:-1 781:-1 782:-1 783:-1 784:-1 785:-1 786:-1 788:-1 789:-1 790:-1 791:-1 792:-1 793:-1 794:-1 795:-1 796:-1 797:-1 798:-1 799:-1 800:-1 801:-1 802:-1 803:-1 804:-1 805:-1 807:-1 808:-1 809:-1 810:-1 811:-1 812:-1 813:-1 814:-1 815:-1 816:-1 817:-1 818:-1 819:-1 820:-1 821:-1 822:-0.764706 823:-1 824:-1 826:-1 827:-1 828:-1 829:-1 830:-1 831:-1 832:-1 833:-1 834:-1 835:-1 836:-1 837:-1 838:-1 839:-1 840:-1 841:-1 842:-1 843:-1 845:-1 846:-1 847:-1 848:-1 849:-1 850:-1 851:-1 852:-1 853:-1 854:-1 855:-1 856:-1 857:-1 858:-1 859:-1 860:-1 861:-1 862:-1 864:-1 865:-1 866:-1 867:-1 868:-1 869:-1 870:-1 871:-1 872:-1 873:-1 874:-1 875:-1 876:-1 877:-1 878:-1 879:-1 880:-1 881:-1 883:-1 884:-1 885:-1 886:-1 887:-1 888:-1 889:-1 890:-1 891:-1 892:-1 893:-1 894:-1 895:-1 896:-1 897:-1 898:-1 899:-1 900:-1 902:-1 903:-1 904:-1 905:-1 906:-1 907:-1 908:-1 909:-1 910:-1 911:-1 912:-1 913:-1 914:-1 915:-1 916:-1 917:-1 918:-1 919:-1 921:-1 922:-1 923:-1 924:-1 925:-1 926:-1 927:-1 928:-1 929:-1 930:-1 931:-1 932:-1 933:-1 934:-1 935:-1 936:-1 937:-1 938:-1 940:-1 941:-1 942:-1 943:-1 944:-1 945:-1 946:-1 947:-1 948:-1 949:-1 950:-1 951:-1 952:-1 953:-1 954:-1 955:-1 956:-1 957:-1 959:-1 960:-1 961:-1 962:-1 963:-1 964:-1 965:-1 966:-0.714286 967:-1 968:-1 969:-1 970:-1 971:-1 972:-1 973:-1 974:-1 975:-0.6 976:-1 977:-1 978:-1 979:-1 980:-1 981:-1 982:-1 983:-1 984:-1 985:-1 986:-1 987:-1 988:-1 989:-1 990:-1 991:-1 992:-1 993:-1 994:-1 995:-1 996:-1 997:-1 998:-1 999:-1 1000:-1 1001:-1 1002:-1 1003:-1 1004:-1 1005:-1 1006:-1 1007:-1 1008:-1 1009:-1 1010:-1 1011:-1 1012:-1 1014:-1 1015:-1 1016:-1 1017:-1 1018:-1 1019:-1 1020:-1 1021:-1 1022:-1 1023:-1 1024:-1 1025:-1 1026:-1 1027:-1 1028:-1 1029:-1 1031:-1 1032:-1 1033:-1 1034:-1 1035:-1 1036:-1 1037:-1 1038:-1 1039:-1 1040:-1 1041:-1 1042:-1 1043:-1 1044:-1 1045:-1 1046:-1 1047:-1 1048:-1 1049:-1 1050:-1 1051:-1 1052:-1 1053:-1 1054:-1 1055:-1 1056:-1 1057:-1 1058:-1 1059:-1 1060:-1 1061:-1 1062:-1 1063:-1 1064:-1 1065:-1 1066:-1 1067:-1 1068:-1 1069:-0.428571 1070:-1 1071:-1 1072:-1 1073:-1 1074:-1 1075:-1 1076:-1 1077:-1 1078:-1 1079:-1 1080:-1 1081:-1 1082:-1 1083:-1 1084:-1 1085:-1 1086:-1 1087:-1 1088:-1 1089:-1 1090:-1 1091:-1 1092:-1 1093:-1 1094:-1 1095:-1 1096:-1 1097:-1 1098:-1 1099:-1 1100:-1 1101:-1 1102:-1 1103:-1 1104:-1 1105:-1 1106:-1 1107:-1 1108:-1 1109:-0.428571 1110:-0.7 1111:-0.85567 1112:-1 1113:-1 
512 1:-0.517241 2:-0.997028 3:-0.870968 4:-1 5:-1 6:-1 7:-1 8:-1 9:-1 10:-1 11:-1 12:-1 13:-1 14:-1 15:-1 16:-1 18:-1 19:-1 20:-1 21:-1 22:-1 23:-1 24:-1 25:-1 26:-1 27:-1 28:-1 29:-1 30:-1 31:-1 32:-1 33:-1 34:-1 35:-1 36:-1 37:-1 38:-1 39:-1 40:-1 41:-1 42:-1 43:-1 44:-1 45:-1 46:-1 47:-1 48:-1 49:-1 50:-1 51:-1 52:-1 53:-1 54:-1 55:-1 56:-1 57:-1 58:-1 59:-1 61:-1 62:-1 64:-1 65:-1 66:-1 67:-1 68:-1 69:-1 70:-1 71:-1 72:-1 73:-1 74:-1 75:-1 76:-1 77:-1 78:-1 79:-1 80:-1 81:-1 83:-1 84:-1 85:-1 86:-1 87:-1 88:-1 89:-1 90:-1 91:-1 92:-1 93:-1 94:-1 95:-1 96:-1 97:-1 98:-1 99:-1 100:-1 102:-1 103:-1 104:-1 105:-1 106:-1 107:-1 108:-1 109:-1 110:-1 111:-1 112:-1 113:-1 114:-1 115:-1 116:-1 117:-1 118:-1 119:-1 121:-1 122:-1 123:-1 124:-1 125:-1 126:-1 127:-1 128:-1 129:-1 130:-1 131:-1 133:-1 134:-1 135:-1 136:-1 137:-1 138:-1 140:-1 141:-1 142:-1 143:-1 144:-1 145:-1 146:-1 147:-1 148:-1 149:-1 150:-1 151:-1 152:-1 153:-1 154:-1 155:-1 156:-1 157:-1 159:-1 160:-1 161:-1 162:-1 163:-1 164:-1 165:-1 166:-1 167:-1 168:-1 169:-1 170:-1 171:-1 172:-1 173:-1 174:-1 175:-1 176:-1 178:-1 179:-1 180:-1 181:-1 182:-1 183:-1 184:-1 185:-1 186:-1 187:-1 188:-1 189:-1 190:-1 191:-1 192:-1 193:-1 194:-1 195:-1 197:-1 198:-1 199:-1 200:-1 201:-1 202:-1 203:-1 204:-1 205:-1 206:-1 207:-1 208:-1 209:-1 210:-1 211:-1 212:-1 213:-1 214:-1 216:-1 217:-1 218:-1 219:-1 220:-1 221:-1 222:-1 223:-1 224:-1 225:-1 226:-1 227:-1 228:-1 229:-1 230:-1 231:-1 232:-1 233:-1 235:-1 236:-1 237:-1 238:-1 239:-1 240:-1 241:-1 242:-1 243:-1 244:-1 245:-1 246:-1 247:-1 248:-1 249:-1 250:-1 251:-1 252:-1 254:-1 255:-1 256:-1 257:-1 258:-1 259:-1 260:-1 261:-1 262:-1 263:-1 264:-1 265:-1 266:-1 267:-1 268:-1 269:-1 270:-1 271:-1 273:-1 274:-1 275:-1 276:-1 277:-1 278:-1 279:-1 280:-1 281:-1 282:-1 283:-1 284:-1 285:-1 286:-1 287:-1 288:-1 289:-1 290:-1 292:-1 293:-1 294:-1 295:-1 296:-1 297:-1 298:-1 299:-1 300:-1 301:-1 302:-1 303:-1 304:-1 305:-1 306:-1 307:-1 308:-1 309:-1 311:-1 312:-1 313:-1 314:-1 315:-1 316:-1 317:-1 318:-1 319:-1 320:-1 321:-1 322:-1 323:-1 324:-1 325:-1 326:-1 328:-1 330:-1 331:-1 332:-1 333:-1 334:-1 335:-1 336:-1 337:-1 338:-1 339:-1 340:-1 341:-1 342:-1 343:-1 344:-1 345:-1 346:-1 347:-1 349:-1 350:-1 351:-1 352:-1 353:-1 354:-1 355:-1 356:-1 357:-1 358:-1 359:-1 360:-1 361:-1 362:-1 363:-1 364:-1 365:-1 366:-1 368:-1 369:-1 370:-1 371:-1 372:-1 373:-1 374:-1 375:-1 376:-1 377:-1 378:-1 379:-1 380:-1 381:-1 382:-1 383:-1 384:-1 385:-1 387:-1 388:-1 389:-1 390:-1 391:-1 392:-1 393:-1 394:-1 395:-1 396:-1 397:-1 398:-1 399:-1 400:-1 401:-1 402:-1 403:-1 404:-1 406:-1 407:-1 408:-1 409:-1 410:-1 411:-1 412:-1 413:-1 414:-1 415:-1 416:-1 417:-1 418:-1 419:-1 420:-1 421:-1 422:-1 423:-1 424:-1 425:-1 426:-1 427:-1 428:-1 429:-1 430:-1 431:-1 433:-1 434:-1 435:-1 436:-1 438:-1 439:-1 440:-1 441:-1 442:-1 443:-1 444:-1 445:-1 446:-1 447:-1 448:-1 449:-1 450:-1 451:-1 452:-1 453:-1 454:-1 455:-1 456:-1 457:-1 458:-1 459:-1 461:-1 462:-1 463:-1 464:-1 465:-1 466:-1 468:-1 469:-1 470:-1 471:-1 472:-1 473:-1 474:-1 475:-1 476:-1 478:-1 479:-1 480:-1 481:-1 482:-1 483:-1 484:-1 485:-1 486:-1 487:-1 488:-1 489:-1 490:-1 491:-1 492:-1 494:-1 495:-1 496:-1 497:-1 498:-1 499:-1 500:-1 501:-1 502:-1 504:-1 506:-1 507:-1 509:-1 510:-1 511:-1 512:-1 513:-1 514:-1 515:-1 516:-1 517:-1 519:-1 520:-1 521:-1 522:-1 523:-1 524:-1 525:-1 526:-1 527:-1 528:-1 529:-1 530:-1 531:-1 532:-1 533:-1 534:-1 535:-1 536:-1 537:-1 538:-1 539:-1 540:-1 541:-1 542:-1 543:-1 544:-1 545:-1 546:-1 547:-1 548:-1 549:-1 550:-1 551:-1 552:-1 553:-1 554:-1 555:-1 556:-1 557:-1 558:-1 559:-1 560:-1 561:-1 562:-1 563:-1 564:-1 565:-1 566:-1 567:-1 568:-1 569:-1 570:-1 571:-1 572:-1 573:-1 574:-1 575:-1 576:-1 577:-1 578:-1 579:-1 580:-1 581:-1 582:-1 583:-1 584:-1 585:-1 586:-1 587:-1 588:-1 589:-1 590:-1 591:-1 592:-1 593:-1 594:-1 595:-1 596:-1 597:-1 598:-1 599:-1 600:-1 601:-0.5 602:-0.2 603:-1 604:-1 605:-1 606:-1 607:-1 608:-0.2 609:-1 610:-1 611:-1 612:-1 613:-1 614:-1 615:-1 617:-1 618:-0.2 619:-1 620:-1 621:-1 622:-1 623:-1 624:-1 625:-1 626:-1 627:-1 628:-1 629:-1 630:-1 631:-1 632:-1 633:-1 634:-1 636:-1 637:-1 638:-1 639:-1 640:-1 641:-1 642:-1 643:-1 644:-1 645:-1 646:-1 647:-1 648:-1 649:-1 650:-1 651:-1 652:-1 653:-1 655:-1 656:-1 657:-1 658:-1 659:-1 660:-1 661:-1 662:-1 663:-1 664:-1 665:-1 666:-1 667:-1 668:-0.636364 669:-1 670:-0.666667 671:-1 672:-1 674:-1 675:-1 676:-1 677:-1 678:-1 679:-1 680:-1 681:-1 682:-1 683:-1 684:-1 685:-1 686:-1 687:-1 688:-1 689:-1 690:-1 691:-1 693:-1 694:-1 695:-1 696:-1 697:-1 698:-1 699:-1 700:-1 701:-1 702:-1 703:-1 704:-1 705:-1 706:-1 707:-1 708:-1 709:-1 710:-1 712:-1 713:-1 714:-1 715:-1 716:-1 717:-1 718:-1 719:-1 720:-1 721:-1 722:-1 723:-0.647059 724:-1 725:-1 726:-1 727:-1 728:-1 729:-1 731:-1 732:-1 733:-1 734:-1 735:-1 736:-1 737:-0.714286 738:-1 739:-1 740:-1 741:-1 742:-1 743:-1 744:-1 745:-1 746:-1 747:-1 748:-1 750:-1 751:-1 752:-1 753:-1 754:-1 755:-1 756:-1 757:-1 758:-1 759:-1 760:-1 761:-1 762:-1 763:-1 764:-1 765:-1 766:-1 767:-1 769:-1 770:-1 771:-1 772:-1 773:-1 774:-1 775:-1 776:-1 777:-1 778:-1 779:-1 780:-1 781:-1 782:-1 783:-1 784:-1 785:-1 786:-1 788:-1 789:-1 790:-1 791:-1 792:-1 793:-1 794:-1 795:-1 796:-1 797:-1 798:-1 799:-1 800:-1 801:-1 802:-1 803:-1 804:-1 805:-1 807:-1 808:-1 809:-1 810:-1 811:-1 812:-1 813:-1 814:-1 815:-1 816:-1 817:-1 818:-1 819:-1 820:-1 821:-1 822:-0.294118 823:-1 824:-1 826:-1 827:-1 828:-1 829:-1 830:-1 831:-1 832:-1 833:-1 834:-1 835:-1 836:-1 837:-1 838:-1 839:-1 840:-1 841:-1 842:-1 843:-1 845:-1 846:-1 847:-0.882353 848:-1 849:-1 850:-1 851:-1 852:-1 853:-1 854:-1 855:-1 856:-1 857:-1 858:-1 859:-1 860:-1 861:-1 862:-1 864:-1 865:-1 866:-1 867:-1 868:-1 869:-1 870:-1 871:-1 872:-1 873:-1 874:-1 875:-1 876:-0.6 877:-1 878:-1 879:-1 880:-1 881:-1 883:-1 884:0.2 885:-1 886:-1 887:-1 888:-1 889:-1 890:-1 891:-1 892:-1 893:-1 894:-1 895:-1 896:-1 897:-1 898:-1 899:-1 900:-1 902:-1 903:-1 904:-1 905:-1 906:-1 907:-1 908:-1 909:-1 910:-1 911:-1 912:-1 913:-1 915:-1 916:-1 917:-1 918:-1 919:-1 921:-0.882353 922:-1 923:-1 924:-1 925:-1 926:-1 927:-1 928:-1 929:-1 930:-0.6 931:-1 932:-1 933:-1 934:-1 935:-1 936:-1 937:-1 938:-1 940:-1 941:-1 942:-1 943:-1 944:-1 945:-1 946:-1 947:-1 948:-1 949:-1 950:-1 951:-1 952:-1 953:-1 954:-1 955:-1 956:-1 957:-1 959:-1 960:-1 961:-0.833333 962:-1 963:-1 964:-1 965:-1 966:-0.142857 967:-1 968:-1 969:-1 970:-1 971:-1 972:-1 973:-1 974:-1 975:-1 976:-1 977:-1 978:-1 979:-1 980:-1 981:-1 982:-1 983:-1 985:-1 986:-1 987:-1 988:-1 989:-1 990:-1 991:-1 992:-1 993:-1 994:-0.882353 995:-1 996:-1 997:-1 998:-1 999:-1 1000:-1 1001:-1 1002:-1 1003:-1 1004:-1 1005:-1 1006:-1 1007:-1 1008:-1 1009:-1 1010:-1 1011:-1 1012:-1 1014:-1 1015:-1 1016:-1 1017:-1 1018:-1 1019:-1 1020:-1 1021:-1 1022:-1 1023:-1 1024:-1 1025:-1 1026:-1 1027:-1 1028:-1 1029:-1 1031:-1 1032:-1 1033:-1 1034:-1 1035:-1 1036:-1 1037:-1 1038:-1 1039:-1 1040:-1 1041:-1 1042:-0.111111 1043:-1 1044:-1 1045:-1 1046:-1 1047:-1 1048:-1 1049:-1 1050:-0.666667 1051:-1 1052:-1 1053:-1 1054:-1 1055:-1 1056:-1 1057:-1 1058:-1 1059:-1 1060:-1 1061:-1 1062:-1 1063:-1 1064:-0.2 1065:-1 1066:-1 1067:-1 1068:-1 1069:-0.428571 1070:-1 1071:-1 1072:-1 1073:-1 1074:-1 1075:-1 1076:-1 1077:-1 1078:-1 1079:-1 1080:-1 1081:-1 1082:-1 1083:-1 1084:-1 1085:-1 1086:-1 1087:-1 1088:-1 1089:-1 1090:-1 1091:-1 1092:-1 1093:-1 1094:-1 1095:-1 1096:-1 1097:-1 1098:-1 1099:-1 1100:-1 1101:-1 1102:-1 1103:-1 1104:-1 1105:-1 1106:-1 1107:-1 1108:-1 1109:-1 1110:-1 1111:-1 1112:-1 1113:-0.870968 
512 1:-0.0344828 2:-0.998019 3:-0.935484 4:-0.998049 5:1 6:-1 7:-1 8:-1 9:-1 10:-1 11:-1 12:-1 13:-1 14:-1 15:-1 16:-1 18:-1 19:-1 20:-1 21:-1 22:-1 23:-1 24:-1 25:-1 26:-1 27:-1 28:-1 29:-1 30:-1 31:-1 32:-1 33:-1 34:-1 35:-1 36:-1 37:-1 38:-1 39:-1 40:-1 41:-1 42:-1 43:-1 44:-1 45:-1 46:-1 47:-1 48:-1 49:-1 50:-1 51:-1 52:-1 53:-1 54:-1 55:-1 56:-1 57:-1 58:-1 59:-1 61:-1 62:-1 64:-1 65:-1 66:-1 67:-1 68:-1 69:-1 70:-1 71:-1 72:-1 73:-1 74:-1 75:-1 76:-1 77:-1 78:-1 79:-1 80:-1 81:-1 83:-1 84:-1 85:-1 86:-1 87:-1 88:-1 89:-1 90:-1 91:-1 92:-1 93:-1 94:-1 95:-1 96:-1 97:-1 98:-1 99:-1 100:-1 102:-1 103:-1 104:-1 105:-1 106:-1 107:-1 108:-1 109:-1 110:-1 111:-1 112:-1 113:-1 114:-1 115:-1 116:-1 117:-1 118:-1 119:-1 121:-1 122:-1 123:-1 124:-1 125:-1 126:-1 127:-1 128:-1 129:-1 130:-1 131:-1 133:-1 134:-1 135:-1 136:-1 137:-1 138:-1 140:-1 141:-1 142:-1 143:-1 144:-1 145:-1 146:-1 147:-1 148:-1 149:-1 150:-1 151:-1 152:-1 153:-1 154:-1 155:-1 156:-1 157:-1 159:-1 160:-1 161:-1 162:-1 163:-1 164:-1 165:-1 166:-1 167:-1 168:-1 169:-1 170:-1 171:-1 172:-1 173:-1 174:-1 175:-1 176:-1 178:-1 179:-1 180:-1 181:-1 182:-1 183:-1 184:-1 185:-1 186:-1 187:-1 188:-1 189:-1 190:-1 191:-1 192:-1 193:-1 194:-1 195:-1 197:-1 198:-1 199:-1 200:-1 201:-1 202:-1 203:-1 204:-1 205:-1 206:-1 207:-1 208:-1 209:-1 210:-1 211:-1 212:-1 213:-1 214:-1 216:-1 217:-1 218:-1 219:-1 220:-1 221:-1 222:-1 223:-1 224:-1 225:-1 226:-1 227:-1 228:-1 229:-1 230:-1 231:-1 232:-1 233:-1 235:-1 236:-1 237:-1 238:-1 239:-1 240:-1 241:-1 242:-1 243:-1 244:-1 245:-1 246:-1 247:-1 248:-1 249:-1 250:-1 251:-1 252:-1 254:-1 255:-1 256:-1 257:-1 258:-1 259:-1 260:-1 261:-1 262:-1 263:-1 264:-1 265:-1 266:-1 267:-1 268:-1 269:-1 270:-1 271:-1 273:-1 274:-1 275:-1 276:-1 277:-1 278:-1 279:-1 280:-1 281:-1 282:-1 283:-1 284:-1 285:-1 286:-1 287:-1 288:-1 289:-1 290:-1 292:-1 293:-1 294:-1 295:-1 296:-1 297:-1 298:-1 299:-1 300:-1 301:-1 302:-1 303:-1 304:-1 305:-1 306:-1 307:-1 308:-1 309:-1 311:-1 312:-1 313:-1 314:-1 315:-1 316:-1 317:-1 318:-1 319:-1 320:-1 321:-1 322:-1 323:-1 324:-1 325:-1 326:-1 328:-1 330:-1 331:-1 332:-1 333:-1 334:-1 335:-1 336:-1 337:-1 338:-1 339:-1 340:-1 341:-1 342:-1 343:-1 344:-1 345:-1 346:-1 347:-1 349:-1 350:-1 351:-1 352:-1 353:-1 354:-1 355:-1 356:-1 357:-1 358:-1 359:-1 360:-1 361:-1 362:-1 363:-1 364:-1 365:-1 366:-1 368:-1 369:-1 370:-1 371:-1 372:-1 373:-1 374:-1 375:-1 376:-1 377:-1 378:-1 379:-1 380:-1 381:-1 382:-1 383:-1 384:-1 385:-1 387:-1 388:-1 389:-1 390:-1 391:-1 392:-1 393:-1 394:-1 395:-1 396:-1 397:-1 398:-1 399:-1 400:-1 401:-1 402:-1 403:-1 404:-1 406:-1 407:-1 408:-1 409:-1 410:-1 411:-1 412:-1 413:-1 414:-1 415:-1 416:-1 417:-1 418:-1 419:-1 420:-1 421:-1 422:-1 423:-1 424:-1 425:-1 426:-1 427:-1 428:-1 429:-1 430:-1 431:-1 433:-1 434:-1 435:-1 436:-1 438:-1 439:-1 440:-1 441:-1 442:-1 443:-1 444:-1 445:-1 446:-1 447:-1 448:-1 449:-1 450:-1 451:-1 452:-1 453:-1 454:-1 455:-1 456:-1 457:-1 458:-1 459:-1 461:-1 462:-1 463:-1 464:-1 465:-1 466:-1 468:-1 469:-1 470:-1 471:-1 472:-1 473:-1 474:-1 475:-1 476:-1 478:-1 479:-1 480:-1 481:-1 482:-1 483:-1 484:-1 485:-1 486:-1 487:-1 488:-1 489:-1 490:-1 491:-1 492:-1 494:-1 495:-1 496:-1 497:-1 498:-1 499:-1 500:-1 501:-1 502:-1 504:-1 506:-1 507:-1 509:-1 510:-1 511:-1 512:-1 513:-1 514:-1 515:-1 516:-1 517:-1 519:-1 520:-1 521:-1 522:-1 523:-1 524:-1 525:-1 526:-1 527:-1 528:-1 529:-1 530:-1 531:-1 532:-1 533:-1 534:-1 535:-1 536:-1 537:-1 538:-1 539:-1 540:-1 541:-1 542:-1 543:-1 544:-1 545:-1 546:-1 547:-1 548:-1 549:-1 550:-1 551:-1 552:-1 553:-1 554:-1 555:-1 556:-1 557:0.666667 558:-0.545455 559:-1 560:-1 561:-1 562:-1 563:-1 564:-1 565:-1 566:-1 567:-1 568:-1 569:-1 570:-1 571:-1 572:-1 573:-1 574:-1 575:-1 576:-1 577:-1 578:-1 579:-1 580:-1 581:-1 582:-1 583:-1 584:-1 585:-0.75 586:-1 587:-1 588:-1 589:-1 590:-1 591:-1 592:-1 593:-1 594:-1 595:-1 596:-1 597:-1 598:-1 599:-1 600:-1 601:-1 602:-1 603:-1 604:-1 605:-1 606:-1 607:-1 608:-1 609:-1 610:-1 611:-1 612:-1 613:-1 614:-1 615:-1 617:-1 618:-1 619:-1 620:-1 621:-1 622:-1 623:-1 624:-1 625:-1 626:-1 627:-1 628:-1 629:-1 630:-1 631:-1 632:-1 633:-1 634:-1 636:-1 637:-1 638:-1 639:-1 640:-1 641:-1 642:-1 643:-1 644:-1 645:-1 646:-1 647:-1 648:-1 649:-1 650:-1 651:-1 652:-1 653:-1 655:-1 656:-1 657:-1 658:-1 659:-1 660:-1 661:-1 662:-1 663:-1 664:-1 665:-1 666:-1 667:-1 668:-0.636364 669:-1 670:-1 671:-1 672:-1 674:-1 675:-1 676:-1 677:-1 678:-1 679:-1 680:-1 681:-1 682:-1 683:-1 684:-1 685:-1 686:-1 687:-1 688:-1 689:-1 690:-1 691:-1 693:-1 694:-1 695:-1 696:-1 697:-1 698:-1 699:-1 700:-1 701:-1 702:-1 703:-1 704:-1 705:-1 706:-1 707:-1 708:-1 709:-1 710:-1 712:-1 713:-1 714:-1 715:-1 716:-1 717:-1 718:-1 719:-1 720:-1 721:-1 722:-1 723:-0.882353 724:-1 725:-1 726:-1 727:-1 728:-1 729:-1 731:-1 732:-1 733:-1 734:-1 735:-1 736:-1 737:-1 738:-1 739:-1 740:-1 741:-1 742:-1 743:-1 744:-1 745:-1 746:-1 747:-1 748:-1 750:-1 751:-1 752:-1 753:-1 754:-1 755:-1 756:-1 757:-1 758:-1 759:-1 760:-1 761:-1 762:-1 763:-1 764:-1 765:-1 766:-1 767:-1 769:-1 770:-1 771:-1 772:-1 773:-1 774:-1 775:-1 776:-1 777:-1 778:-1 779:-1 780:-1 781:-1 782:-1 783:-1 784:-1 785:-1 786:-1 788:-1 789:-1 790:-1 791:-1 792:-1 793:-1 794:-1 795:-1 796:-1 797:-1 798:-1 799:-1 800:-1 801:-1 802:-1 803:-1 804:-1 805:-1 807:-1 808:-1 809:-1 810:-1 811:-1 812:-1 813:-1 814:-1 815:-1 816:-1 817:-1 818:-1 819:-1 820:-1 821:-1 822:-0.764706 823:-1 824:-1 826:-1 827:-1 828:-1 829:-1 830:-1 831:-1 832:-1 833:-1 834:-1 835:-1 836:-1 837:-1 838:-1 839:-1 840:-1 841:-1 842:-1 843:-1 845:-1 846:-1 847:-1 848:-1 849:-1 850:-1 851:-1 852:-1 853:-1 854:-1 855:-1 856:-1 857:-1 858:-1 859:-1 860:-1 861:-1 862:-1 864:-1 865:-1 866:-1 867:-1 868:-1 869:-1 870:-1 871:-1 872:-1 873:-1 874:-1 875:-1 876:-1 877:-1 878:-1 879:-1 880:-1 881:-1 883:-1 884:-1 885:-1 886:-1 887:-1 888:-1 889:-1 890:-1 891:-1 892:-1 893:-1 894:-1 895:-1 896:-1 897:-1 898:-1 899:-1 900:-1 902:-1 903:-1 904:-1 905:-1 906:-1 907:-1 908:-1 909:-1 910:-1 911:-1 912:-1 913:-1 914:-1 915:-1 916:-1 917:-1 918:-1 919:-1 921:-1 922:-1 923:-1 924:-1 925:-1 926:-1 927:-1 928:-1 929:-1 930:-1 931:-1 932:-1 933:-1 934:-1 935:-1 936:-1 937:-1 938:-1 940:-1 941:-1 942:-1 943:-1 944:-1 945:-1 946:-1 947:-1 948:-1 949:-1 950:-1 951:-1 952:-1 953:-1 954:-1 955:-1 956:-1 957:-1 959:-1 960:-1 961:-1 962:-1 963:-1 964:-1 965:-1 966:-0.714286 967:-1 968:-1 969:-1 970:-1 971:-1 972:-1 973:-1 974:-1 975:-0.6 976:-1 977:-1 978:-1 979:-1 980:-1 981:-1 982:-1 983:-1 984:-1 985:-1 986:-1 987:-1 988:-1 989:-1 990:-1 991:-1 992:-1 993:-1 994:-1 995:-1 996:-1 997:-1 998:-1 999:-1 1000:-1 1001:-1 1002:-1 1003:-1 1004:-1 1005:-1 1006:-1 1007:-1 1008:-1 1009:-1 1010:-1 1011:-1 1012:-1 1014:-1 1015:-1 1016:-1 1017:-1 1018:-1 1019:-1 1020:-1 1021:-1 1022:-1 1023:-1 1024:-1 1025:-1 1026:-1 1027:-1 1028:-1 1029:-1 1031:-1 1032:-1 1033:-1 1034:-1 1035:-1 1036:-1 1037:-1 1038:-1 1039:-1 1040:-1 1041:-1 1042:-1 1043:-1 1044:-1 1045:-1 1046:-1 1047:-1 1048:-1 1049:-1 1050:-1 1051:-1 1052:-1 1053:-1 1054:-1 1055:-1 1056:-1 1057:-1 1058:-1 1059:-1 1060:-1 1061:-1 1062:-1 1063:-1 1064:-1 1065:-1 1066:-1 1067:-1 1068:-1 1069:-0.428571 1070:-1 1071:-1 1072:-1 1073:-1 1074:-1 1075:-1 1076:-1 1077:-1 1078:-1 1079:-1 1080:-1 1081:-1 1082:-1 1083:-1 1084:-1 1085:-1 1086:-1 1087:-1 1088:-1 1089:-1 1090:-1 1091:-1 1092:-1 1093:-1 1094:-1 1095:-1 1096:-1 1097:-1 1098:-1 1099:-1 1100:-1 1101:-1 1102:-1 1103:-1 1104:-1 1105:-1 1106:-1 1107:-1 1108:-1 1109:-0.428571 1110:-0.7 1111:-0.85567 1112:-1 1113:-0.935484 
