svm_type c_svc
kernel_type rbf
gamma 0.00012207
nr_class 2
total_sv 157
rho 6.66477
label 1 -1
nr_sv 79 78
SV
32768 1:-0.103448 2:-0.998019 3:-0.870968 4:-0.99848 5:1 6:-1 7:-1 8:-0.333333 9:-0.809524 10:-1 11:-1 12:-0.8 13:-0.958763 14:1 15:-0.870968 
32768 1:-0.586207 2:-0.99158 3:-0.419355 4:-0.994318 5:0.8 6:-1 7:-1 8:-1 9:-1 10:-1 11:-1 12:-1 13:-1 14:-1 15:-0.419355 
32768 2:-1 3:-1 4:-0.924404 5:1 6:-0.8 7:-0.333333 8:0.333333 9:-0.0952381 10:-1 11:-1 12:-0.8 13:-0.958763 14:-1 15:-1 
32768 2:-0.999505 3:-0.935484 4:-0.924404 5:1 6:-0.8 7:-0.333333 8:0.333333 9:-0.0952381 10:-1 11:-1 12:-0.8 13:-0.958763 14:-1 15:-0.935484 
32768 1:-0.344828 2:-0.999505 3:-1 4:-0.998195 6:-0.8 7:-1 8:0.333333 9:-0.619048 10:-1 11:-1 12:-0.8 13:-0.958763 14:-1 15:-1 
32768 1:-0.62069 2:-1 3:-0.935484 4:-0.999354 5:-0.5 6:-0.8 7:-1 8:0.333333 9:-0.619048 10:-1 11:-1 12:-0.2 13:-0.752577 14:-1 15:-0.935484 
32768 1:-0.172414 2:-1 3:-1 4:-0.999259 5:1 6:-1 7:0.333333 8:-0.333333 9:-0.428571 10:-1 11:-0.714286 12:-0.3 13:-0.443299 14:-1 15:-1 
32768 1:-0.724138 2:-0.98316 3:-0.612903 4:-0.973718 5:1 6:-0.6 7:-1 8:-0.666667 9:-0.904762 10:-1 11:-1 12:-0.8 13:-0.814433 14:1 15:-0.612903 
32768 1:-0.310345 2:-0.995047 3:-1 4:-0.994071 5:-0.7 6:-1 7:-0.333333 8:-1 9:-1 10:-1 11:-1 12:-1 13:-1 14:-1 15:-1 
32768 1:-0.0344828 2:-0.999505 3:-0.870968 4:-0.998518 5:-0.6 6:-0.8 7:-1 9:-0.714286 10:-1 11:-1 12:-0.8 13:-0.958763 14:-1 15:-0.870968 
8268.78192283586 1:-0.0344828 2:-1 3:-1 4:-0.997339 5:1 6:-1 7:-1 8:-1 9:-1 10:-0.804878 11:-1 12:-0.2 13:-0.835052 14:-1 15:-1 
32768 2:-0.999009 3:-1 4:-0.998727 5:0.9 6:-1 7:-1 8:-1 9:-1 10:-0.707317 11:-1 12:-0.9 13:-0.958763 14:-1 15:-1 
32768 1:-0.0344828 2:-0.999505 3:-1 4:-0.997339 5:1 6:-1 7:-1 8:-1 9:-1 10:-0.804878 11:-1 12:-0.2 13:-0.835052 14:-1 15:-1 
32768 1:-0.137931 2:-0.998514 3:-0.935484 4:-0.967884 5:0.5 6:-1 7:-1 8:-0.666667 9:-0.857143 10:-1 11:-0.714286 12:-0.5 13:-0.85567 14:-1 15:-0.935484 
32768 1:-0.0689655 2:-0.994552 3:-1 4:-0.967371 5:1 6:-1 7:-1 8:0.333333 9:-0.428571 10:-1 11:-0.714286 12:-0.6 13:-0.85567 14:1 15:-1 
32768 1:-0.206897 2:-0.998019 3:-0.935484 4:-0.967884 5:0.5 6:-1 7:-1 8:-0.666667 9:-0.857143 10:-1 11:-1 12:-0.8 13:-0.876289 14:-1 15:-0.935484 
32768 1:-0.206897 2:-0.999009 3:-0.935484 4:-0.967884 5:0.5 6:-1 7:-1 8:-0.666667 9:-0.857143 10:-1 11:-1 12:-0.7 13:-0.896907 14:-1 15:-0.935484 
32768 1:-0.206897 2:-1 3:-0.935484 4:-0.967884 5:0.5 6:-1 7:-1 8:-0.666667 9:-0.857143 10:-1 11:-1 12:-0.8 13:-0.876289 14:-1 15:-0.935484 
32768 1:-0.206897 2:-0.999009 3:-0.935484 4:-0.967884 5:0.5 6:-1 7:-1 8:-0.666667 9:-0.857143 10:-1 11:-1 12:-0.8 13:-0.917526 14:-1 15:-0.935484 
32768 1:-0.206897 2:-0.998019 3:-0.935484 4:-0.967884 5:0.5 6:-1 7:-1 8:-0.666667 9:-0.857143 10:-1 11:-1 12:-0.8 13:-0.876289 14:-1 15:-0.935484 
32768 1:-0.62069 2:-1 3:-1 4:-0.998366 5:1 6:-1 7:-1 8:-0.5 9:-0.857143 10:-0.95122 11:-1 12:-1 13:-1 14:-1 15:-1 
32768 1:-0.517241 2:-0.997028 3:-0.870968 4:-1 5:-1 6:-1 7:-1 8:-1 9:-1 10:-0.560976 11:-1 12:-1 13:-1 14:-1 15:-0.870968 
32768 1:-0.724138 2:-0.995047 3:-0.935484 4:-0.976416 5:1 6:-0.2 7:-1 8:-0.333333 9:-0.666667 10:-1 11:-1 12:-0.9 13:-0.938144 14:-1 15:-0.935484 
32768 1:-0.827586 2:-0.973749 3:-0.741935 4:-0.994432 5:-0.7 6:-1 7:-1 8:-1 9:-1 10:-1 11:-1 12:-1 13:-1 14:-1 15:-0.741935 
32768 1:-0.827586 2:-0.998514 3:-1 4:-0.995211 5:0.7 6:-1 7:-1 8:-1 9:-1 10:-1 11:-1 12:-0.4 13:-0.690722 14:-1 15:-1 
32768 2:-0.992571 3:-0.870968 4:-0.994071 5:1 6:-0.8 7:-0.333333 8:-0.666667 9:-0.904762 10:-1 11:-1 12:-1 13:-1 14:-1 15:-0.870968 
32768 1:-0.137931 2:-0.990094 3:-0.935484 4:-0.949564 5:1 6:-0.4 7:-0.333333 8:-0.666667 9:-0.809524 10:-1 11:-1 12:-0.8 13:-0.958763 14:-1 15:-0.935484 
32768 1:-0.172414 2:-0.986627 3:-0.806452 4:-0.949564 5:1 6:-0.4 7:-0.333333 8:-0.666667 9:-0.809524 10:-1 11:-1 12:-0.8 13:-0.958763 14:-1 15:-0.806452 
32768 1:-0.793103 2:-0.960376 3:-1 4:-0.964064 5:1 6:-0.8 7:-0.333333 8:0.333333 9:-0.380952 10:-0.756098 11:-1 12:-0.8 13:-0.752577 14:-1 15:-1 
32768 1:-0.793103 2:-0.965825 3:-1 4:-0.964064 5:1 6:-0.8 7:-0.333333 8:0.333333 9:-0.380952 10:-0.756098 11:-1 12:-0.8 13:-0.752577 14:-1 15:-1 
32768 1:-0.793103 2:-0.970778 3:-1 4:-0.964064 5:1 6:-0.8 7:-0.333333 8:0.333333 9:-0.380952 10:-0.756098 11:-1 12:-0.8 13:-0.752577 14:-1 15:-1 
32768 1:-0.793103 2:-0.96632 3:-1 4:-0.964064 5:1 6:-0.8 7:-0.333333 8:0.333333 9:-0.380952 10:-0.756098 11:-1 12:-0.8 13:-0.752577 14:-1 15:-1 
32768 1:-0.793103 2:-0.965329 3:-1 4:-0.964064 5:1 6:-0.8 7:-0.333333 8:0.333333 9:-0.380952 10:-0.756098 11:-1 12:-0.8 13:-0.752577 14:-1 15:-1 
32768 1:-0.793103 2:-0.967806 3:-1 4:-0.964064 5:1 6:-0.8 7:-0.333333 8:0.333333 9:-0.380952 10:-0.756098 11:-1 12:-0.8 13:-0.752577 14:-1 15:-1 
32768 1:-0.0689655 2:-0.994552 3:-1 4:-0.99675 5:1 6:-0.4 7:-1 8:-1 9:-1 10:-0.902439 11:-1 12:-1 13:-1 14:-1 15:-1 
32768 1:-0.0689655 2:-0.996038 3:-1 4:-0.99675 5:1 6:-0.4 7:-1 8:-1 9:-1 10:-0.902439 11:-1 12:-1 13:-1 14:-1 15:-1 
23651.94855222413 1:-0.344828 2:-0.995047 3:-1 4:-0.987743 5:-0.7 6:-0.8 7:-1 8:-0.666667 9:-0.857143 10:-0.853659 11:-1 12:-0.2 13:-0.670103 14:-1 15:-1 
32768 1:-0.0689655 2:-0.996038 3:-1 4:-0.99675 5:1 6:-0.4 7:-1 8:-1 9:-1 10:-0.902439 11:-1 12:-1 13:-1 14:-1 15:-1 
32768 1:-0.0689655 2:-0.995542 3:-1 4:-0.99675 5:1 6:-0.4 7:-1 8:-1 9:-1 10:-0.902439 11:-1 12:-1 13:-1 14:-1 15:-1 
32768 1:-0.103448 2:-0.995542 3:-1 4:-0.99675 5:1 6:-0.4 7:-1 8:-1 9:-1 10:-0.902439 11:-1 12:-1 13:-1 14:-1 15:-1 
32768 1:-0.103448 2:-0.996038 3:-1 4:-0.99675 5:1 6:-0.4 7:-1 8:-1 9:-1 10:-0.902439 11:-1 12:-1 13:-1 14:-1 15:-1 
32768 1:-0.103448 2:-0.994552 3:-1 4:-0.99675 5:1 6:-0.4 7:-1 8:-1 9:-1 10:-0.902439 11:-1 12:-1 13:-1 14:-1 15:-1 
32768 1:-0.0689655 2:-0.995542 3:-1 4:-0.99675 5:1 6:-0.4 7:-1 8:-1 9:-1 10:-0.902439 11:-1 12:-1 13:-1 14:-1 15:-1 
32768 1:-0.0344828 2:-0.993561 3:-1 4:-0.99675 5:1 6:-0.4 7:-1 8:-1 9:-1 10:-0.902439 11:-1 12:-1 13:-1 14:-1 15:-1 
32768 1:-0.517241 2:-0.995542 3:-1 4:-0.944205 5:-0.9 6:-0.4 7:-1 8:-0.833333 9:-0.952381 10:-0.95122 11:-1 12:-0.7 13:-0.876289 14:1 15:-1 
32768 1:-0.241379 2:-0.979693 3:-0.419355 4:-0.992075 5:1 6:-0.8 7:-1 8:-1 9:-1 10:-0.902439 11:-1 12:-0.2 13:-0.56701 14:1 15:-0.419355 
32768 1:-0.0344828 2:-0.999505 3:-0.935484 4:-0.996997 5:1 6:-0.6 7:-1 8:-1 9:-1 10:-1 11:-1 12:-0.8 13:-0.958763 14:1 15:-0.935484 
4150.700757885831 1:-0.37931 2:-0.998514 3:-1 4:-0.992627 5:1 6:-0.4 7:-1 8:-1 9:-1 10:-0.902439 11:-1 12:-0.7 13:-0.835052 14:-1 15:-1 
32768 1:-0.37931 2:-0.997524 3:-1 4:-0.992627 5:1 6:-0.4 7:-1 8:-1 9:-1 10:-0.902439 11:-1 12:-0.7 13:-0.876289 14:-1 15:-1 
32768 2:-0.998514 3:-0.806452 4:-0.987002 5:0.1 6:-0.2 7:-0.333333 8:-0.833333 9:-0.619048 10:-1 11:-1 12:-1 13:-1 14:-1 15:-0.806452 
32768 1:-0.931034 2:-0.998514 3:-1 4:-0.998366 5:-0.9 6:-0.8 7:-1 8:-1 9:-1 10:-0.95122 11:-1 12:-0.2 13:-0.773196 14:-1 15:-1 
32768 1:-0.931034 2:-0.997524 3:-1 4:-0.992912 5:-0.9 6:-0.4 7:-1 8:-0.833333 9:-0.904762 10:-0.95122 11:-1 12:-0.2 13:-0.773196 14:-1 15:-1 
32768 1:-0.793103 2:-0.996038 3:-0.677419 4:-0.992171 5:1 6:-0.8 7:-1 8:-1 9:-1 10:-1 11:-1 12:-1 13:-1 14:-1 15:-0.677419 
32768 1:-0.0689655 2:-1 3:-1 4:-0.987629 5:-0.3 6:-0.8 7:-1 8:-1 9:-1 10:-0.902439 11:-0.714286 12:-0.9 13:-0.958763 14:1 15:-1 
32768 1:-0.862069 2:-0.968301 3:-1 4:-0.938542 5:1 6:-1 7:-1 8:0.333333 9:-0.238095 10:-0.95122 11:-1 12:-0.8 13:-0.835052 14:-1 15:-1 
32768 1:-0.827586 2:-0.977712 3:-1 4:-0.938542 5:1 6:-1 7:-1 8:0.333333 9:-0.238095 10:-0.95122 11:-1 12:-0.8 13:-0.835052 14:1 15:-1 
9049.786535194466 1:-0.0689655 2:-0.998019 3:-1 4:-0.989928 5:0.9 6:-0.6 7:-0.333333 8:-1 9:-1 10:-0.853659 11:-0.714286 12:-1 13:-1 14:-1 15:-1 
15878.33292780659 1:-0.0689655 2:-0.998019 3:-1 4:-0.989928 5:0.9 6:-0.6 7:-0.333333 8:-1 9:-1 10:-0.853659 11:-0.714286 12:-1 13:-1 14:-1 15:-1 
32768 1:-0.0689655 2:-0.997524 3:-1 4:-0.989928 5:0.9 6:-0.6 7:-0.333333 8:-1 9:-1 10:-0.853659 11:-0.714286 12:-1 13:-1 14:-1 15:-1 
32768 1:-0.758621 2:-1 3:-1 4:-0.999905 5:-0.9 6:-0.8 7:-1 8:-1 9:-1 10:-0.95122 11:-1 12:-0.7 13:-0.876289 14:-1 15:-1 
12983.13052824127 1:-0.0344828 2:-0.945022 3:-0.806452 4:-0.855686 5:1 6:-1 7:-1 8:0.333333 9:0.238095 10:-1 11:-1 12:0.1 13:-0.113402 14:-1 15:-0.806452 
32768 1:-0.793103 2:-0.996533 3:-1 4:-0.996579 5:-0.5 6:-1 7:-1 8:0.333333 9:-0.238095 10:-1 11:-1 12:-0.2 13:-0.793814 14:1 15:-1 
32768 1:-0.724138 2:-0.996533 3:-1 4:-0.996579 5:-0.5 6:-1 7:-1 8:0.333333 9:-0.238095 10:-1 11:-1 12:-0.2 13:-0.793814 14:-1 15:-1 
32768 1:-0.793103 2:-0.996533 3:-1 4:-0.996579 5:-0.5 6:-1 7:-1 8:0.333333 9:-0.238095 10:-1 11:-1 12:-0.2 13:-0.793814 14:1 15:-1 
32768 1:-0.724138 2:-0.996533 3:-1 4:-0.996579 5:-0.5 6:-1 7:-1 8:0.333333 9:-0.238095 10:-1 11:-1 12:-0.2 13:-0.793814 14:-1 15:-1 
32768 1:-0.689655 2:-0.997524 3:-1 4:-0.996579 5:-0.5 6:-1 7:-1 8:0.333333 9:-0.238095 10:-1 11:-1 12:-0.2 13:-0.793814 14:-1 15:-1 
32768 1:-0.758621 2:-0.998019 3:-1 4:-0.996579 5:-0.5 6:-1 7:-1 8:0.333333 9:-0.238095 10:-1 11:-1 12:-0.2 13:-0.793814 14:1 15:-1 
32768 1:-0.206897 2:-0.995542 3:-1 4:-0.996579 5:-0.5 6:-1 7:-1 8:0.333333 9:-0.238095 10:-1 11:-1 12:-0.2 13:-0.71134 14:1 15:-1 
32768 1:-1 2:-0.996533 3:-0.935484 4:-0.997016 5:0.7 6:-0.8 7:-1 8:0.333333 9:-0.190476 10:-1 11:-1 12:-0.2 13:-0.443299 14:-1 15:-0.935484 
16252.4366537432 1:-0.275862 2:-0.996038 3:-0.935484 4:-0.974136 5:-0.1 6:-0.2 7:0.333333 8:-0.333333 9:-0.238095 10:-1 11:-1 12:-1 13:-1 14:-1 15:-0.935484 
32768 2:-0.992075 3:-1 4:-0.981091 5:-0.1 6:-0.6 7:0.333333 8:0.333333 9:-0.380952 10:-1 11:-1 12:-1 13:-1 14:-1 15:-1 
32768 2:-0.99158 3:-1 4:-1 5:-1 6:-1 7:-1 8:-1 9:-1 10:-0.95122 11:-1 12:-0.2 13:-0.71134 14:-1 15:-1 
32768 1:-0.793103 2:-0.992075 3:-1 4:-0.987097 5:1 6:-0.4 7:-0.333333 8:0.333333 9:-0.285714 10:-0.902439 11:-1 12:-1 13:-1 14:1 15:-1 
32768 2:-0.996533 3:-0.870968 4:-0.996579 5:0.4 6:-1 7:-0.333333 8:0.333333 9:-0.428571 10:-1 11:-1 12:-1 13:-1 14:-1 15:-0.870968 
32768 1:-0.689655 2:-0.997524 3:-1 4:-0.999582 5:-0.1 6:-0.6 7:0.333333 8:0.333333 9:-0.52381 10:-1 11:-1 12:-1 13:-1 14:-1 15:-1 
32768 1:-0.896552 2:-0.989104 3:-0.806452 4:-0.964425 5:-0.5 6:-1 7:-1 8:-0.833333 9:-0.952381 10:-1 11:-1 12:-1 13:-1 14:-1 15:-0.806452 
32768 1:-0.103448 2:-0.996038 3:-1 4:-0.998233 5:-0.6 6:-1 7:-0.333333 8:0.333333 9:-0.619048 10:-1 11:-0.142857 12:-1 13:-1 14:-1 15:-1 
32768 1:-0.862069 2:-0.999505 3:-1 4:-1 5:-0.8 6:-0.8 7:-1 8:-1 9:-1 10:-0.902439 11:-1 12:-0.8 13:-0.876289 14:-1 15:-1 
32768 1:-0.862069 2:-0.997524 3:-1 4:-0.981205 5:1 6:-1 7:-0.333333 8:-0.5 9:-0.714286 10:-0.902439 11:-0.714286 12:-0.2 13:-0.752577 14:-1 15:-1 
-32768 1:-0.724138 2:-0.920753 3:-0.806452 4:-0.975561 5:1 6:-0.6 7:-0.333333 8:0.333333 9:-0.619048 10:-1 11:-1 12:-0.6 13:-0.917526 14:-1 15:-0.806452 
-32768 1:-0.724138 2:-0.936107 3:-0.870968 4:-0.975561 5:1 6:-0.6 7:-0.333333 8:0.333333 9:-0.619048 10:-1 11:-1 12:-0.6 13:-0.917526 14:-1 15:-0.870968 
-32768 1:-0.37931 2:-0.979198 3:-1 4:-0.984436 5:0.2 6:-0.4 7:-1 8:-0.333333 9:-0.666667 10:-0.804878 11:-1 12:-1 13:-1 14:-1 15:-1 
-32768 1:-0.344828 2:-0.990094 3:-0.935484 4:-0.934703 5:1 6:-0.2 7:0.333333 8:0.333333 9:-0.47619 10:-1 11:-1 12:-1 13:-1 14:-1 15:-0.935484 
-32768 1:-0.517241 2:-0.99158 3:-0.935484 4:-0.998936 5:0.2 6:-1 7:-0.333333 8:-0.333333 9:-0.714286 10:-1 11:-0.714286 12:-0.8 13:-0.938144 14:-1 15:-0.935484 
-32768 1:-0.241379 2:-0.956909 3:-0.935484 4:-0.981395 5:1 6:-0.8 7:-1 8:-0.333333 9:-0.571429 10:-1 11:-1 12:-1 13:-1 14:-1 15:-0.935484 
-32768 1:-0.172414 2:-0.996533 3:-1 4:-0.995838 5:1 6:-0.6 7:-1 8:-1 9:-1 10:-1 11:-1 12:-1 13:-1 14:-1 15:-1 
-9142.274728668863 1:-0.827586 2:-0.996533 3:-0.935484 4:-0.987458 5:0.6 6:-0.8 7:-1 8:-0.5 9:-0.857143 10:-0.902439 11:-1 12:-0.9 13:-0.979381 14:-1 15:-0.935484 
-32768 1:-0.862069 2:-0.998019 3:-0.935484 4:-0.997644 5:-0.5 6:0.6 7:-1 8:-1 9:-1 10:-0.902439 11:-1 12:-0.8 13:-0.85567 14:-1 15:-0.935484 
-32768 1:-0.862069 2:-0.998514 3:-1 4:-0.99333 5:1 6:-0.2 7:0.333333 8:-0.666667 9:-0.904762 10:-0.95122 11:-1 12:-1 13:-1 14:-1 15:-1 
-32768 1:-0.482759 2:-0.99158 3:-1 4:-0.978393 5:1 6:-0.8 7:-1 8:-1 9:-1 10:-1 11:-1 12:-0.6 13:-0.670103 14:-1 15:-1 
-32768 1:-0.896552 2:-0.996038 3:-1 4:-0.998309 5:1 6:-0.8 7:-1 9:-0.714286 10:-1 11:-1 12:-0.4 13:-0.876289 14:-1 15:-1 
-32768 1:-0.0344828 2:-0.917781 3:-0.870968 4:-0.973224 5:-0.5 6:-0.8 7:-1 8:-0.833333 9:-0.952381 10:-0.804878 11:-1 12:-0.4 13:-0.793814 14:-1 15:-0.870968 
-32768 1:-0.0344828 2:-0.986627 3:-0.870968 4:-0.998271 5:1 6:-1 7:-1 8:-0.666667 9:-0.904762 10:-1 11:-1 12:-0.7 13:-0.938144 14:-1 15:-0.870968 
-32768 1:-0.655172 2:-0.957405 3:-1 4:-0.994109 5:0.1 6:-1 7:-1 8:-0.333333 9:-0.809524 10:-1 11:-1 12:-0.2 13:-0.670103 14:-1 15:-1 
-32768 1:-0.275862 2:-0.978207 3:-1 4:-0.991847 5:1 6:-1 7:-1 8:-0.333333 9:-0.714286 10:-1 11:-1 12:-0.6 13:-0.835052 14:-1 15:-1 
-32768 1:-0.896552 2:-0.966815 3:-1 4:-0.983353 5:1 6:-0.8 7:0.333333 8:-1 9:-1 10:-1 11:-1 12:-0.2 13:-0.835052 14:-1 15:-1 
-32768 1:-0.0344828 2:-0.991085 3:-1 4:-0.998271 5:1 6:-1 7:-1 8:-0.666667 9:-0.904762 10:-1 11:-1 12:-0.7 13:-0.938144 14:-1 15:-1 
-32768 1:-0.0689655 2:-0.992075 3:-1 4:-0.998271 5:1 6:-1 7:-1 8:-0.666667 9:-0.904762 10:-1 11:-1 12:-0.7 13:-0.938144 14:-1 15:-1 
-32768 1:-0.241379 2:-0.998019 3:-1 4:-0.995344 5:1 6:-1 7:-1 8:-0.333333 9:-0.52381 10:-0.95122 11:-1 12:-0.7 13:-0.938144 14:-1 15:-1 
-32768 2:-0.987618 3:-0.870968 4:-0.979894 5:1 6:-1 7:-1 8:-0.166667 9:-0.0952381 10:-0.902439 11:-1 12:-0.9 13:-0.938144 14:1 15:-0.870968 
-32768 1:-0.103448 2:-0.978702 3:-0.806452 4:-0.979894 5:1 6:-1 7:-1 8:-0.166667 9:-0.0952381 10:-0.853659 11:-1 12:-0.8 13:-0.690722 14:1 15:-0.806452 
-6170.493119035847 1:-0.0689655 2:-0.98316 3:-0.806452 4:-0.979894 5:1 6:-1 7:-1 8:-0.166667 9:-0.0952381 10:-0.902439 11:-1 12:-0.8 13:-0.917526 14:1 15:-0.806452 
-32768 2:-0.972263 3:-0.677419 4:-0.979894 5:1 6:-1 7:-1 8:-0.166667 9:-0.0952381 10:-0.902439 11:-1 12:-0.7 13:-0.113402 14:-1 15:-0.677419 
-32768 2:-0.986132 3:-0.935484 4:-0.960282 5:-0.1 6:-0.8 7:-1 8:0.833333 9:-0.333333 10:-0.902439 11:-1 12:-1 13:-1 14:-1 15:-0.935484 
-32768 1:-0.172414 2:-0.978702 3:-0.741935 4:-0.979894 5:1 6:-1 7:-1 8:-0.166667 9:-0.0952381 10:-0.902439 11:-1 12:-0.8 13:-0.628866 14:-1 15:-0.741935 
-32768 1:-0.862069 2:-0.996533 3:-1 4:-0.998879 5:0.9 6:-0.6 7:-1 8:-0.333333 9:-0.619048 10:-1 11:-1 12:-1 13:-1 14:-1 15:-1 
-32768 1:-0.344828 2:-0.994552 3:-0.806452 4:-0.999012 5:-0.8 6:-0.4 7:-1 8:-1 9:-1 10:-1 11:-1 12:-1 13:-1 14:-1 15:-0.806452 
-32768 1:-0.517241 2:-0.992571 3:-0.935484 4:-0.999012 5:-0.8 6:-0.4 7:-1 8:-1 9:-1 10:-1 11:-1 12:-1 13:-1 14:-1 15:-0.935484 
-32768 1:-0.517241 2:-0.993561 3:-0.935484 4:-0.999012 5:-0.8 6:-0.4 7:-1 8:-1 9:-1 10:-1 11:-1 12:-1 13:-1 14:-1 15:-0.935484 
-32768 1:-0.172414 2:-0.985636 3:-0.677419 4:-0.986355 5:0.9 6:-1 7:-1 8:-0.666667 9:-0.904762 10:-0.853659 11:-1 12:-0.7 13:-0.876289 14:-1 15:-0.677419 
-32768 1:-0.137931 2:-1 3:-1 4:-0.997149 5:-0.6 6:-1 7:-1 8:-1 9:-1 10:-0.902439 11:-1 12:-0.6 13:-0.85567 14:-1 15:-1 
-32768 1:-0.827586 2:-1 3:-1 4:-0.988484 5:-1 6:-0.6 7:-0.333333 8:0.333333 9:-0.619048 10:-0.95122 11:-1 12:-1 13:-1 14:1 15:-1 
-32768 1:-0.172414 2:-1 3:-1 4:-0.978697 5:0.1 6:-1 7:-1 8:-0.333333 9:-0.666667 10:-0.95122 11:-1 12:-1 13:-1 14:-1 15:-1 
-32768 1:-0.896552 2:-1 3:-1 4:-0.99732 5:-0.2 6:-0.4 7:-1 8:-1 9:-1 10:-0.853659 11:-1 12:-1 13:-1 14:1 15:-1 
-27146.7686242577 1:-0.862069 2:-0.999505 3:-1 4:-0.99848 5:-0.4 6:-0.6 7:-1 8:-0.333333 9:-0.571429 10:-0.902439 11:-1 12:-1 13:-1 14:1 15:-1 
-32768 2:-0.993561 3:-1 4:-0.992361 5:1 6:-1 7:1 8:0.166667 9:-0.285714 10:-1 11:0.142857 12:-0.3 13:-0.85567 14:1 15:-1 
-31823.91938157598 1:-0.310345 2:-0.861813 3:-1 4:-0.730775 5:1 6:-0.6 7:-1 8:-1 9:-1 10:-0.95122 11:-1 12:-1 13:-1 14:-1 15:-1 
-24611.57384588477 1:-0.655172 2:-0.992571 3:-0.806452 4:-0.998613 5:-0.7 6:-1 7:-0.333333 8:1 9:-0.238095 10:-1 11:-1 12:-0.9 13:-0.958763 14:-1 15:-0.806452 
-32768 1:-0.862069 2:-0.998019 3:-1 4:-0.998613 5:-0.7 6:-1 7:-0.333333 8:1 9:-0.238095 10:-1 11:-1 12:-0.9 13:-0.958763 14:-1 15:-1 
-32768 1:-0.482759 2:-0.994552 3:-1 4:-0.999392 5:-0.4 6:-0.8 7:-1 8:-0.666667 9:-0.904762 10:-1 11:-1 12:-0.6 13:-0.876289 14:-1 15:-1 
-32768 1:-0.0689655 2:-0.967806 3:-0.870968 4:-0.989396 5:1 6:-1 7:-1 8:-1 9:-1 10:-1 11:-1 12:-0.2 13:-0.835052 14:-1 15:-0.870968 
-32768 1:-0.965517 2:-1 3:-1 4:-0.998062 5:-0.2 6:-0.8 7:-1 8:-1 9:-1 10:-0.756098 11:-1 12:-0.2 13:-0.793814 14:-1 15:-1 
-32768 1:-0.965517 2:-0.985636 3:-1 4:-0.989814 5:1 6:-1 7:-1 8:-1 9:-1 10:-0.853659 11:-1 12:-0.2 13:-0.835052 14:-1 15:-1 
-32768 1:-0.586207 2:-0.989599 3:-1 4:-0.989776 5:0.2 6:-1 7:-1 8:-0.5 9:-0.666667 10:-0.804878 11:-0.714286 12:-0.8 13:-0.958763 14:-1 15:-1 
-32768 1:-0.413793 2:-0.991085 3:-0.741935 4:-0.987724 5:0.7 6:-1 7:-1 8:-1 9:-1 10:-0.756098 11:-1 12:-0.6 13:-0.587629 14:-1 15:-0.741935 
-32768 1:-0.862069 2:-0.982169 3:-1 4:-0.997701 5:-0.8 6:-1 7:-1 8:-0.333333 9:-0.619048 10:-0.853659 11:-1 12:-0.2 13:-0.814433 14:-1 15:-1 
-32768 1:-0.413793 2:-0.995047 3:-1 4:-0.999563 5:-0.7 6:-0.6 7:-1 8:-1 9:-1 10:-0.756098 11:-1 12:-0.4 13:-0.628866 14:-1 15:-1 
-32768 2:-0.989104 3:-1 4:-0.989985 5:1 6:-1 7:-1 8:-1 9:-1 10:-1 11:-1 12:-0.6 13:-0.917526 14:-1 15:-1 
-32768 1:-0.689655 2:-0.999505 3:-1 4:-0.999525 5:-0.5 6:-1 7:-1 8:-0.333333 9:-0.238095 10:-1 11:-1 12:-0.2 13:-0.835052 14:-1 15:-1 
-32768 1:-0.448276 2:-0.995542 3:-1 4:-0.996142 5:0.2 6:-1 7:0.333333 8:0.333333 9:-0.619048 10:-1 11:-1 12:-0.8 13:-0.958763 14:-1 15:-1 
-32768 1:1 2:-0.9158 3:-0.806452 4:-0.914978 5:1 6:-1 7:-1 8:-1 9:-1 10:-1 11:-1 12:-0.3 13:-0.71134 14:-1 15:-0.806452 
-32768 1:-0.172414 2:-0.992075 3:-0.935484 4:-0.973053 5:1 6:-0.8 7:-0.333333 8:0.333333 9:-0.619048 10:-0.902439 11:-0.714286 12:-0.7 13:0.298969 14:1 15:-0.935484 
-32768 1:-0.551724 2:-0.998019 3:-1 4:-0.999297 5:1 6:-0.8 7:-1 8:-1 9:-1 10:-0.853659 11:-1 12:-1 13:-1 14:-1 15:-1 
-9318.884297955559 1:-0.137931 2:-0.990589 3:-1 4:-0.988769 6:-1 7:-1 8:-0.666667 9:-0.809524 10:-1 11:-1 12:-0.7 13:-0.773196 14:-1 15:-1 
-32768 1:-0.689655 2:-0.994552 3:-1 4:-0.997796 5:0.5 6:-1 7:-1 8:-1 9:-1 10:-1 11:-1 12:-0.2 13:-0.835052 14:-1 15:-1 
-32768 1:-0.172414 2:-0.992571 3:-0.935484 4:-0.973053 5:1 6:-0.8 7:-0.333333 8:0.333333 9:-0.619048 10:-0.902439 11:-1 12:-0.8 13:-0.938144 14:1 15:-0.935484 
-24043.45814115647 1:-0.862069 2:-0.940565 3:-0.935484 4:-0.990023 5:1 6:-0.8 7:-1 8:-0.666667 9:-0.904762 10:-1 11:-1 12:-0.4 13:-0.876289 14:-1 15:-0.935484 
-32768 1:-0.655172 2:-0.995047 3:-1 4:-0.996142 5:1 6:-0.8 7:-1 8:-1 9:-1 10:-1 11:-1 12:-0.3 13:-0.85567 14:1 15:-1 
-32768 1:-0.931034 2:-0.998514 3:-1 4:-0.997948 5:1 6:-0.4 7:-1 8:-0.666667 9:-0.857143 10:-0.95122 11:-1 12:-1 13:-1 14:-1 15:-1 
-32768 1:-0.206897 2:-0.993066 3:-1 4:-0.997358 5:1 6:-0.6 7:-1 8:-0.833333 9:-0.857143 10:-1 11:-1 12:-1 13:-1 14:-1 15:-1 
-32768 1:-0.241379 2:-0.99158 3:-0.870968 4:-0.997339 5:-0.5 6:-1 7:-1 8:-1 9:-1 10:-0.756098 11:-1 12:-0.2 13:-0.628866 14:1 15:-0.870968 
-32768 1:-0.965517 2:-0.996533 3:-1 4:-0.993311 5:-0.4 6:-0.2 7:-0.333333 8:-0.5 9:-0.571429 10:-1 11:-1 12:-1 13:-1 14:1 15:-1 
-32768 2:-0.993066 3:-0.935484 4:-0.995591 5:0.5 6:-0.8 7:-1 8:-0.333333 9:-0.333333 10:-1 11:-1 12:-0.6 13:-0.85567 14:-1 15:-0.935484 
-32768 1:-0.103448 2:-0.97474 3:-0.935484 4:-0.934932 5:1 6:-1 7:-1 8:0.333333 9:-0.380952 10:-1 11:-1 12:-1 13:-1 14:-1 15:-0.935484 
-32768 1:-0.482759 2:-0.994056 3:-1 4:-0.996864 5:-0.1 6:-1 7:-1 8:-1 9:-1 10:-1 11:-1 12:-0.2 13:-0.835052 14:-1 15:-1 
-23513.74573939615 1:-0.0689655 2:-0.972263 3:-0.741935 4:-0.992399 5:-0.3 6:-1 7:-1 8:0.333333 9:0.809524 10:-1 11:-1 12:-0.8 13:-0.938144 14:-1 15:-0.741935 
-32768 1:-0.206897 2:-0.990094 3:-1 4:-0.984683 5:-1 6:-0.4 7:-0.333333 8:-0.5 9:-0.857143 10:-0.902439 11:-1 12:-0.9 13:-0.979381 14:-1 15:-1 
-32768 2:-0.985636 3:-1 4:-0.99333 5:-0.3 6:-1 7:-1 8:-0.833333 9:-0.761905 10:-0.853659 11:-1 12:-1 13:-1 14:-1 15:-1 
-32768 1:-0.0344828 2:-0.991085 3:-1 4:-0.983714 5:0.9 6:-1 7:-1 8:-1 9:-1 10:-0.95122 11:-1 12:-0.7 13:-0.938144 14:-1 15:-1 
-32768 1:-0.448276 2:-0.999505 3:-1 4:-0.999943 6:-1 7:-1 8:0.666667 9:-0.52381 10:-1 11:-1 12:-0.8 13:-0.938144 14:1 15:-1 
-32768 1:-0.62069 2:-0.997524 3:-0.870968 4:-0.99867 5:1 6:-1 7:-1 8:-0.333333 9:-0.619048 10:-1 11:-0.714286 12:-0.6 13:-0.793814 14:-1 15:-0.870968 
-32768 1:-0.0689655 2:-0.991085 3:-1 4:-0.988408 5:0.7 6:-1 7:-1 8:-0.333333 9:-0.238095 10:-0.95122 11:-1 12:-1 13:-1 14:-1 15:-1 
-32768 1:-0.37931 2:-0.994056 3:-1 4:-0.9855 5:1 6:-0.8 7:-1 8:-0.333333 9:-0.571429 10:-0.95122 11:-1 12:-1 13:-1 14:-1 15:-1 
-32768 1:-0.965517 2:-0.993561 3:-1 4:-0.948291 5:1 6:-0.4 7:-0.333333 8:0.833333 9:-0.47619 10:-1 11:-1 12:-1 13:-1 14:1 15:-1 
-32768 1:-0.310345 2:-0.996533 3:-1 4:-0.997454 5:-0.4 6:-0.4 7:-1 8:0.333333 9:-0.52381 10:-1 11:-0.714286 12:-1 13:-1 14:-1 15:-1 
-32768 1:-0.275862 2:-0.940565 3:-0.612903 4:-0.912298 5:-0.2 6:-0.4 7:0.333333 8:0.333333 9:-0.619048 10:-1 11:-1 12:-0.9 13:-0.958763 14:-1 15:-0.612903 
-32768 1:-0.551724 2:-0.998019 3:-1 4:-0.996161 5:0.8 6:-0.6 7:0.333333 8:-0.833333 9:-0.952381 10:-1 11:-1 12:-1 13:-1 14:-1 15:-1 
