svm_type c_svc
kernel_type rbf
gamma 0.00195312
nr_class 2
total_sv 163
rho 14.4305
label 1 -1
nr_sv 81 82
SV
8192 1:-0.103448 2:-0.998019 3:-0.870968 4:-0.998482 5:-0.6 6:-1 7:-1 8:-0.333333 9:-1 10:-1 11:-0.8 
8192 1:-0.586207 2:-0.99158 3:-0.419355 4:-0.994375 5:-0.1 6:-1 7:-1 8:-1 9:-1 10:-1 11:-1 
3400.234463681234 2:-0.999505 3:-0.935484 4:-0.924944 5:1 6:-0.777778 7:-0.333333 8:0.333333 9:-1 10:-1 11:-0.8 
8192 1:-0.344828 2:-0.999505 3:-1 4:-0.998462 5:-1 6:-0.555556 7:0.333333 8:-1 9:-1 10:-1 11:-0.8 
8192 1:-0.62069 2:-1 3:-0.935484 4:-0.999494 5:-1 6:-1 7:-1 8:0.333333 9:-1 10:-1 11:-0.2 
8192 1:-0.655172 2:-1 3:-1 4:-0.999844 5:-1 6:-0.333333 7:-1 8:-0.666667 9:-0.941176 10:-1 11:-0.8 
8192 1:-0.724138 2:-0.98316 3:-0.612903 4:-0.973878 5:1 6:-0.111111 7:-1 8:-0.666667 9:-1 10:-1 11:-0.8 
8192 1:-0.310345 2:-0.995047 3:-1 4:-0.994258 5:-1 6:-1 7:-0.333333 8:-1 9:-1 10:-1 11:-1 
8192 1:-0.0344828 2:-0.999505 3:-0.870968 4:-0.998579 5:-1 6:-0.777778 7:-1 9:-1 10:-1 11:-0.8 
8192 2:-0.999009 3:-1 4:-0.998735 5:-0.4 6:-1 7:-1 8:-1 9:-0.705882 10:-1 11:-0.9 
8192 1:-0.137931 2:-0.998514 3:-0.935484 4:-0.967689 5:-0.6 6:-1 7:-1 8:-0.666667 9:-1 10:-0.714286 11:-0.5 
8192 1:-0.206897 2:-0.998019 3:-0.935484 4:-0.967689 5:-0.6 6:-1 7:-1 8:-0.666667 9:-1 10:-1 11:-0.8 
8192 1:-0.206897 2:-0.999009 3:-0.935484 4:-0.967689 5:-0.6 6:-1 7:-1 8:-0.666667 9:-1 10:-1 11:-0.7 
8192 1:-0.206897 2:-1 3:-0.935484 4:-0.967689 5:-0.6 6:-1 7:-1 8:-0.666667 9:-1 10:-1 11:-0.8 
8192 1:-0.206897 2:-0.999009 3:-0.935484 4:-0.967689 5:-0.6 6:-1 7:-1 8:-0.666667 9:-1 10:-1 11:-0.8 
8192 1:-0.206897 2:-0.998019 3:-0.935484 4:-0.967689 5:-0.6 6:-1 7:-1 8:-0.666667 9:-1 10:-1 11:-0.8 
8192 1:-0.62069 2:-1 3:-1 4:-0.998482 5:-1 6:-1 7:-1 8:-0.5 9:-1 10:-1 11:-1 
8192 1:-0.517241 2:-0.997028 3:-0.870968 4:-1 5:-1 6:-1 7:-1 8:-1 9:-0.588235 10:-1 11:-1 
5737.673480403269 1:-0.310345 2:-0.999505 3:-1 4:-0.986083 5:0.7 6:-1 7:-1 9:-1 10:-1 11:-0.4 
8192 1:-0.724138 2:-0.995047 3:-0.935484 4:-0.981509 5:-0.2 6:-0.111111 7:-1 8:-0.333333 9:-1 10:-1 11:-0.9 
8192 1:-0.310345 2:-0.997028 3:-1 4:-0.986083 5:0.7 6:-1 7:-1 9:-1 10:-1 11:-0.4 
8192 1:-0.310345 2:-0.998019 3:-1 4:-0.986083 5:0.7 6:-1 7:-1 9:-1 10:-1 11:-0.4 
8192 1:-0.310345 2:-0.999009 3:-1 4:-0.986083 5:0.7 6:-1 7:-1 9:-1 10:-1 11:-0.4 
8192 1:-0.310345 2:-0.999009 3:-1 4:-0.986083 5:0.7 6:-1 7:-1 9:-1 10:-1 11:-0.4 
168.1437735809214 1:-0.310345 2:-0.999505 3:-1 4:-0.986083 5:0.7 6:-1 7:-1 9:-1 10:-1 11:-0.4 
8192 1:-0.310345 2:-0.999009 3:-1 4:-0.986083 5:0.7 6:-1 7:-1 9:-1 10:-1 11:-0.4 
3262.84534499878 1:-0.310345 2:-0.999505 3:-1 4:-0.986083 5:0.7 6:-1 7:-1 9:-1 10:-1 11:-0.4 
8192 1:-0.827586 2:-0.973749 3:-0.741935 4:-0.994375 5:-1 6:-1 7:-1 8:-1 9:-1 10:-1 11:-1 
8192 1:-0.827586 2:-0.998514 3:-1 4:-0.995601 5:-0.6 6:-1 7:-1 8:-1 9:-1 10:-1 11:-0.4 
8192 2:-0.992571 3:-0.870968 4:-0.993946 5:-0.4 6:-0.777778 7:-0.333333 8:-0.666667 9:-1 10:-1 11:-1 
8192 1:-0.137931 2:-0.990094 3:-0.935484 4:-0.948185 5:-0.7 6:-0.333333 7:-0.333333 8:-0.666667 9:-1 10:-1 11:-0.8 
8192 1:-0.172414 2:-0.986627 3:-0.806452 4:-0.948185 5:-0.7 6:-0.333333 7:-0.333333 8:-0.666667 9:-1 10:-1 11:-0.8 
8192 1:-0.793103 2:-0.960376 3:-1 4:-0.96399 5:0.3 6:-1 7:-0.333333 8:0.333333 9:-0.705882 10:-1 11:-0.8 
8192 1:-0.793103 2:-0.965825 3:-1 4:-0.96399 5:0.3 6:-1 7:-0.333333 8:0.333333 9:-0.705882 10:-1 11:-0.8 
8192 1:-0.793103 2:-0.970778 3:-1 4:-0.96399 5:0.3 6:-1 7:-0.333333 8:0.333333 9:-0.705882 10:-1 11:-0.8 
8192 1:-0.793103 2:-0.96632 3:-1 4:-0.96399 5:0.3 6:-1 7:-0.333333 8:0.333333 9:-0.705882 10:-1 11:-0.8 
8192 1:-0.793103 2:-0.965329 3:-1 4:-0.96399 5:0.3 6:-1 7:-0.333333 8:0.333333 9:-0.705882 10:-1 11:-0.8 
8192 1:-0.793103 2:-0.967806 3:-1 4:-0.96399 5:0.3 6:-1 7:-0.333333 8:0.333333 9:-0.705882 10:-1 11:-0.8 
8192 1:-0.344828 2:-0.995047 3:-1 4:-0.987387 5:-1 6:-0.777778 7:-1 8:-0.666667 9:-1 10:-1 11:-0.2 
1403.682919283907 1:-0.103448 2:-0.994552 3:-1 4:-0.996847 5:1 6:-0.333333 7:-1 8:-1 9:-0.882353 10:-1 11:-1 
8192 2:-0.993561 3:-1 4:-0.97635 5:0.4 6:-1 7:-1 8:0.333333 9:-0.941176 10:-1 11:-0.6 
8192 1:-0.517241 2:-0.995542 3:-1 4:-0.942676 5:-1 6:-0.777778 7:-1 8:-0.833333 9:-1 10:-1 11:-0.7 
8192 2:-0.998019 3:-0.935484 4:-0.988029 5:-1 6:-0.777778 7:-0.333333 8:0.833333 9:-1 10:-1 11:-0.8 
8192 1:-0.241379 2:-0.979693 3:-0.419355 4:-0.992934 5:0.2 6:-1 7:-1 8:-1 9:-0.882353 10:-1 11:-0.2 
8192 1:-0.0344828 2:-0.999505 3:-0.935484 4:-0.997178 5:-0.1 6:-0.777778 7:-1 8:-1 9:-1 10:-1 11:-0.8 
8192 1:-0.37931 2:-0.999505 3:-1 4:-0.992584 5:1 6:-0.555556 7:-1 8:-1 9:-0.882353 10:-1 11:-0.7 
8192 1:-0.37931 2:-0.998514 3:-1 4:-0.992584 5:1 6:-0.555556 7:-1 8:-1 9:-0.941176 10:-1 11:-0.7 
8192 1:-0.655172 2:-0.998514 3:-1 4:-0.999085 5:-0.9 6:-0.333333 7:-1 8:-0.666667 9:-0.823529 10:-1 11:-0.8 
8192 1:-0.37931 2:-0.999009 3:-1 4:-0.992584 5:1 6:-0.555556 7:-1 8:-1 9:-0.882353 10:-1 11:-0.7 
8192 1:-0.37931 2:-0.997524 3:-1 4:-0.992584 5:1 6:-0.555556 7:-1 8:-1 9:-0.882353 10:-1 11:-0.7 
8192 2:-0.998514 3:-0.806452 4:-0.986998 5:-0.8 6:-0.333333 7:-0.333333 8:-0.833333 9:-1 10:-1 11:-1 
8192 1:-0.931034 2:-0.998514 3:-1 4:-0.998326 5:-1 6:-0.777778 7:-1 8:-1 9:-0.941176 10:-1 11:-0.2 
5065.873461571843 1:-0.0344828 2:-0.995542 3:-1 4:-0.997878 5:-0.6 6:-0.777778 7:0.333333 8:0.833333 9:-1 10:-0.714286 11:-0.9 
8192 1:-0.793103 2:-0.996038 3:-0.677419 4:-0.99237 5:-0.1 6:-0.777778 7:-1 8:-1 9:-1 10:-1 11:-1 
8192 1:-0.0689655 2:-1 3:-1 4:-0.987445 5:-0.8 6:-0.777778 7:-1 8:-1 9:-0.882353 10:-0.714286 11:-0.9 
8192 1:-0.793103 2:-0.999505 3:-1 4:-0.998482 5:-0.6 6:-0.111111 7:-1 8:0.333333 9:-1 10:-1 11:-1 
8192 1:-0.862069 2:-0.968301 3:-1 4:-0.938063 5:1 6:-1 7:-1 8:0.333333 9:-0.941176 10:-1 11:-0.8 
8192 1:-0.827586 2:-0.977712 3:-1 4:-0.938063 5:1 6:-1 7:-1 8:0.333333 9:-0.941176 10:-1 11:-0.8 
8192 1:-0.586207 2:-0.998514 3:-1 4:-0.999397 5:-1 6:-1 7:-1 8:-0.5 9:-0.882353 10:-0.714286 11:-0.6 
8192 1:-0.586207 2:-0.999009 3:-1 4:-0.999397 5:-1 6:-1 7:-1 8:-0.5 9:-0.882353 10:-0.714286 11:-0.6 
8192 1:-0.586207 2:-0.998514 3:-1 4:-0.999397 5:-1 6:-1 7:-1 8:-0.5 9:-0.882353 10:-0.714286 11:-0.6 
8192 1:-0.586207 2:-0.998019 3:-1 4:-0.999397 5:-1 6:-1 7:-1 8:-0.5 9:-0.882353 10:-0.714286 11:-0.6 
8192 1:-0.586207 2:-0.999009 3:-1 4:-0.999397 5:-1 6:-1 7:-1 8:-0.5 9:-0.882353 10:-0.714286 11:-0.6 
8192 1:-0.586207 2:-0.998019 3:-1 4:-0.999397 5:-1 6:-1 7:-1 8:-0.5 9:-0.882353 10:-0.714286 11:-0.6 
8192 1:-0.586207 2:-0.999505 3:-1 4:-0.999397 5:-1 6:-1 7:-1 8:-0.5 9:-0.882353 10:-0.714286 11:-0.6 
8192 1:-0.586207 2:-0.999505 3:-1 4:-0.999397 5:-1 6:-1 7:-1 8:-0.5 9:-0.882353 10:-0.714286 11:-0.6 
8192 1:-0.758621 2:-1 3:-1 4:-0.999922 5:-1 6:-0.777778 7:-1 8:-1 9:-1 10:-1 11:-0.7 
8192 1:-0.793103 2:-0.996533 3:-1 4:-0.996769 5:-0.9 6:-1 7:-1 8:0.333333 9:-1 10:-1 11:-0.2 
8192 1:-0.724138 2:-0.996533 3:-1 4:-0.996769 5:-0.9 6:-1 7:-1 8:0.333333 9:-1 10:-1 11:-0.2 
8192 1:-0.793103 2:-0.996533 3:-1 4:-0.996769 5:-0.9 6:-1 7:-1 8:0.333333 9:-1 10:-1 11:-0.2 
8192 1:-0.724138 2:-0.996533 3:-1 4:-0.996769 5:-0.9 6:-1 7:-1 8:0.333333 9:-1 10:-1 11:-0.2 
3240.530262550019 1:-0.689655 2:-0.997524 3:-1 4:-0.996769 5:-0.9 6:-1 7:-1 8:0.333333 9:-1 10:-1 11:-0.2 
8192 1:-0.758621 2:-0.998019 3:-1 4:-0.996769 5:-0.9 6:-1 7:-1 8:0.333333 9:-1 10:-1 11:-0.2 
8192 2:-0.998514 3:-0.935484 4:-0.990482 5:-0.5 6:-0.555556 7:-1 8:-0.333333 9:-0.882353 10:-1 11:-0.9 
8192 1:-0.275862 2:-0.996038 3:-0.935484 4:-0.973645 5:-0.7 6:-0.555556 7:0.333333 8:-0.333333 9:-1 10:-1 11:-1 
8192 2:-0.992075 3:-1 4:-0.980672 5:-0.6 6:-0.555556 7:0.333333 8:0.333333 9:-1 10:-1 11:-1 
8192 1:-0.793103 2:-0.992075 3:-1 4:-0.98727 5:-0.8 6:-0.333333 7:-0.333333 8:0.333333 9:-0.882353 10:-1 11:-1 
8192 2:-0.996533 3:-0.870968 4:-0.996496 5:-0.7 6:-1 7:-0.333333 8:0.333333 9:-1 10:-1 11:-1 
8192 1:-0.689655 2:-0.997524 3:-1 4:-0.999611 5:-0.9 6:-0.555556 7:0.333333 8:0.333333 9:-1 10:-1 11:-1 
8192 1:-0.896552 2:-0.989104 3:-0.806452 4:-0.96364 5:-0.9 6:-1 7:-1 8:-0.833333 9:-1 10:-1 11:-1 
8192 1:-0.862069 2:-0.999505 3:-1 4:-1 5:-1 6:-1 7:-1 8:-1 9:-0.882353 10:-1 11:-0.8 
-8192 1:-0.896552 2:-0.994056 3:-1 4:-0.997878 5:0.4 6:-0.555556 7:-1 8:-0.333333 9:-1 10:-1 11:-0.9 
-8192 1:-0.724138 2:-0.920753 3:-0.806452 4:-0.975416 5:0.8 6:-0.555556 7:-0.333333 8:0.333333 9:-1 10:-1 11:-0.6 
-8192 1:-0.724138 2:-0.936107 3:-0.870968 4:-0.975416 5:0.8 6:-0.555556 7:-0.333333 8:0.333333 9:-1 10:-1 11:-0.6 
-8192 1:-0.37931 2:-0.979198 3:-1 4:-0.984895 5:-0.1 6:-0.333333 7:-1 8:-0.333333 9:-0.764706 10:-1 11:-1 
-8192 1:-0.344828 2:-0.990094 3:-0.935484 4:-0.933002 5:-0.6 6:-0.333333 7:0.333333 8:0.333333 9:-1 10:-1 11:-1 
-8192 1:-0.517241 2:-0.99158 3:-0.935484 4:-0.99891 5:-0.7 6:-1 7:-0.333333 8:-0.666667 9:-1 10:-0.714286 11:-0.8 
-8192 1:-0.241379 2:-0.956909 3:-0.935484 4:-0.982968 6:-0.333333 7:-1 8:-0.333333 9:-1 10:-1 11:-1 
-2470.810626799212 1:-0.758621 2:-1 3:-1 4:-0.999319 5:-0.8 6:-1 7:-1 8:-0.333333 9:-1 10:-1 11:-0.6 
-8192 1:-0.862069 2:-0.998019 3:-0.935484 4:-0.997645 5:-0.9 6:0.111111 7:-1 8:-1 9:-0.882353 10:-1 11:-0.8 
-8192 1:-0.862069 2:-0.998514 3:-1 4:-0.993382 5:-0.6 6:-0.555556 7:0.333333 8:-0.666667 9:-0.941176 10:-1 11:-1 
-8192 1:-0.482759 2:-0.99158 3:-1 4:-0.978881 5:-0.4 6:-0.777778 7:-1 8:-1 9:-1 10:-1 11:-0.6 
-8192 1:-0.896552 2:-0.993561 3:-1 4:-0.999124 5:-0.9 6:-1 7:-1 8:-0.666667 9:-1 10:-1 11:-0.2 
-8192 1:-0.896552 2:-0.996038 3:-1 4:-0.998287 5:-0.3 6:-0.777778 7:-1 9:-1 10:-1 11:-0.4 
-8192 1:-0.0344828 2:-0.917781 3:-0.870968 4:-0.973158 5:-0.9 6:-0.777778 7:-1 8:-0.833333 9:-0.823529 10:-1 11:-0.4 
-8192 1:-0.655172 2:-0.957405 3:-1 4:-0.994005 5:-0.6 6:-1 7:-1 8:-0.333333 9:-1 10:-1 11:-0.2 
-8192 1:-0.275862 2:-0.978207 3:-1 4:-0.991747 5:-0.6 6:-1 7:-1 8:-0.333333 9:-1 10:-1 11:-0.6 
-8192 1:-0.241379 2:-0.998019 3:-1 4:-0.995309 5:0.4 6:-1 7:-1 8:-0.333333 9:-0.941176 10:-1 11:-0.7 
-5742.128582544943 1:-0.448276 2:-0.998514 3:-0.935484 4:-0.996691 5:-0.4 6:-1 7:-1 8:-0.833333 9:-1 10:-0.428571 11:-1 
-8192 2:-0.997028 3:-0.935484 4:-0.980613 5:-0.8 6:-1 7:-0.333333 8:-0.166667 9:-1 10:-1 11:-1 
-8192 1:-0.0689655 2:-0.997524 3:-1 4:-0.998929 5:1 6:-1 7:-1 8:-1 9:-0.941176 10:-1 11:-0.8 
-8192 2:-0.987618 3:-0.870968 4:-0.979523 5:-0.4 6:-1 7:-1 8:-0.166667 9:-0.882353 10:-1 11:-0.9 
-8192 1:-0.103448 2:-0.978702 3:-0.806452 4:-0.979523 5:-0.4 6:-1 7:-1 8:-0.166667 9:-0.823529 10:-1 11:-0.8 
-8192 1:-0.0689655 2:-0.98316 3:-0.806452 4:-0.979523 5:-0.4 6:-1 7:-1 8:-0.166667 9:-0.882353 10:-1 11:-0.8 
-7242.76865314936 2:-0.972263 3:-0.677419 4:-0.979523 5:-0.4 6:-1 7:-1 8:-0.166667 9:-0.882353 10:-1 11:-0.7 
-8192 1:-0.172414 2:-0.979693 3:-0.870968 4:-0.979523 5:-0.4 6:-1 7:-1 8:-0.166667 9:-1 10:-1 11:-0.6 
-8192 2:-0.986132 3:-0.935484 4:-0.990871 5:-0.9 6:-1 7:-1 8:0.833333 9:-0.941176 10:-1 11:-1 
-8192 1:-0.965517 2:-0.979198 3:-0.677419 4:-0.99636 5:0.5 6:-0.777778 7:-1 8:0.333333 9:-1 10:-1 11:-0.3 
-8192 1:-0.862069 2:-0.996533 3:-1 4:-0.998949 5:0.1 6:-0.555556 7:-1 8:-0.333333 9:-1 10:-1 11:-1 
-8192 1:-0.137931 2:-1 3:-1 4:-0.9971 5:-0.9 6:-1 7:-1 8:-1 9:-0.882353 10:-1 11:-0.6 
-8192 1:-0.827586 2:-1 3:-1 4:-0.988127 5:-1 6:-0.777778 7:-0.333333 8:0.333333 9:-0.941176 10:-1 11:-1 
-8192 1:-0.655172 2:-0.996533 3:-1 4:-0.862092 5:0.5 6:-0.777778 7:-1 8:-1 9:-0.941176 10:-1 11:-0.8 
-8192 1:-0.896552 2:-1 3:-1 4:-0.997275 5:-0.9 6:-0.333333 7:-1 8:-1 9:-0.823529 10:-1 11:-1 
-8192 1:-0.862069 2:-0.999505 3:-1 4:-0.998423 5:-1 6:-0.555556 7:-1 8:-0.333333 9:-0.882353 10:-1 11:-1 
-8192 1:-0.310345 2:-0.997028 3:-1 4:-0.9971 5:-0.9 6:-1 7:-1 8:-1 9:-0.941176 10:-1 11:-0.6 
-8192 1:-0.896552 2:-0.999505 3:-1 4:-0.998423 5:-1 6:-0.555556 7:-1 8:-0.333333 9:-0.882353 10:-1 11:-1 
-8192 2:-0.994552 3:-1 4:-0.996049 5:-1 6:-1 7:-1 8:-0.666667 9:-0.941176 10:-1 11:-0.9 
-8192 1:-0.37931 2:-0.998514 3:-0.935484 4:-0.997586 5:-0.7 6:-1 7:-1 8:-0.5 9:-0.941176 10:-1 11:-0.7 
-8192 2:-0.993561 3:-1 4:-0.992273 5:0.2 6:-1 7:1 8:0.166667 9:-1 10:0.142857 11:-0.3 
-8192 1:-0.862069 2:-0.998019 3:-1 4:-0.998676 5:-0.9 6:-1 7:-0.333333 8:1 9:-1 10:-1 11:-0.9 
-8192 1:-0.482759 2:-0.994552 3:-1 4:-0.999397 5:-0.9 6:-0.777778 7:-1 8:-0.666667 9:-1 10:-1 11:-0.6 
-8192 1:-0.689655 2:-0.986132 3:-1 4:-0.988964 5:-0.8 6:-0.777778 7:-0.333333 8:0.333333 9:-1 10:-1 11:-1 
-4980.446338389679 1:-0.0689655 2:-0.967806 3:-0.870968 4:-0.989489 5:-0.3 6:-1 7:-1 8:-1 9:-1 10:-1 11:-0.2 
-8192 1:-0.965517 2:-1 3:-1 4:-0.998015 5:-0.9 6:-0.777778 7:-1 8:-1 9:-0.705882 10:-1 11:-0.2 
-8192 1:-0.965517 2:-0.985636 3:-1 4:-0.989723 5:-0.3 6:-1 7:-1 8:-1 9:-0.823529 10:-1 11:-0.2 
-8192 1:-0.758621 2:-0.995542 3:-0.741935 4:-0.996808 5:-0.9 6:-1 7:-1 8:0.333333 9:-0.764706 10:-1 11:-0.9 
-8192 1:-0.586207 2:-0.989599 3:-1 4:-0.989606 5:-0.9 6:-1 7:-1 8:-0.5 9:-0.823529 10:-0.714286 11:-0.8 
-8192 1:-0.931034 2:-0.980188 3:-0.612903 4:-0.996341 5:-0.9 6:-0.777778 7:-1 8:-0.666667 9:-0.882353 10:-1 11:-0.2 
-6950.715410465313 1:-0.413793 2:-0.991085 3:-0.741935 4:-0.987484 5:-0.3 6:-1 7:-1 8:-1 9:-0.764706 10:-1 11:-0.6 
-8192 1:-0.862069 2:-0.995047 3:-1 4:-0.998307 5:-1 6:-1 7:-1 8:-0.333333 9:-0.882353 10:-1 11:-0.6 
-6952.847165775763 1:-0.862069 2:-0.993561 3:-0.870968 4:-0.998871 5:-0.9 6:-1 7:-1 8:0.166667 9:-0.764706 10:-1 11:-1 
-8192 1:-0.862069 2:-0.982169 3:-1 4:-0.997684 5:-1 6:-1 7:-1 8:-0.333333 9:-0.823529 10:-1 11:-0.2 
-8192 1:-0.413793 2:-0.995047 3:-1 4:-0.999572 5:-0.9 6:-0.555556 7:-1 8:-1 9:-0.705882 10:-1 11:-0.4 
-7866.132784048966 2:-0.989104 3:-1 4:-1 5:-1 6:-1 7:-1 8:-1 9:-1 10:-1 11:-0.6 
-8192 1:-0.689655 2:-0.999505 3:-1 4:-0.999513 5:-0.8 6:-1 7:-1 8:-0.333333 9:-1 10:-1 11:-0.2 
-8192 1:-0.448276 2:-0.995542 3:-1 4:-0.996243 5:-0.7 6:-1 7:0.333333 8:0.333333 9:-1 10:-1 11:-0.8 
-1000.338541522954 1:1 2:-0.9158 3:-0.806452 4:-0.921246 5:0.5 6:-1 7:-1 8:-1 9:-1 10:-1 11:-0.3 
-8192 1:-0.172414 2:-0.992075 3:-0.935484 4:-0.976039 5:1 6:-1 7:-0.333333 8:0.333333 9:-0.941176 10:-0.714286 11:-0.7 
-7886.978636544431 1:-0.689655 2:-0.994552 3:-1 4:-0.997878 5:-0.7 6:-1 7:-1 8:-1 9:-1 10:-1 11:-0.2 
-8192 1:-0.172414 2:-0.992571 3:-0.935484 4:-0.976039 5:1 6:-1 7:-0.333333 8:0.333333 9:-0.941176 10:-1 11:-0.8 
-8192 1:-0.655172 2:-0.995047 3:-1 4:-0.996185 5:-0.3 6:-0.777778 7:-1 8:-1 9:-1 10:-1 11:-0.3 
-8192 1:-0.172414 2:-0.983655 3:-1 4:-0.997664 5:-0.9 6:-1 7:-1 8:-0.333333 9:-1 10:-1 11:-0.6 
-8192 1:-0.241379 2:-0.99158 3:-0.870968 4:-0.997333 5:-0.8 6:-1 7:-1 8:-1 9:-0.705882 10:-1 11:-0.2 
-39.04524880852043 1:-0.965517 2:-0.996533 3:-1 4:-0.99309 5:-0.8 6:-0.555556 7:-0.333333 8:-0.5 9:-1 10:-1 11:-1 
-8192 2:-0.993066 3:-0.935484 4:-0.995484 5:-0.6 6:-1 7:-1 8:-0.333333 9:-1 10:-1 11:-0.6 
-8192 1:-0.103448 2:-0.97474 3:-0.935484 4:-0.936019 5:0.8 6:-1 7:-1 8:0.333333 9:-1 10:-1 11:-1 
-8192 1:-0.103448 2:-0.976226 3:-0.935484 4:-0.936019 5:0.8 6:-1 7:-1 8:0.333333 9:-1 10:-1 11:-1 
-8192 1:-0.103448 2:-0.970778 3:-0.935484 4:-0.936019 5:0.8 6:-1 7:-1 8:0.333333 9:-1 10:-1 11:-1 
-8192 1:-0.482759 2:-0.994056 3:-1 4:-0.996808 5:-0.7 6:-1 7:-1 8:-1 9:-1 10:-1 11:-0.2 
-8192 1:-0.206897 2:-0.990094 3:-1 4:-0.984311 5:-1 6:-0.333333 7:-0.333333 8:-0.5 9:-0.882353 10:-1 11:-0.9 
-8192 1:-0.0344828 2:-0.991085 3:-1 4:-0.983513 5:-0.9 6:-1 7:-1 8:-1 9:-0.941176 10:-1 11:-0.7 
-8192 1:-0.448276 2:-0.999505 3:-1 4:-0.999942 5:-0.8 6:-1 7:-1 8:0.666667 9:-1 10:-1 11:-0.8 
-1460.187850826665 1:-0.517241 2:-0.998019 3:-1 4:-0.99856 5:1 6:-1 7:-1 8:-1 9:-1 10:-1 11:-0.6 
-8192 1:-0.517241 2:-0.998514 3:-1 4:-0.99856 5:1 6:-1 7:-1 8:-1 9:-1 10:-1 11:-0.6 
-8192 1:-0.62069 2:-0.997524 3:-0.870968 4:-0.998793 5:-0.4 6:-1 7:-1 8:-0.666667 9:-1 10:-0.714286 11:-0.6 
-3854.253282258786 1:-0.689655 2:-0.992571 3:-0.870968 4:-0.995912 5:0.6 6:-0.777778 7:-1 8:-0.666667 9:-1 10:-1 11:-0.7 
-8192 1:-0.413793 2:-0.998514 3:-1 4:-0.99237 5:1 6:-0.777778 7:-1 8:-1 9:-1 10:-1 11:-0.9 
-8192 1:-0.448276 2:-0.999505 3:-1 4:-0.99237 5:1 6:-0.777778 7:-1 8:-1 9:-1 10:-1 11:-0.9 
-8192 1:-0.37931 2:-0.994056 3:-1 4:-0.985187 5:-0.6 6:-0.777778 7:-1 8:-0.333333 9:-0.941176 10:-1 11:-1 
-8192 1:-0.965517 2:-0.993561 3:-1 4:-0.94729 5:-0.4 6:-0.333333 7:-0.333333 8:0.833333 9:-1 10:-1 11:-1 
-8192 1:-0.310345 2:-0.996533 3:-1 4:-0.99747 5:-0.8 6:-0.555556 7:-1 8:0.333333 9:-1 10:-0.714286 11:-1 
-6792.330584935369 1:-0.275862 2:-0.940565 3:-0.612903 4:-0.90982 5:-0.8 6:-0.555556 7:0.333333 8:0.333333 9:-1 10:-1 11:-0.9 
-8192 1:-0.551724 2:-0.998019 3:-1 4:-0.996088 5:-0.5 6:-0.555556 7:0.333333 8:-0.833333 9:-1 10:-1 11:-1 
